<?xml version="1.0"?>
<opencv_storage>
<cascade>
  <stageType>BOOST</stageType>
  <featureType>LBP</featureType>
  <height>36</height>
  <width>18</width>
  <stageParams>
    <boostType>GAB</boostType>
    <minHitRate>9.9900001287460327e-01</minHitRate>
    <maxFalseAlarm>5.0000000000000000e-01</maxFalseAlarm>
    <weightTrimRate>9.4999999999999996e-01</weightTrimRate>
    <maxDepth>1</maxDepth>
    <maxWeakCount>100</maxWeakCount></stageParams>
  <featureParams>
    <maxCatCount>256</maxCatCount>
    <featSize>1</featSize></featureParams>
  <stageNum>20</stageNum>
  <stages>
    <!-- stage 0 -->
    <_>
      <maxWeakCount>4</maxWeakCount>
      <stageThreshold>-1.2722440958023071e+00</stageThreshold>
      <weakClassifiers>
        <_>
          <internalNodes>
            0 -1 5 -775422977 -103300657 289529931 1359071439 -742274049
            874570115 1342294767 1363541983</internalNodes>
          <leafValues>
            -8.8825911283493042e-01 8.4730833768844604e-01</leafValues></_>
        <_>
          <internalNodes>
            0 -1 36 -538969089 -70147629 -2054041121 -683299693
            -918881297 1364361946 1047525375 1142157407</internalNodes>
          <leafValues>
            -8.0412441492080688e-01 5.7967114448547363e-01</leafValues></_>
        <_>
          <internalNodes>
            0 -1 139 -670513938 -746012524 562094428 360759432
            -913914994 -1417101296 -1742034710 -1437930854</internalNodes>
          <leafValues>
            -6.7268204689025879e-01 5.5473983287811279e-01</leafValues></_>
        <_>
          <internalNodes>
            0 -1 9 1367602131 -248264576 622603 -215809471 1494741509
            1074726914 1131364435 1936397105</internalNodes>
          <leafValues>
            -6.4274597167968750e-01 5.4325211048126221e-01</leafValues></_></weakClassifiers></_>
    <!-- stage 1 -->
    <_>
      <maxWeakCount>7</maxWeakCount>
      <stageThreshold>-1.0959807634353638e+00</stageThreshold>
      <weakClassifiers>
        <_>
          <internalNodes>
            0 -1 30 -134217729 -178913289 -142606337 -548017261
            1976958975 1347747829 -1654128725 1430780927</internalNodes>
          <leafValues>
            -7.2600346803665161e-01 7.3937857151031494e-01</leafValues></_>
        <_>
          <internalNodes>
            0 -1 31 1394079183 -216545201 32084999 -708459837 536999427
            1930547715 1096143367 -715786457</internalNodes>
          <leafValues>
            -6.4481025934219360e-01 5.2639055252075195e-01</leafValues></_>
        <_>
          <internalNodes>
            0 -1 144 -542320936 -1929344000 33352712 454577288
            -1896088850 -1960120628 -1730230113 -1952742741</internalNodes>
          <leafValues>
            -5.3811693191528320e-01 5.6300449371337891e-01</leafValues></_>
        <_>
          <internalNodes>
            0 -1 1 -178918401 -581472253 4196354 -1823909605 -1027093601
            -791444989 -1610329961 290966991</internalNodes>
          <leafValues>
            -6.5784144401550293e-01 4.5998841524124146e-01</leafValues></_>
        <_>
          <internalNodes>
            0 -1 141 -259497224 -779557376 206157968 486595852
            1077033659 -1094939144 -1395854150 -73671285</internalNodes>
          <leafValues>
            -4.8522645235061646e-01 6.2301677465438843e-01</leafValues></_>
        <_>
          <internalNodes>
            0 -1 94 1332469759 578937368 -1853139378 99554633 1364022924
            587270921 1805369487 562000715</internalNodes>
          <leafValues>
            -7.0911771059036255e-01 3.6542096734046936e-01</leafValues></_>
        <_>
          <internalNodes>
            0 -1 122 -565007618 -799539182 269222045 -468162537
            -939408242 -2011682792 1610926495 -1376912385</internalNodes>
          <leafValues>
            -6.3307648897171021e-01 4.5577090978622437e-01</leafValues></_></weakClassifiers></_>
    <!-- stage 2 -->
    <_>
      <maxWeakCount>9</maxWeakCount>
      <stageThreshold>-1.5855866670608521e+00</stageThreshold>
      <weakClassifiers>
        <_>
          <internalNodes>
            0 -1 18 -69207297 -78180273 -2147364851 1476085597
            -510942805 1912881155 1104013519 1363628559</internalNodes>
          <leafValues>
            -6.4718383550643921e-01 6.2786543369293213e-01</leafValues></_>
        <_>
          <internalNodes>
            0 -1 34 -13369357 -9175055 -135004161 -541 1898053619
            -109838478 1566048255 -546832525</internalNodes>
          <leafValues>
            -4.5678347349166870e-01 5.9509164094924927e-01</leafValues></_>
        <_>
          <internalNodes>
            0 -1 126 -1811382024 -2071985944 -1526709541 394821842
            -2071025528 -1954414536 -1515533094 -1953986418</internalNodes>
          <leafValues>
            -5.4649806022644043e-01 4.9810698628425598e-01</leafValues></_>
        <_>
          <internalNodes>
            0 -1 134 -825231873 -523857441 1073758285 -1328489897
            -1436091909 -1442029374 576776075 -354353697</internalNodes>
          <leafValues>
            -6.3445526361465454e-01 4.1843450069427490e-01</leafValues></_>
        <_>
          <internalNodes>
            0 -1 171 -796520440 268435459 647307 288424277 -930887030
            -2122315646 87791791 860584843</internalNodes>
          <leafValues>
            -5.5859798192977905e-01 4.2066186666488647e-01</leafValues></_>
        <_>
          <internalNodes>
            0 -1 164 1604188344 -171070332 8672409 -1692932064
            1878504600 -2071593308 201365673 -1617183702</internalNodes>
          <leafValues>
            -4.7151461243629456e-01 5.2396547794342041e-01</leafValues></_>
        <_>
          <internalNodes>
            0 -1 20 -630457725 -1862023008 136380417 -550535135 17795091
            -2008872945 542099719 -44571273</internalNodes>
          <leafValues>
            -5.1729118824005127e-01 4.7608345746994019e-01</leafValues></_>
        <_>
          <internalNodes>
            0 -1 148 681768442 42140320 -1803255887 -604044259 81687784
            -1078493218 274526719 -1694782213</internalNodes>
          <leafValues>
            -4.0786123275756836e-01 5.7178908586502075e-01</leafValues></_>
        <_>
          <internalNodes>
            0 -1 178 -675032888 -779037176 -1056603823 -49168246
            -788411429 -478117248 -1039952246 146973386</internalNodes>
          <leafValues>
            -6.1556810140609741e-01 3.9989936351776123e-01</leafValues></_></weakClassifiers></_>
    <!-- stage 3 -->
    <_>
      <maxWeakCount>9</maxWeakCount>
      <stageThreshold>-1.3344902992248535e+00</stageThreshold>
      <weakClassifiers>
        <_>
          <internalNodes>
            0 -1 2 -985402417 1869465139 -1072365285 1162154335
            -717102113 -517930872 1426297739 1431830479</internalNodes>
          <leafValues>
            -5.9764707088470459e-01 5.8202898502349854e-01</leafValues></_>
        <_>
          <internalNodes>
            0 -1 143 -2001204088 -1726997110 229161724 -1852829496
            -286741298 -1887392410 -172440833 -1416689458</internalNodes>
          <leafValues>
            -4.3420484662055969e-01 5.8138734102249146e-01</leafValues></_>
        <_>
          <internalNodes>
            0 -1 161 -658071336 1560545304 -1878988760 1594735112
            -135154014 -541156162 1444985994 -1181839350</internalNodes>
          <leafValues>
            -4.6907153725624084e-01 5.1089811325073242e-01</leafValues></_>
        <_>
          <internalNodes>
            0 -1 28 -236223869 -1812103150 1073946626 -778190335
            1510672131 -2011231549 1078396939 -276825497</internalNodes>
          <leafValues>
            -4.7382900118827820e-01 4.7516694664955139e-01</leafValues></_>
        <_>
          <internalNodes>
            0 -1 192 -792683324 1504389664 -1107937295 -11564662
            -1764964658 -1258520580 -836729669 -1410342174</internalNodes>
          <leafValues>
            -3.9682140946388245e-01 5.7465052604675293e-01</leafValues></_>
        <_>
          <internalNodes>
            0 -1 45 -1005650966 -1607816054 137115267 910018 2149102
            168982023 1278329567 -543169853</internalNodes>
          <leafValues>
            -3.7047001719474792e-01 5.5421763658523560e-01</leafValues></_>
        <_>
          <internalNodes>
            0 -1 94 400406527 263029130 1091081237 30605314 1745439197
            598410009 -1065254245 670925935</internalNodes>
          <leafValues>
            -6.0011249780654907e-01 3.5607692599296570e-01</leafValues></_>
        <_>
          <internalNodes>
            0 -1 155 -731021240 350029977 518675673 287389151
            -1628057893 -1147386674 -757289074 -1147152417</internalNodes>
          <leafValues>
            -4.0474176406860352e-01 5.6941527128219604e-01</leafValues></_>
        <_>
          <internalNodes>
            0 -1 142 -650055330 -1311725578 1291878544 257425912
            -83168375 -1076592552 -1517764692 -1999894024</internalNodes>
          <leafValues>
            -6.7245352268218994e-01 3.3071076869964600e-01</leafValues></_></weakClassifiers></_>
    <!-- stage 4 -->
    <_>
      <maxWeakCount>10</maxWeakCount>
      <stageThreshold>-9.8325932025909424e-01</stageThreshold>
      <weakClassifiers>
        <_>
          <internalNodes>
            0 -1 35 2012411647 2009266930 -33685505 -34078721 -721423105
            -252576522 -134264065 1441267711</internalNodes>
          <leafValues>
            -4.7788566350936890e-01 5.7604503631591797e-01</leafValues></_>
        <_>
          <internalNodes>
            0 -1 195 -569462548 -6814304 -1882675808 -1220153836
            -1918845232 -285333272 281019552 -1079312384</internalNodes>
          <leafValues>
            -4.5680549740791321e-01 4.9491599202156067e-01</leafValues></_>
        <_>
          <internalNodes>
            0 -1 128 -914298896 -820378560 -2047676419 529596560
            -859267352 -812774253 -1936822277 -273021742</internalNodes>
          <leafValues>
            -3.7372207641601562e-01 5.2525603771209717e-01</leafValues></_>
        <_>
          <internalNodes>
            0 -1 9 -767841597 -491924862 -1048313762 1641001218
            1782941887 1073938434 273121907 1601135207</internalNodes>
          <leafValues>
            -5.2649116516113281e-01 3.9126145839691162e-01</leafValues></_>
        <_>
          <internalNodes>
            0 -1 78 -624758034 -1067401598 1720347274 -531698144
            -1492662578 4298592 -157890577 -357571093</internalNodes>
          <leafValues>
            -3.2961031794548035e-01 6.6413968801498413e-01</leafValues></_>
        <_>
          <internalNodes>
            0 -1 119 -42077217 -253961723 -514830063 -259894001
            -1571854198 -2004483392 -2132630885 -1461521153</internalNodes>
          <leafValues>
            -6.5807980298995972e-01 3.4541046619415283e-01</leafValues></_>
        <_>
          <internalNodes>
            0 -1 176 -268172288 -180808176 12167 -115919855 -84114263
            -1315415172 572818543 -1148230865</internalNodes>
          <leafValues>
            -4.3416842818260193e-01 5.1537913084030151e-01</leafValues></_>
        <_>
          <internalNodes>
            0 -1 37 -1610448214 1170407681 196608 1545544843 9044098
            273121417 168427743 1672432875</internalNodes>
          <leafValues>
            -5.3006464242935181e-01 4.2559263110160828e-01</leafValues></_>
        <_>
          <internalNodes>
            0 -1 193 -736766817 -1692135269 1073807371 1502222803
            -1476361847 -1474297848 -129835122 -1945546101</internalNodes>
          <leafValues>
            -4.8687243461608887e-01 4.2627972364425659e-01</leafValues></_>
        <_>
          <internalNodes>
            0 -1 96 -295507314 -234250228 -2146844598 269513349
            469942402 25168385 285401798 82039215</internalNodes>
          <leafValues>
            -4.9040231108665466e-01 4.3231499195098877e-01</leafValues></_></weakClassifiers></_>
    <!-- stage 5 -->
    <_>
      <maxWeakCount>12</maxWeakCount>
      <stageThreshold>-1.0645270347595215e+00</stageThreshold>
      <weakClassifiers>
        <_>
          <internalNodes>
            0 -1 4 -252193577 -34078721 -260935439 -202280719 -168692481
            -235670529 1911812603 1910616303</internalNodes>
          <leafValues>
            -4.3756785988807678e-01 5.6318438053131104e-01</leafValues></_>
        <_>
          <internalNodes>
            0 -1 163 -787480104 430997696 1052950 2097231088 -251092758
            -486305664 -343240518 -1081440104</internalNodes>
          <leafValues>
            -4.2375096678733826e-01 5.0971013307571411e-01</leafValues></_>
        <_>
          <internalNodes>
            0 -1 39 -1005927774 753602176 673776176 -953471955
            1115816078 1572823006 1209156767 -536885505</internalNodes>
          <leafValues>
            -4.0475428104400635e-01 4.5487439632415771e-01</leafValues></_>
        <_>
          <internalNodes>
            0 -1 166 -1593198184 421031304 802290133 1570580956
            -1728204337 -1466323352 -1997236004 -1610807126</internalNodes>
          <leafValues>
            -3.9333054423332214e-01 4.8092877864837646e-01</leafValues></_>
        <_>
          <internalNodes>
            0 -1 51 432925422 1003864550 1627717642 932139013 2048929292
            599281939 -1953633589 1005542267</internalNodes>
          <leafValues>
            -5.9153795242309570e-01 3.1476855278015137e-01</leafValues></_>
        <_>
          <internalNodes>
            0 -1 157 -656521018 282855444 -1073200097 1371919633
            -1440741666 -122646520 671120006 -842157525</internalNodes>
          <leafValues>
            -5.3769856691360474e-01 3.8211986422538757e-01</leafValues></_>
        <_>
          <internalNodes>
            0 -1 93 708757666 -1662257472 -1094922516 1947540325
            -2113699182 551900658 1409368266 -1019230817</internalNodes>
          <leafValues>
            -3.6877888441085815e-01 4.8735445737838745e-01</leafValues></_>
        <_>
          <internalNodes>
            0 -1 64 1150985894 -333311064 112093433 -962382086
            -1904757585 608157628 -1738046821 -41220675</internalNodes>
          <leafValues>
            -3.9307752251625061e-01 4.8618531227111816e-01</leafValues></_>
        <_>
          <internalNodes>
            0 -1 41 -585674765 -571408159 545357967 -12123132 -786348879
            1023475904 598199007 1197808423</internalNodes>
          <leafValues>
            -5.8012515306472778e-01 3.3639997243881226e-01</leafValues></_>
        <_>
          <internalNodes>
            0 -1 147 -805254454 863015113 1887527613 433039586
            -444030837 -1081962359 -1416895942 34324939</internalNodes>
          <leafValues>
            -5.4420441389083862e-01 3.5171487927436829e-01</leafValues></_>
        <_>
          <internalNodes>
            0 -1 138 -1734342480 -1223095296 699141529 2109026093
            -2040260397 -1258868738 -1446273553 -1627931218</internalNodes>
          <leafValues>
            -4.0620237588882446e-01 4.6522670984268188e-01</leafValues></_>
        <_>
          <internalNodes>
            0 -1 186 -193470722 1427310743 213122 1145172321 -1165801266
            143675472 -2136944442 1893723579</internalNodes>
          <leafValues>
            -4.3556040525436401e-01 4.4567611813545227e-01</leafValues></_></weakClassifiers></_>
    <!-- stage 6 -->
    <_>
      <maxWeakCount>12</maxWeakCount>
      <stageThreshold>-1.0404781103134155e+00</stageThreshold>
      <weakClassifiers>
        <_>
          <internalNodes>
            0 -1 56 -484381008 -619122783 862155248 2098712819 23077104
            302002912 1999713787 2135361527</internalNodes>
          <leafValues>
            -3.0061349272727966e-01 5.8341246843338013e-01</leafValues></_>
        <_>
          <internalNodes>
            0 -1 133 -8653321 -1509867377 -1035730936 -1996763069
            -2096762553 -1576533055 555796458 706993119</internalNodes>
          <leafValues>
            -5.5242305994033813e-01 3.3077138662338257e-01</leafValues></_>
        <_>
          <internalNodes>
            0 -1 143 -1983379314 -787447680 -2138531379 -713027480
            -1567973238 -1744830038 -1693936977 -1414889334</internalNodes>
          <leafValues>
            -4.3685996532440186e-01 4.2263153195381165e-01</leafValues></_>
        <_>
          <internalNodes>
            0 -1 42 -2010453782 164599359 211863214 2053869301
            1141001354 1195364209 1183762671 -136324713</internalNodes>
          <leafValues>
            -3.9836329221725464e-01 4.5842698216438293e-01</leafValues></_>
        <_>
          <internalNodes>
            0 -1 137 1495040 295112202 304481965 835518523 -56819009
            825036685 1275892399 -3185009</internalNodes>
          <leafValues>
            -3.4828618168830872e-01 4.8807662725448608e-01</leafValues></_>
        <_>
          <internalNodes>
            0 -1 107 -635242797 -1795160358 -2147466987 1448096470
            -2004498225 -1073446886 -1903194213 -2147419772</internalNodes>
          <leafValues>
            -6.6896921396255493e-01 2.5797381997108459e-01</leafValues></_>
        <_>
          <internalNodes>
            0 -1 11 -212090765 -2113691608 8589739 -868247520
            -2145189793 1610942995 -1073428409 1934587767</internalNodes>
          <leafValues>
            -5.4156535863876343e-01 3.0996844172477722e-01</leafValues></_>
        <_>
          <internalNodes>
            0 -1 192 -660340604 1606224564 -33638863 -1188098549
            -1236749114 -1359134724 -1358682198 -7692145</internalNodes>
          <leafValues>
            -3.9936041831970215e-01 4.5964729785919189e-01</leafValues></_>
        <_>
          <internalNodes>
            0 -1 197 -26798888 -148625872 1549063413 -1324603552
            -587737990 2005095760 2146849471 -15773566</internalNodes>
          <leafValues>
            -3.4416788816452026e-01 5.4238557815551758e-01</leafValues></_>
        <_>
          <internalNodes>
            0 -1 183 -187840306 1570439767 106630 9053359 1879441418
            143851859 1116578470 4844261</internalNodes>
          <leafValues>
            -6.0794669389724731e-01 3.1397926807403564e-01</leafValues></_>
        <_>
          <internalNodes>
            0 -1 209 -667431710 -255385502 1953142848 -651968419
            -713104213 -314069679 -281766562 -217069993</internalNodes>
          <leafValues>
            -3.2295018434524536e-01 5.9255307912826538e-01</leafValues></_>
        <_>
          <internalNodes>
            0 -1 68 -258659666 1938625552 269484040 67747904 -1153015798
            457187336 203215446 50385579</internalNodes>
          <leafValues>
            -5.2661794424057007e-01 3.6610871553421021e-01</leafValues></_></weakClassifiers></_>
    <!-- stage 7 -->
    <_>
      <maxWeakCount>12</maxWeakCount>
      <stageThreshold>-1.3952953815460205e+00</stageThreshold>
      <weakClassifiers>
        <_>
          <internalNodes>
            0 -1 135 -318787857 -856888065 754761455 -655294481
            -285217025 -823349521 620556031 -1932201985</internalNodes>
          <leafValues>
            -4.5893719792366028e-01 5.4147464036941528e-01</leafValues></_>
        <_>
          <internalNodes>
            0 -1 63 1074448514 28261806 -1695654177 -826409041 2005739
            1559100887 545955519 -740302479</internalNodes>
          <leafValues>
            -3.9614143967628479e-01 4.3038707971572876e-01</leafValues></_>
        <_>
          <internalNodes>
            0 -1 173 121634816 -248130556 -530283315 863962265
            -1728017696 -26525567 -1169153956 -116450338</internalNodes>
          <leafValues>
            -4.1878208518028259e-01 3.9585980772972107e-01</leafValues></_>
        <_>
          <internalNodes>
            0 -1 15 -109839437 -777001740 -1736212448 -773351599
            -771603961 302780942 -1692087993 -748174603</internalNodes>
          <leafValues>
            -4.9346414208412170e-01 3.5240092873573303e-01</leafValues></_>
        <_>
          <internalNodes>
            0 -1 76 1242363606 -2136539990 -1934655766 -1543048598
            7049710 -1943378004 -1308254017 -319859541</internalNodes>
          <leafValues>
            -3.1990784406661987e-01 5.3478682041168213e-01</leafValues></_>
        <_>
          <internalNodes>
            0 -1 139 2279070 1535911160 1090786232 -1953699784
            1276151063 -1080261942 -1673516632 -1894200690</internalNodes>
          <leafValues>
            -6.3394671678543091e-01 2.6219639182090759e-01</leafValues></_>
        <_>
          <internalNodes>
            0 -1 114 -475479358 -337959141 -269945865 865906961
            -1582267190 -1735784920 -1920674373 -1987403077</internalNodes>
          <leafValues>
            -3.4753763675689697e-01 4.9911180138587952e-01</leafValues></_>
        <_>
          <internalNodes>
            0 -1 12 -774647407 -946926577 -788427775 1374754230
            -1014015605 545411587 1351009410 828593582</internalNodes>
          <leafValues>
            -7.3452311754226685e-01 2.2456242144107819e-01</leafValues></_>
        <_>
          <internalNodes>
            0 -1 180 -4195586 -753899016 1560552249 -587038671
            -1401553681 -1497209224 -1590678366 -11857737</internalNodes>
          <leafValues>
            -3.4030148386955261e-01 5.7637661695480347e-01</leafValues></_>
        <_>
          <internalNodes>
            0 -1 104 1373679288 590941344 1945595549 2072708583
            -2137423448 778279146 2079702925 -336781345</internalNodes>
          <leafValues>
            -3.2584643363952637e-01 5.3044533729553223e-01</leafValues></_>
        <_>
          <internalNodes>
            0 -1 191 -184556305 1558662351 2097083757 -775422469
            -321917713 -2063970849 -321069233 -269492257</internalNodes>
          <leafValues>
            -2.8922131657600403e-01 5.7123798131942749e-01</leafValues></_>
        <_>
          <internalNodes>
            0 -1 118 -1066668806 -2034597856 -151100206 553465504
            -218708410 -2074225055 -88416021 -642803781</internalNodes>
          <leafValues>
            -2.9834017157554626e-01 5.4121702909469604e-01</leafValues></_></weakClassifiers></_>
    <!-- stage 8 -->
    <_>
      <maxWeakCount>13</maxWeakCount>
      <stageThreshold>-1.0219074487686157e+00</stageThreshold>
      <weakClassifiers>
        <_>
          <internalNodes>
            0 -1 60 -6434369 -107751049 -2130149143 -145895165 304554823
            1183236176 1881145871 1090569831</internalNodes>
          <leafValues>
            -6.2457334995269775e-01 5.0242328643798828e-01</leafValues></_>
        <_>
          <internalNodes>
            0 -1 145 -108507971 -774784272 -1333766927 -644808684
            -1094864257 -341779264 146840762 -1902477128</internalNodes>
          <leafValues>
            -3.1292125582695007e-01 4.6657732129096985e-01</leafValues></_>
        <_>
          <internalNodes>
            0 -1 66 -895222290 -2004308284 922644006 -525340984 79028366
            76869968 650422219 -1023432801</internalNodes>
          <leafValues>
            -3.4424179792404175e-01 4.5155876874923706e-01</leafValues></_>
        <_>
          <internalNodes>
            0 -1 14 -648033081 1822286465 269565955 -1068248463 2365530
            -2109702143 1582186502 -85985467</internalNodes>
          <leafValues>
            -3.9602798223495483e-01 4.2114630341529846e-01</leafValues></_>
        <_>
          <internalNodes>
            0 -1 125 -1594186096 20192368 1358806551 -1015545183
            -2135194453 -2009530388 504559326 -1946449457</internalNodes>
          <leafValues>
            -3.5429123044013977e-01 4.4088542461395264e-01</leafValues></_>
        <_>
          <internalNodes>
            0 -1 85 -543689793 -154726047 1346470339 1398534155
            -2083069689 655787 -1862220849 34314970</internalNodes>
          <leafValues>
            -6.5154564380645752e-01 2.6853895187377930e-01</leafValues></_>
        <_>
          <internalNodes>
            0 -1 105 1228989576 -75428952 531148777 1599456737 20989115
            -1181537252 -2048737030 -294403</internalNodes>
          <leafValues>
            -3.2752996683120728e-01 4.8650044202804565e-01</leafValues></_>
        <_>
          <internalNodes>
            0 -1 179 1504549306 -1647240928 674822651 -1619930819
            -572916550 -1382271568 -1158138118 -1150589782</internalNodes>
          <leafValues>
            -3.0311325192451477e-01 5.2862018346786499e-01</leafValues></_>
        <_>
          <internalNodes>
            0 -1 44 -2031157554 1243655810 29282027 1141896871
            1174900200 -1976565810 -145572897 -806382389</internalNodes>
          <leafValues>
            -3.2370620965957642e-01 4.9272364377975464e-01</leafValues></_>
        <_>
          <internalNodes>
            0 -1 175 -13094904 -181383024 -169804353 -581591815 -28993
            -591006533 -570654725 -706223882</internalNodes>
          <leafValues>
            -3.9900919795036316e-01 4.1879996657371521e-01</leafValues></_>
        <_>
          <internalNodes>
            0 -1 199 963638218 -1518609967 277029056 90015745
            -1865940919 164561036 545370315 1363657608</internalNodes>
          <leafValues>
            -4.1642060875892639e-01 4.1514533758163452e-01</leafValues></_>
        <_>
          <internalNodes>
            0 -1 97 273338110 327188617 -2130630629 285900948 268447814
            143394 -1365728705 793488283</internalNodes>
          <leafValues>
            -5.6699973344802856e-01 2.9526561498641968e-01</leafValues></_>
        <_>
          <internalNodes>
            0 -1 165 391714440 -1623124552 520040127 534715933
            -1360351586 -253985284 1038675711 -1080862038</internalNodes>
          <leafValues>
            -3.3365938067436218e-01 5.3582251071929932e-01</leafValues></_></weakClassifiers></_>
    <!-- stage 9 -->
    <_>
      <maxWeakCount>13</maxWeakCount>
      <stageThreshold>-8.8460958003997803e-01</stageThreshold>
      <weakClassifiers>
        <_>
          <internalNodes>
            0 -1 29 -1721267773 759365655 184551427 1554449473 356712994
            33571075 1148233731 5491315</internalNodes>
          <leafValues>
            -5.3125000000000000e-01 4.8496240377426147e-01</leafValues></_>
        <_>
          <internalNodes>
            0 -1 166 664383960 -178753912 801683889 2141174232
            -369233186 -1398624662 150247624 -1077081970</internalNodes>
          <leafValues>
            -3.0972573161125183e-01 4.7836762666702271e-01</leafValues></_>
        <_>
          <internalNodes>
            0 -1 149 1028619227 868155600 293700111 466159645 -766698837
            2064318679 -1879014770 431950363</internalNodes>
          <leafValues>
            -4.5720687508583069e-01 3.4625291824340820e-01</leafValues></_>
        <_>
          <internalNodes>
            0 -1 95 -794127198 14823392 -184906142 -2076721588
            -2144172822 -2111439445 -664295682 -892348933</internalNodes>
          <leafValues>
            -2.8467133641242981e-01 5.1825284957885742e-01</leafValues></_>
        <_>
          <internalNodes>
            0 -1 64 176338174 -869625630 45083103 -1911939422 74880735
            -2079871724 -1325954081 -1102350945</internalNodes>
          <leafValues>
            -3.5402008891105652e-01 4.3349406123161316e-01</leafValues></_>
        <_>
          <internalNodes>
            0 -1 52 1924435150 462071868 5319 299860247 981995021
            947914890 -127337991 962536968</internalNodes>
          <leafValues>
            -5.0037151575088501e-01 3.0764612555503845e-01</leafValues></_>
        <_>
          <internalNodes>
            0 -1 153 -16777985 -1127416577 -1375797507 1911095294
            -1410627329 1592708348 -1561056514 -109199649</internalNodes>
          <leafValues>
            -3.6174815893173218e-01 4.2902129888534546e-01</leafValues></_>
        <_>
          <internalNodes>
            0 -1 3 1925456096 117441510 843453898 1402634717 -1463611147
            -1196979787 1670369982 1915140675</internalNodes>
          <leafValues>
            -4.6377700567245483e-01 3.5351437330245972e-01</leafValues></_>
        <_>
          <internalNodes>
            0 -1 213 -737032046 -117438245 921426197 -178976535
            -1531148772 -646681204 682018783 -76828977</internalNodes>
          <leafValues>
            -2.8086403012275696e-01 6.3907742500305176e-01</leafValues></_>
        <_>
          <internalNodes>
            0 -1 214 -84948798 -698532318 -666621310 -227014865
            -765662132 1618902889 -1908093310 -229464517</internalNodes>
          <leafValues>
            -3.4484651684761047e-01 4.5210438966751099e-01</leafValues></_>
        <_>
          <internalNodes>
            0 -1 215 -34386934 -232102362 1653370887 -143791805
            1283210570 1079260997 -1067739221 -96230433</internalNodes>
          <leafValues>
            -2.6881179213523865e-01 5.8863008022308350e-01</leafValues></_>
        <_>
          <internalNodes>
            0 -1 203 -121144241 1502320381 -554828061 231866029
            -18420658 264232447 -285217565 -1963598081</internalNodes>
          <leafValues>
            -3.1974354386329651e-01 4.9310219287872314e-01</leafValues></_>
        <_>
          <internalNodes>
            0 -1 49 -203480118 549949587 1509990592 34656408 457720428
            302598177 1246232914 1441000399</internalNodes>
          <leafValues>
            -5.3330993652343750e-01 3.1787925958633423e-01</leafValues></_></weakClassifiers></_>
    <!-- stage 10 -->
    <_>
      <maxWeakCount>14</maxWeakCount>
      <stageThreshold>-1.2054255008697510e+00</stageThreshold>
      <weakClassifiers>
        <_>
          <internalNodes>
            0 -1 33 -545262814 -13109503 -524767 -46170331 2002116372
            -14272763 2136457061 -10365627</internalNodes>
          <leafValues>
            -4.6058091521263123e-01 5.1244062185287476e-01</leafValues></_>
        <_>
          <internalNodes>
            0 -1 108 1514195960 -549213246 1560713536 1533448786
            1518360712 -1734648 -573797441 166064099</internalNodes>
          <leafValues>
            -4.5273876190185547e-01 3.1522288918495178e-01</leafValues></_>
        <_>
          <internalNodes>
            0 -1 140 8912964 -2138537470 822091802 -175848828
            -2113666833 -2013224952 -376921445 -1733359362</internalNodes>
          <leafValues>
            -4.0488547086715698e-01 3.6795246601104736e-01</leafValues></_>
        <_>
          <internalNodes>
            0 -1 100 2062023615 252152574 4293045 56607884 2043634074
            974981310 196331243 761232031</internalNodes>
          <leafValues>
            -4.4845557212829590e-01 3.2329243421554565e-01</leafValues></_>
        <_>
          <internalNodes>
            0 -1 65 -1064764417 1151581322 -1493218065 680225527
            140963231 -264426091 1217103499 -822084985</internalNodes>
          <leafValues>
            -2.8337028622627258e-01 5.2402198314666748e-01</leafValues></_>
        <_>
          <internalNodes>
            0 -1 89 -868136928 -1329461040 1375748188 1476690260
            -2113568632 -1879019392 -1064720136 447292063</internalNodes>
          <leafValues>
            -4.6854481101036072e-01 3.2062122225761414e-01</leafValues></_>
        <_>
          <internalNodes>
            0 -1 24 -57042773 -2129673806 687980554 -777007101 169312923
            1363771583 1396078851 -683674829</internalNodes>
          <leafValues>
            -4.0950977802276611e-01 3.8581183552742004e-01</leafValues></_>
        <_>
          <internalNodes>
            0 -1 164 2082076923 -170328880 1095034281 -1688470759
            -150286 -1527974266 -1521715029 -4474677</internalNodes>
          <leafValues>
            -2.5290727615356445e-01 6.3784915208816528e-01</leafValues></_>
        <_>
          <internalNodes>
            0 -1 168 137075447 581422066 -1363198547 -645985521
            -1897022211 -1359303172 -2140865286 -874525201</internalNodes>
          <leafValues>
            -2.9060730338096619e-01 5.1587313413619995e-01</leafValues></_>
        <_>
          <internalNodes>
            0 -1 162 -223383330 -1120759789 -133934057 490592797
            -754478453 -1340544887 1077475770 -2011317104</internalNodes>
          <leafValues>
            -4.3826296925544739e-01 3.5921266674995422e-01</leafValues></_>
        <_>
          <internalNodes>
            0 -1 70 -153029982 -1064710489 786724576 -1561344269
            -870379634 1179460942 -1249984854 -806627349</internalNodes>
          <leafValues>
            -3.0089986324310303e-01 5.1140218973159790e-01</leafValues></_>
        <_>
          <internalNodes>
            0 -1 156 -2147220958 758086714 399789881 -143939913
            -1335752659 -1523220614 1167854891 -67201686</internalNodes>
          <leafValues>
            -3.2598969340324402e-01 4.9298909306526184e-01</leafValues></_>
        <_>
          <internalNodes>
            0 -1 204 -186263298 269206051 1342226899 159613187
            -1031503858 1442971653 -489495850 16701067</internalNodes>
          <leafValues>
            -5.0819927453994751e-01 3.2590001821517944e-01</leafValues></_>
        <_>
          <internalNodes>
            0 -1 111 27398904 1898013480 -965152207 464631217
            -2002173256 -2002744595 -763694467 -1665736190</internalNodes>
          <leafValues>
            -3.9368119835853577e-01 4.0385288000106812e-01</leafValues></_></weakClassifiers></_>
    <!-- stage 11 -->
    <_>
      <maxWeakCount>15</maxWeakCount>
      <stageThreshold>-8.7968868017196655e-01</stageThreshold>
      <weakClassifiers>
        <_>
          <internalNodes>
            0 -1 22 -7351337 -352092029 8390664 -2126410617 629506963
            1191217731 1619231119 1962966790</internalNodes>
          <leafValues>
            -6.2921351194381714e-01 4.8751991987228394e-01</leafValues></_>
        <_>
          <internalNodes>
            0 -1 154 -318901505 -721646354 -1359167489 -124731937
            -553895169 -1125323524 -1358971137 -5390369</internalNodes>
          <leafValues>
            -3.3607208728790283e-01 4.4813132286071777e-01</leafValues></_>
        <_>
          <internalNodes>
            0 -1 16 280155123 1104627720 1083282472 -1460465661 15737003
            15040525 309743627 1919904881</internalNodes>
          <leafValues>
            -4.0555077791213989e-01 3.8328027725219727e-01</leafValues></_>
        <_>
          <internalNodes>
            0 -1 46 -87043345 -2147062526 576846511 -991434836
            -1976334353 14736852 -142612481 -620769345</internalNodes>
          <leafValues>
            -2.9223519563674927e-01 5.3234833478927612e-01</leafValues></_>
        <_>
          <internalNodes>
            0 -1 163 825235934 -921657320 -1270349176 -74765544
            -1207922674 -2019679733 1670035707 -1615164472</internalNodes>
          <leafValues>
            -4.2396807670593262e-01 3.5374245047569275e-01</leafValues></_>
        <_>
          <internalNodes>
            0 -1 50 2125711100 -738086651 1073186 352326401 855640588
            588851240 -2013251201 837365471</internalNodes>
          <leafValues>
            -4.8871108889579773e-01 2.9638975858688354e-01</leafValues></_>
        <_>
          <internalNodes>
            0 -1 115 -2102410494 682747682 -285611348 1146062141
            -1601533286 3448224 -2141860385 -1930459425</internalNodes>
          <leafValues>
            -2.9690417647361755e-01 5.1998353004455566e-01</leafValues></_>
        <_>
          <internalNodes>
            0 -1 57 -5505029 -72089606 2003926903 2145712115 850821119
            -1150093357 1974730739 -526863</internalNodes>
          <leafValues>
            -3.5224029421806335e-01 4.4909402728080750e-01</leafValues></_>
        <_>
          <internalNodes>
            0 -1 92 -523169677 2068259125 -1249600713 -852688607
            -1725843219 -640372672 -1730495507 -887252949</internalNodes>
          <leafValues>
            -2.6727971434593201e-01 6.0068506002426147e-01</leafValues></_>
        <_>
          <internalNodes>
            0 -1 181 604369660 940609672 1426128919 2139746304
            -1266462436 -1574727422 -1601730098 -1979021078</internalNodes>
          <leafValues>
            -4.7021743655204773e-01 3.4400138258934021e-01</leafValues></_>
        <_>
          <internalNodes>
            0 -1 184 -42227009 258719466 -1965101058 1322249967
            976925438 790687722 681634447 433322751</internalNodes>
          <leafValues>
            -3.9557009935379028e-01 4.1614499688148499e-01</leafValues></_>
        <_>
          <internalNodes>
            0 -1 101 -525867266 1122635030 184475820 1214143026
            -453574945 -1407254955 -253321233 -369102089</internalNodes>
          <leafValues>
            -2.7936357259750366e-01 6.0028177499771118e-01</leafValues></_>
        <_>
          <internalNodes>
            0 -1 165 52239900 -1862204479 830538003 -1281555575
            -2095939454 1208025480 -1383947349 1067346600</internalNodes>
          <leafValues>
            -4.8198154568672180e-01 3.5110142827033997e-01</leafValues></_>
        <_>
          <internalNodes>
            0 -1 170 -431751168 421200030 206012689 -1824391153
            -966819443 424227093 -1122456641 2132703903</internalNodes>
          <leafValues>
            -4.4930231571197510e-01 3.6819416284561157e-01</leafValues></_>
        <_>
          <internalNodes>
            0 -1 198 -650973090 -131783156 -362473577 -579777019
            -453475320 -2016588744 168593577 -87129895</internalNodes>
          <leafValues>
            -2.9509484767913818e-01 5.3984099626541138e-01</leafValues></_></weakClassifiers></_>
    <!-- stage 12 -->
    <_>
      <maxWeakCount>14</maxWeakCount>
      <stageThreshold>-9.4137352705001831e-01</stageThreshold>
      <weakClassifiers>
        <_>
          <internalNodes>
            0 -1 72 -537919521 526743192 -1 2117828445 -1498415137
            -1553612991 -1074855937 554506399</internalNodes>
          <leafValues>
            -2.8790459036827087e-01 5.8797186613082886e-01</leafValues></_>
        <_>
          <internalNodes>
            0 -1 25 -8660509 -1074020956 -1054208 1870601824 241108047
            -16425 1309625863 -4809</internalNodes>
          <leafValues>
            -3.1143608689308167e-01 4.7783163189888000e-01</leafValues></_>
        <_>
          <internalNodes>
            0 -1 185 1353912568 -182741751 93356098 17821715 -362692474
            1065474 1075366030 717152139</internalNodes>
          <leafValues>
            -4.6476280689239502e-01 3.2643723487854004e-01</leafValues></_>
        <_>
          <internalNodes>
            0 -1 113 -100632082 -1325389887 1101005474 37853389
            -1409017694 -1098872849 -1458331573 696362</internalNodes>
          <leafValues>
            -5.7758146524429321e-01 2.5259137153625488e-01</leafValues></_>
        <_>
          <internalNodes>
            0 -1 80 -352588050 570832384 -1061788446 604778218 813680526
            337785893 -470436641 -124846661</internalNodes>
          <leafValues>
            -3.2331269979476929e-01 4.8267444968223572e-01</leafValues></_>
        <_>
          <internalNodes>
            0 -1 144 184866410 730988616 -1926975463 999988352
            -1442790950 -1188937720 -1740567816 -1146165013</internalNodes>
          <leafValues>
            -4.3413719534873962e-01 3.8282406330108643e-01</leafValues></_>
        <_>
          <internalNodes>
            0 -1 42 1082274434 -934869980 134561809 1332642463 231566
            1352892675 1376567455 -79697375</internalNodes>
          <leafValues>
            -4.4371619820594788e-01 3.6849433183670044e-01</leafValues></_>
        <_>
          <internalNodes>
            0 -1 98 -1069815573 -1856209247 -1342789900 -963810390
            -1226589791 154203917 -1797407489 -915693841</internalNodes>
          <leafValues>
            -2.5206512212753296e-01 6.4862662553787231e-01</leafValues></_>
        <_>
          <internalNodes>
            0 -1 136 -2046300989 67465223 -1073708736 738480731
            -435871709 -469433855 34662963 -1532203093</internalNodes>
          <leafValues>
            -6.7976611852645874e-01 2.7723044157028198e-01</leafValues></_>
        <_>
          <internalNodes>
            0 -1 167 33755282 -928052373 -1891669057 -1747474695
            2054117310 -287680513 -1883256833 -545386834</internalNodes>
          <leafValues>
            -3.2840251922607422e-01 5.4169166088104248e-01</leafValues></_>
        <_>
          <internalNodes>
            0 -1 6 1359512278 1176502360 604078484 1568998976
            -2130210640 1359315329 1437275285 1337941667</internalNodes>
          <leafValues>
            -4.2588189244270325e-01 4.0650266408920288e-01</leafValues></_>
        <_>
          <internalNodes>
            0 -1 123 1854426202 1404239913 1437175667 1471521982
            -1720973154 -1206506097 -896659457 -1195808625</internalNodes>
          <leafValues>
            -3.8219282031059265e-01 4.7390151023864746e-01</leafValues></_>
        <_>
          <internalNodes>
            0 -1 79 466890934 306792450 276889605 1224802436 1661078024
            740884483 -954546054 924747787</internalNodes>
          <leafValues>
            -5.6266379356384277e-01 3.1425511837005615e-01</leafValues></_>
        <_>
          <internalNodes>
            0 -1 0 -2000609118 -377284147 1157899340 -721173499
            536903730 -1548809279 -962294386 -263995501</internalNodes>
          <leafValues>
            -4.8107859492301941e-01 3.6578285694122314e-01</leafValues></_></weakClassifiers></_>
    <!-- stage 13 -->
    <_>
      <maxWeakCount>15</maxWeakCount>
      <stageThreshold>-1.0362547636032104e+00</stageThreshold>
      <weakClassifiers>
        <_>
          <internalNodes>
            0 -1 88 -822214657 1968504754 -131077 2012544882 980741759
            2137278513 -118161409 281317923</internalNodes>
          <leafValues>
            -4.0189126133918762e-01 5.3271567821502686e-01</leafValues></_>
        <_>
          <internalNodes>
            0 -1 54 877695898 975421463 285819163 760157469 1076371936
            327808 -215345301 1064788775</internalNodes>
          <leafValues>
            -4.5949798822402954e-01 3.4965303540229797e-01</leafValues></_>
        <_>
          <internalNodes>
            0 -1 150 894533053 59457672 1373724674 704319618 -1073733496
            -1877999470 1092124842 112943491</internalNodes>
          <leafValues>
            -5.3642827272415161e-01 2.8837186098098755e-01</leafValues></_>
        <_>
          <internalNodes>
            0 -1 131 -2145205518 -2111578072 6344658 33973952 -170884866
            -421202724 -698159474 -1411402817</internalNodes>
          <leafValues>
            -2.7698078751564026e-01 5.9033340215682983e-01</leafValues></_>
        <_>
          <internalNodes>
            0 -1 34 -1827700273 2088828940 1476481099 -2067332927
            -1559770889 -313098239 71794793 -546845389</internalNodes>
          <leafValues>
            -4.2163020372390747e-01 3.7188112735748291e-01</leafValues></_>
        <_>
          <internalNodes>
            0 -1 206 -74201074 559417419 -2009038718 1077376023
            -528358902 352346881 -1543208709 -894174405</internalNodes>
          <leafValues>
            -4.1807353496551514e-01 3.7284141778945923e-01</leafValues></_>
        <_>
          <internalNodes>
            0 -1 143 -1897395058 -1455076212 -1649624323 -2053832632
            -5624097 -2019360922 -700724481 -1076893461</internalNodes>
          <leafValues>
            -3.5316962003707886e-01 4.9597260355949402e-01</leafValues></_>
        <_>
          <internalNodes>
            0 -1 120 -2147442478 35204280 1583590601 639635275
            -592871378 -1932106311 -1637043012 -810571009</internalNodes>
          <leafValues>
            -3.0082517862319946e-01 5.2804708480834961e-01</leafValues></_>
        <_>
          <internalNodes>
            0 -1 76 6617334 1074274629 -1870099300 1279825922
            -2009030408 168339467 -2138446109 934254759</internalNodes>
          <leafValues>
            -4.2553910613059998e-01 3.9314407110214233e-01</leafValues></_>
        <_>
          <internalNodes>
            0 -1 159 -1288733380 -2054770283 855785888 -1615591880
            33675265 -619282384 -1635548384 -1977046968</internalNodes>
          <leafValues>
            -5.2725619077682495e-01 2.9258596897125244e-01</leafValues></_>
        <_>
          <internalNodes>
            0 -1 200 -479868720 -617951062 710936315 -720800064
            -1790432236 -301171371 -124649581 -1885103993</internalNodes>
          <leafValues>
            -2.8162238001823425e-01 5.9436786174774170e-01</leafValues></_>
        <_>
          <internalNodes>
            0 -1 124 549773394 -1338096422 1056833384 -1649818270
            515801324 -1759858737 -1342652965 -925003809</internalNodes>
          <leafValues>
            -3.7565484642982483e-01 4.4702675938606262e-01</leafValues></_>
        <_>
          <internalNodes>
            0 -1 32 805472874 -1105535935 -805169829 2031029517
            -1056821217 331265 -1507575653 872925263</internalNodes>
          <leafValues>
            -5.7341212034225464e-01 3.0947956442832947e-01</leafValues></_>
        <_>
          <internalNodes>
            0 -1 208 -327381780 -71393150 -1887691159 -1825014781
            -596767606 -1645535394 -1914913634 -1424251654</internalNodes>
          <leafValues>
            -3.7275984883308411e-01 4.7409939765930176e-01</leafValues></_>
        <_>
          <internalNodes>
            0 -1 86 -970524677 674332083 -1162741901 640763751
            -1459576822 -1338769541 1083420715 -915413487</internalNodes>
          <leafValues>
            -3.3582785725593567e-01 5.0394022464752197e-01</leafValues></_></weakClassifiers></_>
    <!-- stage 14 -->
    <_>
      <maxWeakCount>13</maxWeakCount>
      <stageThreshold>-1.0565204620361328e+00</stageThreshold>
      <weakClassifiers>
        <_>
          <internalNodes>
            0 -1 90 1313063197 822198326 604308625 318841573 -1610547190
            68784393 740853963 4505780</internalNodes>
          <leafValues>
            -5.5482816696166992e-01 4.9850907921791077e-01</leafValues></_>
        <_>
          <internalNodes>
            0 -1 106 177139794 -1206904832 8978755 -849735150
            -1868529457 -595306354 -2004088565 -1665082848</internalNodes>
          <leafValues>
            -4.4949597120285034e-01 3.3963912725448608e-01</leafValues></_>
        <_>
          <internalNodes>
            0 -1 202 -18887593 1408966399 -1895858198 333390830
            -228078582 -1250026244 -1930720122 1791487607</internalNodes>
          <leafValues>
            -3.1673383712768555e-01 4.8272541165351868e-01</leafValues></_>
        <_>
          <internalNodes>
            0 -1 10 -790757173 -2138111832 13140042 1075777569
            -2013157345 4399119 -1878843361 2021646389</internalNodes>
          <leafValues>
            -4.5594888925552368e-01 3.3631440997123718e-01</leafValues></_>
        <_>
          <internalNodes>
            0 -1 19 -805240630 -673541915 738641852 925450322
            -2024897652 58720791 791301657 1203555211</internalNodes>
          <leafValues>
            -4.8943901062011719e-01 3.0851218104362488e-01</leafValues></_>
        <_>
          <internalNodes>
            0 -1 27 -686644310 154337322 -1340079870 865476743 329243146
            -1878851125 23269442 -581744542</internalNodes>
          <leafValues>
            -4.3923807144165039e-01 3.6021959781646729e-01</leafValues></_>
        <_>
          <internalNodes>
            0 -1 59 1343375518 12291 -1072525053 -2147385342 1216501566
            -1073127254 -234725505 799761903</internalNodes>
          <leafValues>
            -4.3513378500938416e-01 3.6867839097976685e-01</leafValues></_>
        <_>
          <internalNodes>
            0 -1 76 -939270945 -928060246 -559010204 -1542757726
            627243211 -119328914 -1467043141 -9009</internalNodes>
          <leafValues>
            -2.5518342852592468e-01 7.2107207775115967e-01</leafValues></_>
        <_>
          <internalNodes>
            0 -1 194 -364904312 1237729408 1615356311 -1458658284
            -1602090302 1794031836 -1061113678 -1146961886</internalNodes>
          <leafValues>
            -4.2070823907852173e-01 4.0426492691040039e-01</leafValues></_>
        <_>
          <internalNodes>
            0 -1 182 1660500201 416722152 29920605 -548463028 -990003492
            -59974612 -2046530053 -573503348</internalNodes>
          <leafValues>
            -3.3520698547363281e-01 5.0471836328506470e-01</leafValues></_>
        <_>
          <internalNodes>
            0 -1 196 -265559530 145940201 -1438758158 223026413
            -587801746 -299469962 -2026514216 -1951431425</internalNodes>
          <leafValues>
            -3.5607805848121643e-01 4.6789023280143738e-01</leafValues></_>
        <_>
          <internalNodes>
            0 -1 212 -876044224 -575579119 1520905295 -753591473
            167826570 521931092 -495005733 -1350646037</internalNodes>
          <leafValues>
            -3.2667019963264465e-01 5.2048039436340332e-01</leafValues></_>
        <_>
          <internalNodes>
            0 -1 102 189518312 701023896 151585035 399184021 1611220172
            840960160 42584235 1802193613</internalNodes>
          <leafValues>
            -4.5400029420852661e-01 3.6926361918449402e-01</leafValues></_></weakClassifiers></_>
    <!-- stage 15 -->
    <_>
      <maxWeakCount>13</maxWeakCount>
      <stageThreshold>-8.1069922447204590e-01</stageThreshold>
      <weakClassifiers>
        <_>
          <internalNodes>
            0 -1 38 589834 -788393974 218439707 360775686 17368075
            1367510666 546179721 1640207488</internalNodes>
          <leafValues>
            -6.3636362552642822e-01 4.7700393199920654e-01</leafValues></_>
        <_>
          <internalNodes>
            0 -1 74 -1909846282 -123641952 707418287 -316461223
            -172999719 -1644886768 2045394825 -355785829</internalNodes>
          <leafValues>
            -2.7566355466842651e-01 5.3028553724288940e-01</leafValues></_>
        <_>
          <internalNodes>
            0 -1 188 -924987194 83951700 4723879 16974150 980666531
            -1962725243 -2092531090 1795095275</internalNodes>
          <leafValues>
            -4.2354735732078552e-01 3.8010093569755554e-01</leafValues></_>
        <_>
          <internalNodes>
            0 -1 23 1238272766 774556196 873267998 -577814054 1082776039
            -528449403 1150116096 1387520739</internalNodes>
          <leafValues>
            -4.4985187053680420e-01 3.5707962512969971e-01</leafValues></_>
        <_>
          <internalNodes>
            0 -1 187 -233979649 -1712761377 -134255633 -710017575
            -101062406 -244556545 -911377669 -742032711</internalNodes>
          <leafValues>
            -2.6806932687759399e-01 5.6699883937835693e-01</leafValues></_>
        <_>
          <internalNodes>
            0 -1 43 1087032559 160189152 1227857996 -1970309497
            -1004371237 -842404258 1153158719 -19507</internalNodes>
          <leafValues>
            -3.3793088793754578e-01 4.8572534322738647e-01</leafValues></_>
        <_>
          <internalNodes>
            0 -1 53 1881747534 722277788 1074274696 227607057 1082153288
            1528891516 -938745206 256561966</internalNodes>
          <leafValues>
            -5.8748131990432739e-01 2.7559503912925720e-01</leafValues></_>
        <_>
          <internalNodes>
            0 -1 112 -670763581 -703516576 -2132045175 431526785
            18537097 1803595080 -1965168485 -812983586</internalNodes>
          <leafValues>
            -3.2130220532417297e-01 5.4122102260589600e-01</leafValues></_>
        <_>
          <internalNodes>
            0 -1 8 1370600379 270112800 -2145353621 -1851682045 36245690
            680001715 1078067523 -704685293</internalNodes>
          <leafValues>
            -3.8460215926170349e-01 4.3271356821060181e-01</leafValues></_>
        <_>
          <internalNodes>
            0 -1 127 -1978252127 -905787248 -1878867831 -985656625
            -507452774 -1937618816 -1179719479 179212410</internalNodes>
          <leafValues>
            -4.2499986290931702e-01 4.1186249256134033e-01</leafValues></_>
        <_>
          <internalNodes>
            0 -1 172 1115952192 -1339418142 716971147 -2093073313
            883205128 -630418060 -1489006949 -30467910</internalNodes>
          <leafValues>
            -3.4856924414634705e-01 5.2370101213455200e-01</leafValues></_>
        <_>
          <internalNodes>
            0 -1 189 -999879665 -245069054 941750845 -204604751
            -1087373077 -1123136043 -1212184693 -75790033</internalNodes>
          <leafValues>
            -2.2821593284606934e-01 7.3362922668457031e-01</leafValues></_>
        <_>
          <internalNodes>
            0 -1 91 -787820054 -649002245 16 422217481 146801666
            250126474 -1020723124 30134879</internalNodes>
          <leafValues>
            -4.9086067080497742e-01 3.5002785921096802e-01</leafValues></_></weakClassifiers></_>
    <!-- stage 16 -->
    <_>
      <maxWeakCount>14</maxWeakCount>
      <stageThreshold>-1.0836514234542847e+00</stageThreshold>
      <weakClassifiers>
        <_>
          <internalNodes>
            0 -1 158 -1729198376 1419159180 212471121 1968156312
            -423820626 -38254691 -898497882 -1197505019</internalNodes>
          <leafValues>
            -5.2854124456644058e-02 6.6445183753967285e-01</leafValues></_>
        <_>
          <internalNodes>
            0 -1 77 -1468075782 -939350368 1023082126 -393648434
            -1608338263 -1066343017 -2013338881 -352338497</internalNodes>
          <leafValues>
            -2.0365205407142639e-01 6.5222948789596558e-01</leafValues></_>
        <_>
          <internalNodes>
            0 -1 40 42096130 27591945 -1609965568 -804715391 9984138
            -893353462 1636860617 -72363011</internalNodes>
          <leafValues>
            -4.1413354873657227e-01 3.7182417511940002e-01</leafValues></_>
        <_>
          <internalNodes>
            0 -1 26 288474771 -91156174 -1790639805 -551829151
            -1799780218 268960787 822099470 1863891617</internalNodes>
          <leafValues>
            -4.5829972624778748e-01 3.6544775962829590e-01</leafValues></_>
        <_>
          <internalNodes>
            0 -1 129 -803563382 134357890 316834544 149793301 -257260158
            -2063182018 -554510630 -1410430005</internalNodes>
          <leafValues>
            -3.1554868817329407e-01 5.4790115356445312e-01</leafValues></_>
        <_>
          <internalNodes>
            0 -1 211 -764868368 -949184 2086488079 -113654842
            -2025126370 -902298510 -1420183057 -1682208001</internalNodes>
          <leafValues>
            -2.4899721145629883e-01 6.2276691198348999e-01</leafValues></_>
        <_>
          <internalNodes>
            0 -1 87 1187005706 -819985390 -1845428221 1942552577
            268716303 -897318772 1102383757 348179042</internalNodes>
          <leafValues>
            -6.6072386503219604e-01 2.7950626611709595e-01</leafValues></_>
        <_>
          <internalNodes>
            0 -1 93 -1474628954 -1609953124 13336938 1140965515
            -1064533866 -1434353598 1491968694 170912715</internalNodes>
          <leafValues>
            -4.3510454893112183e-01 3.7393432855606079e-01</leafValues></_>
        <_>
          <internalNodes>
            0 -1 130 -1772304862 1347092678 21037867 1401463043
            1250058807 -2146860082 -15881589 28023374</internalNodes>
          <leafValues>
            -4.8072522878646851e-01 3.6143875122070312e-01</leafValues></_>
        <_>
          <internalNodes>
            0 -1 146 47317706 -1130755508 37298 -1522532144 94676202
            -1073168382 -2130146614 -1434803990</internalNodes>
          <leafValues>
            -4.2248967289924622e-01 4.3189758062362671e-01</leafValues></_>
        <_>
          <internalNodes>
            0 -1 61 145220338 -356506392 -1406295165 -1449017368
            887535775 -137950155 -1354923265 -536900141</internalNodes>
          <leafValues>
            -3.0788064002990723e-01 5.9297525882720947e-01</leafValues></_>
        <_>
          <internalNodes>
            0 -1 210 -1140852501 -1357988208 -126116504 1622142501
            401946310 7766082 269961938 1390268619</internalNodes>
          <leafValues>
            -3.7204670906066895e-01 4.6770623326301575e-01</leafValues></_>
        <_>
          <internalNodes>
            0 -1 7 -528268342 -1290432207 1242272610 1777336484
            -2138013149 -679475032 135473178 914987531</internalNodes>
          <leafValues>
            -5.0863677263259888e-01 3.5787335038185120e-01</leafValues></_>
        <_>
          <internalNodes>
            0 -1 201 -407228352 -34019336 -1272394555 -1285823267
            -1926098112 -1881260556 -1537170277 -1682455229</internalNodes>
          <leafValues>
            -3.7417978048324585e-01 5.2645438909530640e-01</leafValues></_></weakClassifiers></_>
    <!-- stage 17 -->
    <_>
      <maxWeakCount>14</maxWeakCount>
      <stageThreshold>-7.1331280469894409e-01</stageThreshold>
      <weakClassifiers>
        <_>
          <internalNodes>
            0 -1 84 -1795817473 -671875073 -1073740285 828702728
            -1073020670 13373717 1096159443 4448099</internalNodes>
          <leafValues>
            -4.2637643218040466e-01 5.2088660001754761e-01</leafValues></_>
        <_>
          <internalNodes>
            0 -1 13 256814870 13541546 -37752838 -1588629598 798484469
            -1517520992 1708978935 -268829002</internalNodes>
          <leafValues>
            -3.1607833504676819e-01 4.8187696933746338e-01</leafValues></_>
        <_>
          <internalNodes>
            0 -1 11 2003892151 1870118882 2138832815 2141716355
            -147587137 318996239 2003269387 939507703</internalNodes>
          <leafValues>
            -3.2420450448989868e-01 5.0224888324737549e-01</leafValues></_>
        <_>
          <internalNodes>
            0 -1 78 -476594450 -2098942238 115325570 -1597804946
            -1512769802 -1060403358 -166349322 -860891717</internalNodes>
          <leafValues>
            -3.3377194404602051e-01 4.9619245529174805e-01</leafValues></_>
        <_>
          <internalNodes>
            0 -1 109 46563448 -533008426 -1501549089 -571606389
            567806179 -1987047978 -1152783109 -1898332403</internalNodes>
          <leafValues>
            -3.3611780405044556e-01 5.1955318450927734e-01</leafValues></_>
        <_>
          <internalNodes>
            0 -1 190 -657874928 -1675165680 -2129157346 1837990063
            946408984 1741643470 -600307104 -545847998</internalNodes>
          <leafValues>
            -3.7674081325531006e-01 4.3153697252273560e-01</leafValues></_>
        <_>
          <internalNodes>
            0 -1 69 215763710 285589521 1073807398 285310993 1797007436
            704852482 -1096134709 1046489164</internalNodes>
          <leafValues>
            -5.5000323057174683e-01 2.9495075345039368e-01</leafValues></_>
        <_>
          <internalNodes>
            0 -1 110 -1068508542 -390536476 -492481710 -1997251785
            -822403872 -938177684 -1837918309 -1701272949</internalNodes>
          <leafValues>
            -2.9847827553749084e-01 5.7838630676269531e-01</leafValues></_>
        <_>
          <internalNodes>
            0 -1 160 81682500 -2097020330 -704642787 2034918081
            -1431648226 -1455882238 -1509383750 -1429593970</internalNodes>
          <leafValues>
            -4.3938875198364258e-01 3.9962744712829590e-01</leafValues></_>
        <_>
          <internalNodes>
            0 -1 71 -1626648553 -1040170494 395267 -117372669 831085579
            -536727414 -1610280951 1619494147</internalNodes>
          <leafValues>
            -5.8465993404388428e-01 2.9954555630683899e-01</leafValues></_>
        <_>
          <internalNodes>
            0 -1 192 -778303400 -754192118 352342297 -1107165116
            -645754696 -1341554680 -485875150 -360283614</internalNodes>
          <leafValues>
            -4.2515107989311218e-01 4.3141585588455200e-01</leafValues></_>
        <_>
          <internalNodes>
            0 -1 177 -742153524 1947105456 1889557427 -12226464
            -574590993 -531305258 -722146096 -5248846</internalNodes>
          <leafValues>
            -3.5557880997657776e-01 5.2198648452758789e-01</leafValues></_>
        <_>
          <internalNodes>
            0 -1 82 -1295712188 -1488584698 105714202 -968244779
            -1794687344 -444037073 403101981 1879051023</internalNodes>
          <leafValues>
            -4.9765735864639282e-01 3.7957331538200378e-01</leafValues></_>
        <_>
          <internalNodes>
            0 -1 99 1966426354 275108113 -2139092816 305299906
            -921303476 185502370 -1150749793 145549961</internalNodes>
          <leafValues>
            -4.6405458450317383e-01 3.9130970835685730e-01</leafValues></_></weakClassifiers></_>
    <!-- stage 18 -->
    <_>
      <maxWeakCount>13</maxWeakCount>
      <stageThreshold>-8.4256404638290405e-01</stageThreshold>
      <weakClassifiers>
        <_>
          <internalNodes>
            0 -1 48 -1570252050 1748925950 578692130 -1864408394
            828142085 272694624 1970746181 14022071</internalNodes>
          <leafValues>
            -3.6061945557594299e-01 5.3769141435623169e-01</leafValues></_>
        <_>
          <internalNodes>
            0 -1 28 -222563422 -258359294 -426217472 -1735534591
            151851051 8388894 1079857472 1602189623</internalNodes>
          <leafValues>
            -5.4126280546188354e-01 2.9028147459030151e-01</leafValues></_>
        <_>
          <internalNodes>
            0 -1 216 -543960704 1528139781 -2069469504 -614209850
            890739716 -780773740 1479996558 -230492193</internalNodes>
          <leafValues>
            -2.9298436641693115e-01 5.0509995222091675e-01</leafValues></_>
        <_>
          <internalNodes>
            0 -1 103 1307959039 1492187888 -235277827 -78055952
            -218235650 -722458376 -923788046 -832257</internalNodes>
          <leafValues>
            -3.3230775594711304e-01 4.5511698722839355e-01</leafValues></_>
        <_>
          <internalNodes>
            0 -1 81 -932326722 3246217 537431170 542838836 -939404795
            29503508 -1585396853 -1608910969</internalNodes>
          <leafValues>
            -3.8054329156875610e-01 3.9266610145568848e-01</leafValues></_>
        <_>
          <internalNodes>
            0 -1 62 11187126 788738720 524831 -1622503285 69798050
            805921201 38871727 1226509889</internalNodes>
          <leafValues>
            -4.6426847577095032e-01 3.3619543910026550e-01</leafValues></_>
        <_>
          <internalNodes>
            0 -1 207 550076622 -1761272512 1345581318 -1651121470 246400
            -2147418111 286380310 175833815</internalNodes>
          <leafValues>
            -4.9963819980621338e-01 2.9509514570236206e-01</leafValues></_>
        <_>
          <internalNodes>
            0 -1 151 -2144805641 71303370 1120533307 194611359
            2079522687 -1338858892 1828516822 -1381258381</internalNodes>
          <leafValues>
            -3.4978345036506653e-01 4.6706250309944153e-01</leafValues></_>
        <_>
          <internalNodes>
            0 -1 17 1368479783 4309316 268582915 -1995251484 1782583314
            -1576926837 1444563988 -208710795</internalNodes>
          <leafValues>
            -5.2433562278747559e-01 3.1217452883720398e-01</leafValues></_>
        <_>
          <internalNodes>
            0 -1 116 -1012740462 -387691166 -51384490 271637886
            -273618269 -1933115588 -1771382317 -1794519078</internalNodes>
          <leafValues>
            -3.0282801389694214e-01 5.6453365087509155e-01</leafValues></_>
        <_>
          <internalNodes>
            0 -1 205 -613068709 -1816434691 -556339479 170839722
            -149468130 1932478206 -1183855511 -353898513</internalNodes>
          <leafValues>
            -3.1036332249641418e-01 5.4432517290115356e-01</leafValues></_>
        <_>
          <internalNodes>
            0 -1 152 1672728614 330647023 -587273876 868105913
            -722125623 2097283068 -996775719 -15479343</internalNodes>
          <leafValues>
            -3.0225098133087158e-01 5.4887467622756958e-01</leafValues></_>
        <_>
          <internalNodes>
            0 -1 169 -20123025 -841353554 843252408 -721160352
            -2013941638 -1590686204 -1465979003 -137969750</internalNodes>
          <leafValues>
            -2.3205476999282837e-01 6.5732425451278687e-01</leafValues></_></weakClassifiers></_>
    <!-- stage 19 -->
    <_>
      <maxWeakCount>15</maxWeakCount>
      <stageThreshold>-9.3066555261611938e-01</stageThreshold>
      <weakClassifiers>
        <_>
          <internalNodes>
            0 -1 21 -201850893 -151980045 1910602231 1903423665
            -248252429 844329779 1374942711 905441791</internalNodes>
          <leafValues>
            -3.5058823227882385e-01 5.2115941047668457e-01</leafValues></_>
        <_>
          <internalNodes>
            0 -1 67 -2145324054 -999362782 -1841449306 -2145145170
            171871466 562855311 -1404649525 -1025575571</internalNodes>
          <leafValues>
            -3.0403319001197815e-01 4.4634938240051270e-01</leafValues></_>
        <_>
          <internalNodes>
            0 -1 75 972207543 963977043 -131574291 -1122008700 714797961
            -1468747646 -1740736289 -811038705</internalNodes>
          <leafValues>
            -2.0267829298973083e-01 6.7264896631240845e-01</leafValues></_>
        <_>
          <internalNodes>
            0 -1 117 -1193476177 6922478 -17105222 296069631 1173551102
            1614837380 639627263 -67138610</internalNodes>
          <leafValues>
            -3.0624851584434509e-01 5.0873857736587524e-01</leafValues></_>
        <_>
          <internalNodes>
            0 -1 132 852247513 59113650 -2146385901 694173713 1250493004
            2076779653 -1073503058 36674977</internalNodes>
          <leafValues>
            -5.1949375867843628e-01 3.0248600244522095e-01</leafValues></_>
        <_>
          <internalNodes>
            0 -1 121 -2071166730 932068822 -1343126019 -806943202
            685801850 -336113678 -1434273585 -813184117</internalNodes>
          <leafValues>
            -3.3116713166236877e-01 4.8032242059707642e-01</leafValues></_>
        <_>
          <internalNodes>
            0 -1 73 -1972459902 -605931846 -1430262914 573009593
            -1872843890 806633360 -2122277992 -24443425</internalNodes>
          <leafValues>
            -3.0371427536010742e-01 5.1134413480758667e-01</leafValues></_>
        <_>
          <internalNodes>
            0 -1 174 -647298032 491749844 538971517 -1657200530
            -587559073 1882554324 1764702347 -1301414781</internalNodes>
          <leafValues>
            -3.1930384039878845e-01 4.5759621262550354e-01</leafValues></_>
        <_>
          <internalNodes>
            0 -1 212 -1743937312 -619555839 -1645953570 -749385713
            -2089177692 -382140172 -2107814210 1931185891</internalNodes>
          <leafValues>
            -3.1340375542640686e-01 4.7676265239715576e-01</leafValues></_>
        <_>
          <internalNodes>
            0 -1 58 2146145834 1576218276 1470590693 -1078513869
            -1156871766 1026015166 1996296194 -134275493</internalNodes>
          <leafValues>
            -3.2499679923057556e-01 4.7131785750389099e-01</leafValues></_>
        <_>
          <internalNodes>
            0 -1 47 1936948908 -1995759795 721190601 711026408
            1970440274 1878318810 2115430367 -834667036</internalNodes>
          <leafValues>
            -3.2875058054924011e-01 4.8870262503623962e-01</leafValues></_>
        <_>
          <internalNodes>
            0 -1 128 -2080225150 -1491596718 151044378 -1886124904
            -1979019122 -1977054838 -1197684529 2130354427</internalNodes>
          <leafValues>
            -4.6208027005195618e-01 3.4443634748458862e-01</leafValues></_>
        <_>
          <internalNodes>
            0 -1 55 880276379 1778119858 -295470809 -526479 -771476635
            -1860865958 -1523601553 -1343520221</internalNodes>
          <leafValues>
            -3.0755007266998291e-01 5.5060023069381714e-01</leafValues></_>
        <_>
          <internalNodes>
            0 -1 189 1526279196 -1386134781 954526255 -112870873
            79433775 -727294635 -755071173 -81081717</internalNodes>
          <leafValues>
            -2.6688683032989502e-01 6.0513818264007568e-01</leafValues></_>
        <_>
          <internalNodes>
            0 -1 83 1316355581 -570490889 -84412165 -776897350
            -184944909 2087916274 829660413 1807970809</internalNodes>
          <leafValues>
            -3.5358011722564697e-01 4.8487353324890137e-01</leafValues></_></weakClassifiers></_></stages>
  <features>
    <_>
      <rect>
        0 0 6 4</rect></_>
    <_>
      <rect>
        0 0 6 10</rect></_>
    <_>
      <rect>
        0 0 6 11</rect></_>
    <_>
      <rect>
        0 1 4 3</rect></_>
    <_>
      <rect>
        0 1 6 8</rect></_>
    <_>
      <rect>
        0 1 6 11</rect></_>
    <_>
      <rect>
        0 2 3 4</rect></_>
    <_>
      <rect>
        0 2 6 2</rect></_>
    <_>
      <rect>
        0 3 2 7</rect></_>
    <_>
      <rect>
        0 3 3 6</rect></_>
    <_>
      <rect>
        0 3 3 7</rect></_>
    <_>
      <rect>
        0 4 3 6</rect></_>
    <_>
      <rect>
        0 4 6 7</rect></_>
    <_>
      <rect>
        0 5 2 3</rect></_>
    <_>
      <rect>
        0 5 2 9</rect></_>
    <_>
      <rect>
        0 5 3 7</rect></_>
    <_>
      <rect>
        0 6 2 5</rect></_>
    <_>
      <rect>
        0 6 2 9</rect></_>
    <_>
      <rect>
        0 6 5 10</rect></_>
    <_>
      <rect>
        0 6 6 3</rect></_>
    <_>
      <rect>
        0 7 3 5</rect></_>
    <_>
      <rect>
        0 7 5 5</rect></_>
    <_>
      <rect>
        0 7 5 7</rect></_>
    <_>
      <rect>
        0 8 2 2</rect></_>
    <_>
      <rect>
        0 8 2 4</rect></_>
    <_>
      <rect>
        0 8 2 6</rect></_>
    <_>
      <rect>
        0 8 6 3</rect></_>
    <_>
      <rect>
        0 9 1 5</rect></_>
    <_>
      <rect>
        0 9 2 4</rect></_>
    <_>
      <rect>
        0 9 4 4</rect></_>
    <_>
      <rect>
        0 9 6 7</rect></_>
    <_>
      <rect>
        0 10 4 5</rect></_>
    <_>
      <rect>
        0 10 6 2</rect></_>
    <_>
      <rect>
        0 11 3 4</rect></_>
    <_>
      <rect>
        0 12 4 3</rect></_>
    <_>
      <rect>
        0 12 6 4</rect></_>
    <_>
      <rect>
        0 12 6 6</rect></_>
    <_>
      <rect>
        0 13 1 3</rect></_>
    <_>
      <rect>
        0 13 6 3</rect></_>
    <_>
      <rect>
        0 14 1 3</rect></_>
    <_>
      <rect>
        0 14 1 4</rect></_>
    <_>
      <rect>
        0 14 4 2</rect></_>
    <_>
      <rect>
        0 15 1 3</rect></_>
    <_>
      <rect>
        0 17 1 2</rect></_>
    <_>
      <rect>
        0 18 1 1</rect></_>
    <_>
      <rect>
        0 18 1 2</rect></_>
    <_>
      <rect>
        0 20 1 1</rect></_>
    <_>
      <rect>
        0 20 1 2</rect></_>
    <_>
      <rect>
        0 20 2 2</rect></_>
    <_>
      <rect>
        0 21 2 4</rect></_>
    <_>
      <rect>
        0 21 3 5</rect></_>
    <_>
      <rect>
        0 21 5 5</rect></_>
    <_>
      <rect>
        0 24 4 4</rect></_>
    <_>
      <rect>
        0 24 6 4</rect></_>
    <_>
      <rect>
        1 8 5 3</rect></_>
    <_>
      <rect>
        1 9 3 3</rect></_>
    <_>
      <rect>
        1 9 4 3</rect></_>
    <_>
      <rect>
        1 9 4 4</rect></_>
    <_>
      <rect>
        1 12 1 3</rect></_>
    <_>
      <rect>
        1 12 2 8</rect></_>
    <_>
      <rect>
        1 15 4 3</rect></_>
    <_>
      <rect>
        1 16 1 1</rect></_>
    <_>
      <rect>
        1 16 1 2</rect></_>
    <_>
      <rect>
        1 16 1 3</rect></_>
    <_>
      <rect>
        1 17 1 1</rect></_>
    <_>
      <rect>
        1 18 1 2</rect></_>
    <_>
      <rect>
        1 19 1 1</rect></_>
    <_>
      <rect>
        1 19 1 2</rect></_>
    <_>
      <rect>
        1 19 2 4</rect></_>
    <_>
      <rect>
        1 21 3 5</rect></_>
    <_>
      <rect>
        1 22 1 1</rect></_>
    <_>
      <rect>
        2 8 5 5</rect></_>
    <_>
      <rect>
        2 12 5 8</rect></_>
    <_>
      <rect>
        2 14 1 1</rect></_>
    <_>
      <rect>
        2 15 1 1</rect></_>
    <_>
      <rect>
        2 16 4 1</rect></_>
    <_>
      <rect>
        2 18 1 1</rect></_>
    <_>
      <rect>
        2 19 1 1</rect></_>
    <_>
      <rect>
        2 20 1 1</rect></_>
    <_>
      <rect>
        2 20 3 5</rect></_>
    <_>
      <rect>
        2 21 1 1</rect></_>
    <_>
      <rect>
        2 24 1 1</rect></_>
    <_>
      <rect>
        3 0 4 3</rect></_>
    <_>
      <rect>
        3 2 4 7</rect></_>
    <_>
      <rect>
        3 2 5 11</rect></_>
    <_>
      <rect>
        3 6 5 10</rect></_>
    <_>
      <rect>
        3 9 2 3</rect></_>
    <_>
      <rect>
        3 11 3 4</rect></_>
    <_>
      <rect>
        3 14 3 3</rect></_>
    <_>
      <rect>
        3 15 1 1</rect></_>
    <_>
      <rect>
        3 15 5 3</rect></_>
    <_>
      <rect>
        3 16 3 3</rect></_>
    <_>
      <rect>
        3 16 4 1</rect></_>
    <_>
      <rect>
        3 18 1 2</rect></_>
    <_>
      <rect>
        3 18 5 6</rect></_>
    <_>
      <rect>
        3 19 1 1</rect></_>
    <_>
      <rect>
        3 19 1 2</rect></_>
    <_>
      <rect>
        3 19 3 2</rect></_>
    <_>
      <rect>
        3 20 1 1</rect></_>
    <_>
      <rect>
        3 21 2 3</rect></_>
    <_>
      <rect>
        3 21 5 5</rect></_>
    <_>
      <rect>
        3 23 1 1</rect></_>
    <_>
      <rect>
        3 24 5 4</rect></_>
    <_>
      <rect>
        4 6 4 6</rect></_>
    <_>
      <rect>
        4 9 3 2</rect></_>
    <_>
      <rect>
        4 9 3 3</rect></_>
    <_>
      <rect>
        4 10 3 6</rect></_>
    <_>
      <rect>
        4 10 4 6</rect></_>
    <_>
      <rect>
        4 11 3 4</rect></_>
    <_>
      <rect>
        4 14 3 1</rect></_>
    <_>
      <rect>
        4 15 1 1</rect></_>
    <_>
      <rect>
        4 15 3 1</rect></_>
    <_>
      <rect>
        4 16 3 1</rect></_>
    <_>
      <rect>
        4 16 3 4</rect></_>
    <_>
      <rect>
        4 17 2 1</rect></_>
    <_>
      <rect>
        4 18 1 1</rect></_>
    <_>
      <rect>
        4 18 1 2</rect></_>
    <_>
      <rect>
        4 19 3 2</rect></_>
    <_>
      <rect>
        4 22 1 1</rect></_>
    <_>
      <rect>
        5 5 4 8</rect></_>
    <_>
      <rect>
        5 10 1 1</rect></_>
    <_>
      <rect>
        5 10 2 2</rect></_>
    <_>
      <rect>
        5 10 4 4</rect></_>
    <_>
      <rect>
        5 14 3 1</rect></_>
    <_>
      <rect>
        5 15 2 1</rect></_>
    <_>
      <rect>
        5 16 1 1</rect></_>
    <_>
      <rect>
        5 16 2 1</rect></_>
    <_>
      <rect>
        5 17 1 1</rect></_>
    <_>
      <rect>
        5 17 2 1</rect></_>
    <_>
      <rect>
        5 20 1 1</rect></_>
    <_>
      <rect>
        5 20 2 2</rect></_>
    <_>
      <rect>
        5 21 1 1</rect></_>
    <_>
      <rect>
        5 21 4 5</rect></_>
    <_>
      <rect>
        6 3 4 11</rect></_>
    <_>
      <rect>
        6 6 4 8</rect></_>
    <_>
      <rect>
        6 9 4 5</rect></_>
    <_>
      <rect>
        6 11 4 4</rect></_>
    <_>
      <rect>
        6 13 3 1</rect></_>
    <_>
      <rect>
        6 14 2 1</rect></_>
    <_>
      <rect>
        6 14 2 2</rect></_>
    <_>
      <rect>
        6 15 1 1</rect></_>
    <_>
      <rect>
        6 15 2 1</rect></_>
    <_>
      <rect>
        6 15 2 2</rect></_>
    <_>
      <rect>
        6 16 1 1</rect></_>
    <_>
      <rect>
        6 16 2 1</rect></_>
    <_>
      <rect>
        6 16 3 1</rect></_>
    <_>
      <rect>
        6 17 1 1</rect></_>
    <_>
      <rect>
        6 17 2 3</rect></_>
    <_>
      <rect>
        6 18 2 1</rect></_>
    <_>
      <rect>
        6 18 3 6</rect></_>
    <_>
      <rect>
        6 18 4 6</rect></_>
    <_>
      <rect>
        6 19 2 1</rect></_>
    <_>
      <rect>
        7 2 3 3</rect></_>
    <_>
      <rect>
        7 7 3 6</rect></_>
    <_>
      <rect>
        7 8 3 5</rect></_>
    <_>
      <rect>
        7 9 3 3</rect></_>
    <_>
      <rect>
        7 10 1 1</rect></_>
    <_>
      <rect>
        7 11 3 3</rect></_>
    <_>
      <rect>
        7 14 2 1</rect></_>
    <_>
      <rect>
        7 14 2 3</rect></_>
    <_>
      <rect>
        7 15 1 1</rect></_>
    <_>
      <rect>
        7 15 2 1</rect></_>
    <_>
      <rect>
        7 15 3 2</rect></_>
    <_>
      <rect>
        7 16 1 1</rect></_>
    <_>
      <rect>
        7 16 2 1</rect></_>
    <_>
      <rect>
        7 17 1 1</rect></_>
    <_>
      <rect>
        7 17 2 1</rect></_>
    <_>
      <rect>
        7 18 1 1</rect></_>
    <_>
      <rect>
        7 18 2 1</rect></_>
    <_>
      <rect>
        7 25 2 2</rect></_>
    <_>
      <rect>
        8 9 2 2</rect></_>
    <_>
      <rect>
        8 11 3 2</rect></_>
    <_>
      <rect>
        8 12 1 1</rect></_>
    <_>
      <rect>
        8 12 2 2</rect></_>
    <_>
      <rect>
        8 13 2 1</rect></_>
    <_>
      <rect>
        8 13 2 2</rect></_>
    <_>
      <rect>
        8 14 2 1</rect></_>
    <_>
      <rect>
        8 15 2 1</rect></_>
    <_>
      <rect>
        8 15 2 4</rect></_>
    <_>
      <rect>
        8 16 1 1</rect></_>
    <_>
      <rect>
        8 16 2 1</rect></_>
    <_>
      <rect>
        8 16 2 3</rect></_>
    <_>
      <rect>
        8 17 2 1</rect></_>
    <_>
      <rect>
        9 3 3 5</rect></_>
    <_>
      <rect>
        9 3 3 11</rect></_>
    <_>
      <rect>
        9 5 3 4</rect></_>
    <_>
      <rect>
        9 5 3 5</rect></_>
    <_>
      <rect>
        9 8 2 6</rect></_>
    <_>
      <rect>
        9 8 3 3</rect></_>
    <_>
      <rect>
        9 9 1 1</rect></_>
    <_>
      <rect>
        9 13 2 1</rect></_>
    <_>
      <rect>
        9 13 3 2</rect></_>
    <_>
      <rect>
        9 14 1 1</rect></_>
    <_>
      <rect>
        9 14 2 3</rect></_>
    <_>
      <rect>
        9 15 1 1</rect></_>
    <_>
      <rect>
        9 16 1 1</rect></_>
    <_>
      <rect>
        9 18 1 1</rect></_>
    <_>
      <rect>
        10 15 1 1</rect></_>
    <_>
      <rect>
        10 17 1 1</rect></_>
    <_>
      <rect>
        10 24 2 3</rect></_>
    <_>
      <rect>
        11 12 1 1</rect></_>
    <_>
      <rect>
        11 14 1 1</rect></_>
    <_>
      <rect>
        12 3 2 6</rect></_>
    <_>
      <rect>
        12 4 2 6</rect></_>
    <_>
      <rect>
        12 5 2 6</rect></_>
    <_>
      <rect>
        12 6 2 4</rect></_>
    <_>
      <rect>
        12 9 2 4</rect></_>
    <_>
      <rect>
        12 12 2 8</rect></_>
    <_>
      <rect>
        12 16 1 1</rect></_>
    <_>
      <rect>
        12 19 1 1</rect></_>
    <_>
      <rect>
        12 20 2 3</rect></_>
    <_>
      <rect>
        13 14 1 1</rect></_>
    <_>
      <rect>
        13 15 1 1</rect></_>
    <_>
      <rect>
        13 16 1 1</rect></_>
    <_>
      <rect>
        13 19 1 1</rect></_>
    <_>
      <rect>
        13 20 1 1</rect></_>
    <_>
      <rect>
        15 18 1 2</rect></_></features></cascade>
</opencv_storage>
