<?xml version="1.0"?>
<opencv_storage>
<cascade>
  <stageType>BOOST</stageType>
  <featureType>LBP</featureType>
  <height>24</height>
  <width>24</width>
  <stageParams>
    <boostType>GAB</boostType>
    <minHitRate>9.9900001287460327e-01</minHitRate>
    <maxFalseAlarm>5.0000000000000000e-01</maxFalseAlarm>
    <weightTrimRate>9.4999999999999996e-01</weightTrimRate>
    <maxDepth>1</maxDepth>
    <maxWeakCount>100</maxWeakCount></stageParams>
  <featureParams>
    <maxCatCount>256</maxCatCount>
    <featSize>1</featSize></featureParams>
  <stageNum>15</stageNum>
  <stages>
    <!-- stage 0 -->
    <_>
      <maxWeakCount>5</maxWeakCount>
      <stageThreshold>-9.3303877115249634e-01</stageThreshold>
      <weakClassifiers>
        <_>
          <internalNodes>
            0 -1 9 11012266 1006627581 174866173 2147450879 2130575359
            -16385 1610612735 -1</internalNodes>
          <leafValues>
            -7.2876304388046265e-01 8.3772820234298706e-01</leafValues></_>
        <_>
          <internalNodes>
            0 -1 0 -263478874 -505429894 -265183152 -216047417
            -796157766 -528478077 -376731409 2147216363</internalNodes>
          <leafValues>
            -7.9653161764144897e-01 7.3709249496459961e-01</leafValues></_>
        <_>
          <internalNodes>
            0 -1 57 -218049032 1607930004 1063047132 -2290287 -922055430
            -20676872 1041034494 -16103287</internalNodes>
          <leafValues>
            -6.6527867317199707e-01 6.9884848594665527e-01</leafValues></_>
        <_>
          <internalNodes>
            0 -1 91 -175712824 -216198833 -645656256 -172130134
            -1064525416 -89472884 -192693579 2147478447</internalNodes>
          <leafValues>
            -7.8691148757934570e-01 6.1923539638519287e-01</leafValues></_>
        <_>
          <internalNodes>
            0 -1 38 289429745 419663891 554701279 -48676005 1092668152
            -1147633534 151055339 2140838537</internalNodes>
          <leafValues>
            -6.9705909490585327e-01 6.8031895160675049e-01</leafValues></_></weakClassifiers></_>
    <!-- stage 1 -->
    <_>
      <maxWeakCount>5</maxWeakCount>
      <stageThreshold>-8.0889803171157837e-01</stageThreshold>
      <weakClassifiers>
        <_>
          <internalNodes>
            0 -1 84 -209984921 -134217729 -16843018 -524353 -65781
            -276824065 -8454145 2147483647</internalNodes>
          <leafValues>
            -6.6467958688735962e-01 8.0865448713302612e-01</leafValues></_>
        <_>
          <internalNodes>
            0 -1 21 -70458388 -573878263 -1055915052 -549502502
            -215432967 -41934711 -89604869 2143284223</internalNodes>
          <leafValues>
            -7.2835081815719604e-01 6.6974967718124390e-01</leafValues></_>
        <_>
          <internalNodes>
            0 -1 27 1969616381 -170011179 -12853377 1573779413
            -386605857 -33751809 -35725825 -120552284</internalNodes>
          <leafValues>
            -6.7707818746566772e-01 7.0500117540359497e-01</leafValues></_>
        <_>
          <internalNodes>
            0 -1 81 -1076177750 -1117943722 286269188 -49053381
            -175265137 1792148619 -1412711610 2142961595</internalNodes>
          <leafValues>
            -7.7203673124313354e-01 5.4143023490905762e-01</leafValues></_>
        <_>
          <internalNodes>
            0 -1 62 385876120 -1724169512 268505311 353306779
            -1853191782 -1291714424 327844011 -1081407457</internalNodes>
          <leafValues>
            -6.6229903697967529e-01 6.9995862245559692e-01</leafValues></_></weakClassifiers></_>
    <!-- stage 2 -->
    <_>
      <maxWeakCount>5</maxWeakCount>
      <stageThreshold>-9.3024981021881104e-01</stageThreshold>
      <weakClassifiers>
        <_>
          <internalNodes>
            0 -1 4 -858984724 -1973092372 -3866628 1221393900 -196865
            -81921 -720897 -69206017</internalNodes>
          <leafValues>
            -6.6107380390167236e-01 7.3616474866867065e-01</leafValues></_>
        <_>
          <internalNodes>
            0 -1 82 -730606962 -237793150 -779579269 -12087141
            -662003318 -1198948207 -589628997 2146164975</internalNodes>
          <leafValues>
            -6.7422997951507568e-01 6.2550473213195801e-01</leafValues></_>
        <_>
          <internalNodes>
            0 -1 44 -687290148 -539475584 -719851267 -2157603
            -2004180737 -1157463921 2097995775 -1148278307</internalNodes>
          <leafValues>
            -7.3081213235855103e-01 6.0747194290161133e-01</leafValues></_>
        <_>
          <internalNodes>
            0 -1 22 -649060116 -741736439 605651146 -569126884
            -921116420 -1147496285 -376715057 2147411865</internalNodes>
          <leafValues>
            -7.8511148691177368e-01 5.1090419292449951e-01</leafValues></_>
        <_>
          <internalNodes>
            0 -1 51 1363727516 -115601272 -802336291 1430212621
            -1073725254 -1081814952 -886862897 -1148196977</internalNodes>
          <leafValues>
            -6.2031042575836182e-01 6.2124294042587280e-01</leafValues></_></weakClassifiers></_>
    <!-- stage 3 -->
    <_>
      <maxWeakCount>6</maxWeakCount>
      <stageThreshold>-1.6248360872268677e+00</stageThreshold>
      <weakClassifiers>
        <_>
          <internalNodes>
            0 -1 7 268993790 431490236 217998271 2147483645 -134414337
            -259334145 -2097217537 -536879105</internalNodes>
          <leafValues>
            -6.3032370805740356e-01 7.1657067537307739e-01</leafValues></_>
        <_>
          <internalNodes>
            0 -1 24 -79043613 -270761841 -2147235646 -9989981
            -1194726773 -568098645 -104744277 2147482287</internalNodes>
          <leafValues>
            -6.7089372873306274e-01 5.9851789474487305e-01</leafValues></_>
        <_>
          <internalNodes>
            0 -1 73 1088245770 -241626596 294852926 -543698661
            -509370296 -90668373 -87494518 2074851791</internalNodes>
          <leafValues>
            -7.2912126779556274e-01 4.6526017785072327e-01</leafValues></_>
        <_>
          <internalNodes>
            0 -1 32 -82783759 -71622400 -636840961 2145341905 -251130917
            512630787 1308645803 1270890896</internalNodes>
          <leafValues>
            -6.5763622522354126e-01 5.2404439449310303e-01</leafValues></_>
        <_>
          <internalNodes>
            0 -1 80 -551617110 -1441998696 21271808 -748838500
            -1710627587 -12222327 1672186020 1540335241</internalNodes>
          <leafValues>
            -7.5000715255737305e-01 4.2878752946853638e-01</leafValues></_>
        <_>
          <internalNodes>
            0 -1 69 410976424 -1093155621 -1876713319 -1755364001
            -1467249649 -627359285 1017350347 -1157628929</internalNodes>
          <leafValues>
            -7.2812992334365845e-01 4.3921548128128052e-01</leafValues></_></weakClassifiers></_>
    <!-- stage 4 -->
    <_>
      <maxWeakCount>6</maxWeakCount>
      <stageThreshold>-1.4586133956909180e+00</stageThreshold>
      <weakClassifiers>
        <_>
          <internalNodes>
            0 -1 5 -2136707352 -269484082 -353439826 -1114194 -671088657
            -16777217 -626722337 2144317679</internalNodes>
          <leafValues>
            -6.3931471109390259e-01 6.9225949048995972e-01</leafValues></_>
        <_>
          <internalNodes>
            0 -1 60 402921628 -1151094341 269848796 -77598009 47154143
            699891945 -2133857399 -206836837</internalNodes>
          <leafValues>
            -7.6646173000335693e-01 4.6396896243095398e-01</leafValues></_>
        <_>
          <internalNodes>
            0 -1 89 -671164181 -719793976 -2008973053 -711818810
            -1321031510 -528269180 -938155886 2080369662</internalNodes>
          <leafValues>
            -6.0025370121002197e-01 5.7294124364852905e-01</leafValues></_>
        <_>
          <internalNodes>
            0 -1 50 -618639208 -209108932 286363927 -539032948 419467514
            -1969733112 318955931 -541113857</internalNodes>
          <leafValues>
            -5.9220629930496216e-01 6.1396181583404541e-01</leafValues></_>
        <_>
          <internalNodes>
            0 -1 42 1069311 335548416 -1644062471 -6598192 -888039185
            -870154225 -828708709 2025513241</internalNodes>
          <leafValues>
            -6.0001993179321289e-01 5.2852851152420044e-01</leafValues></_>
        <_>
          <internalNodes>
            0 -1 53 -547842872 -638449652 -1862168301 2010484829
            713561023 -128417605 -1223511109 -1693810404</internalNodes>
          <leafValues>
            -7.5556558370590210e-01 4.0806880593299866e-01</leafValues></_></weakClassifiers></_>
    <!-- stage 5 -->
    <_>
      <maxWeakCount>6</maxWeakCount>
      <stageThreshold>-7.1790748834609985e-01</stageThreshold>
      <weakClassifiers>
        <_>
          <internalNodes>
            0 -1 10 -98375712 -269553937 -269549850 -68161938 -8912917
            -83886081 -619977781 2075126783</internalNodes>
          <leafValues>
            -6.0405158996582031e-01 6.7081516981124878e-01</leafValues></_>
        <_>
          <internalNodes>
            0 -1 11 329818350 -7378485 1908409247 2133786647 2045368973
            -477953909 -162548853 -4462081</internalNodes>
          <leafValues>
            -5.8913415670394897e-01 5.6746369600296021e-01</leafValues></_>
        <_>
          <internalNodes>
            0 -1 43 682442752 -654196672 -2093979519 -107146791
            -794503160 -75394367 -2003773187 2147466129</internalNodes>
          <leafValues>
            -7.1140944957733154e-01 4.3887045979499817e-01</leafValues></_>
        <_>
          <internalNodes>
            0 -1 18 -360789276 -884309560 268767266 -228687670
            -704492976 -486473727 -1027309333 2145319823</internalNodes>
          <leafValues>
            -8.1119620800018311e-01 3.8617935776710510e-01</leafValues></_>
        <_>
          <internalNodes>
            0 -1 67 -1653570148 -1817772016 21037137 1594590093
            -1862040648 -1291313150 -1149133894 -1080091889</internalNodes>
          <leafValues>
            -6.2458890676498413e-01 5.2428334951400757e-01</leafValues></_>
        <_>
          <internalNodes>
            0 -1 72 1124352008 253244504 -2130310398 -145960808
            -2104522559 -1146617717 -1685603641 2141125621</internalNodes>
          <leafValues>
            -8.3327722549438477e-01 3.5022622346878052e-01</leafValues></_></weakClassifiers></_>
    <!-- stage 6 -->
    <_>
      <maxWeakCount>6</maxWeakCount>
      <stageThreshold>-1.2548923492431641e+00</stageThreshold>
      <weakClassifiers>
        <_>
          <internalNodes>
            0 -1 86 -791690998 -537137265 -822087405 -68194565
            -258945521 -134217761 -84019462 2146404351</internalNodes>
          <leafValues>
            -5.7305335998535156e-01 6.8261009454727173e-01</leafValues></_>
        <_>
          <internalNodes>
            0 -1 47 -1114107652 -6782952 -1073524259 -73580227
            -1147995157 -41023478 -641580561 -1075151219</internalNodes>
          <leafValues>
            -6.8311065435409546e-01 4.9951013922691345e-01</leafValues></_>
        <_>
          <internalNodes>
            0 -1 41 352475353 -1660860392 268648821 -577268961 202
            -1677030845 -1979520013 2140838139</internalNodes>
          <leafValues>
            -5.3854876756668091e-01 5.3879338502883911e-01</leafValues></_>
        <_>
          <internalNodes>
            0 -1 63 -150941608 -9714860 -172425859 -573221423 -567638850
            -1611071492 -74514690 -1080303377</internalNodes>
          <leafValues>
            -5.4627126455307007e-01 5.6600600481033325e-01</leafValues></_>
        <_>
          <internalNodes>
            0 -1 1 -1992039741 -1054883320 -1073659637 -381431802
            -1065238069 -1660878848 -820657461 2147474319</internalNodes>
          <leafValues>
            -6.5407562255859375e-01 4.3292582035064697e-01</leafValues></_>
        <_>
          <internalNodes>
            0 -1 56 -618393392 1897500776 17846525 1398079833
            -1342043452 -90471322 -1727718721 -543215877</internalNodes>
          <leafValues>
            -5.5473071336746216e-01 5.3724586963653564e-01</leafValues></_></weakClassifiers></_>
    <!-- stage 7 -->
    <_>
      <maxWeakCount>6</maxWeakCount>
      <stageThreshold>-8.5918486118316650e-01</stageThreshold>
      <weakClassifiers>
        <_>
          <internalNodes>
            0 -1 0 -758650138 -3432157 -1861025718 -136323030 -338983985
            -826572334 -215221297 2080374747</internalNodes>
          <leafValues>
            -6.7650049924850464e-01 6.5269821882247925e-01</leafValues></_>
        <_>
          <internalNodes>
            0 -1 3 -1018378028 -436018940 1074020374 1242605664
            -398360376 1124286482 1662010009 -9809</internalNodes>
          <leafValues>
            -6.9735550880432129e-01 4.5455673336982727e-01</leafValues></_>
        <_>
          <internalNodes>
            0 -1 91 -216469085 -1049352800 -1727997358 -6698788
            -391471171 -779892597 -208559470 2078995439</internalNodes>
          <leafValues>
            -7.4583959579467773e-01 3.9534512162208557e-01</leafValues></_>
        <_>
          <internalNodes>
            0 -1 70 -773656692 -1740647933 -2147481923 966885835
            -1174236210 960659594 -790433142 -1295871326</internalNodes>
          <leafValues>
            -6.3405752182006836e-01 4.8820570111274719e-01</leafValues></_>
        <_>
          <internalNodes>
            0 -1 79 -935116800 -221619206 -1862018854 -96341048
            -762651386 -914259799 -385128017 2147217387</internalNodes>
          <leafValues>
            -8.1881999969482422e-01 3.1053683161735535e-01</leafValues></_>
        <_>
          <internalNodes>
            0 -1 54 -584023880 -619249632 -786820781 -213837551
            -1736269645 -216390485 -1819900789 -1717958520</internalNodes>
          <leafValues>
            -6.7292082309722900e-01 4.4994032382965088e-01</leafValues></_></weakClassifiers></_>
    <!-- stage 8 -->
    <_>
      <maxWeakCount>7</maxWeakCount>
      <stageThreshold>-1.0825351476669312e+00</stageThreshold>
      <weakClassifiers>
        <_>
          <internalNodes>
            0 -1 75 -2147424180 -1414549174 -387383352 1308622718
            -385095616 -1074790402 146329744 -262193</internalNodes>
          <leafValues>
            -5.9135562181472778e-01 6.4046311378479004e-01</leafValues></_>
        <_>
          <internalNodes>
            0 -1 19 -81509140 -241831296 587251836 -561723264
            -2111569740 -132578886 -494867761 2147278764</internalNodes>
          <leafValues>
            -7.6021873950958252e-01 4.1389334201812744e-01</leafValues></_>
        <_>
          <internalNodes>
            0 -1 31 -39267078 -643215248 269496349 1465470988 -645791600
            -620035566 -2012605057 -103796359</internalNodes>
          <leafValues>
            -5.3666663169860840e-01 5.3076225519180298e-01</leafValues></_>
        <_>
          <internalNodes>
            0 -1 33 -670542648 486644132 1351636210 -38643467
            -1979661112 -620754768 -360056640 2112866541</internalNodes>
          <leafValues>
            -6.5413862466812134e-01 3.9853262901306152e-01</leafValues></_>
        <_>
          <internalNodes>
            0 -1 66 -1291822952 -711117672 -1928050955 -4367419
            -1807427368 -1074639111 370710202 -71596834</internalNodes>
          <leafValues>
            -4.6296435594558716e-01 5.8760070800781250e-01</leafValues></_>
        <_>
          <internalNodes>
            0 -1 26 604520970 -1442578408 100663507 1963808021
            1623262329 -894303542 1619190527 2059265723</internalNodes>
          <leafValues>
            -7.7930462360382080e-01 3.1011953949928284e-01</leafValues></_>
        <_>
          <internalNodes>
            0 -1 71 -658980720 -1959669372 391304757 1358451988
            2056436397 12457874 1315223039 -1697910273</internalNodes>
          <leafValues>
            -4.9054706096649170e-01 5.3560352325439453e-01</leafValues></_></weakClassifiers></_>
    <!-- stage 9 -->
    <_>
      <maxWeakCount>8</maxWeakCount>
      <stageThreshold>-9.1649782657623291e-01</stageThreshold>
      <weakClassifiers>
        <_>
          <internalNodes>
            0 -1 20 -310621048 -196609 2129538671 -51413009 -536986276
            -129 -565249 2147479487</internalNodes>
          <leafValues>
            -5.8139532804489136e-01 6.1121046543121338e-01</leafValues></_>
        <_>
          <internalNodes>
            0 -1 39 481841404 1137963371 285295097 -1151374893 21726895
            -1678049279 35882671 -1075064117</internalNodes>
          <leafValues>
            -6.8860262632369995e-01 4.3758171796798706e-01</leafValues></_>
        <_>
          <internalNodes>
            0 -1 15 -246166788 -184348462 1108492414 -766902228
            -1026826020 -972898272 -1441885820 -917304</internalNodes>
          <leafValues>
            -6.4700114727020264e-01 4.0175455808639526e-01</leafValues></_>
        <_>
          <internalNodes>
            0 -1 81 -597690485 -1832857128 352326912 -209826371
            -659359359 -1566015286 -879891936 2141112025</internalNodes>
          <leafValues>
            -7.7114218473434448e-01 3.3729076385498047e-01</leafValues></_>
        <_>
          <internalNodes>
            0 -1 55 -855076408 -1141571456 -1048460717 1494028365
            -2063368294 -1144630550 1931911854 -1080321829</internalNodes>
          <leafValues>
            -5.8297592401504517e-01 4.2508774995803833e-01</leafValues></_>
        <_>
          <internalNodes>
            0 -1 25 1664657069 -15218481 -1056571375 -35855847
            1895832516 -922550237 1775796459 2143222699</internalNodes>
          <leafValues>
            -7.1976739168167114e-01 3.5526853799819946e-01</leafValues></_>
        <_>
          <internalNodes>
            0 -1 48 -1767744257 999823806 1476612421 412882136
            -1237155189 -1424354864 27958015 -1086703068</internalNodes>
          <leafValues>
            -5.2109712362289429e-01 4.7884324193000793e-01</leafValues></_>
        <_>
          <internalNodes>
            0 -1 88 -1021328384 -519897088 -2147450880 -1593712508
            -933653184 -2147418112 1120182400 1797254281</internalNodes>
          <leafValues>
            -6.0974401235580444e-01 4.1248020529747009e-01</leafValues></_></weakClassifiers></_>
    <!-- stage 10 -->
    <_>
      <maxWeakCount>8</maxWeakCount>
      <stageThreshold>-9.0481096506118774e-01</stageThreshold>
      <weakClassifiers>
        <_>
          <internalNodes>
            0 -1 0 -1073233201 -347373439 1398335518 -138166078
            -28058390 -1182425052 -1725847141 2147480543</internalNodes>
          <leafValues>
            -6.2591689825057983e-01 5.7782882452011108e-01</leafValues></_>
        <_>
          <internalNodes>
            0 -1 61 -1649385576 -110783200 -1056488949 -140524387
            -1173732401 -217415040 -1576361073 -1954411124</internalNodes>
          <leafValues>
            -6.7224854230880737e-01 4.7293126583099365e-01</leafValues></_>
        <_>
          <internalNodes>
            0 -1 6 -741817724 -90848252 -1023147765 83919052 -1040150520
            -1610612708 -939458478 -403062614</internalNodes>
          <leafValues>
            -7.7620184421539307e-01 3.3847433328628540e-01</leafValues></_>
        <_>
          <internalNodes>
            0 -1 37 403984632 -48938795 1896912348 -2894961 1657318076
            -20461400 193516537 2073740799</internalNodes>
          <leafValues>
            -7.0088624954223633e-01 3.4031841158866882e-01</leafValues></_>
        <_>
          <internalNodes>
            0 -1 17 -787168772 -250363767 -1140850626 -59063162
            -262872908 -267829112 -1958306161 -2224402</internalNodes>
          <leafValues>
            -5.0698405504226685e-01 4.6290665864944458e-01</leafValues></_>
        <_>
          <internalNodes>
            0 -1 68 136862930 60952578 176198939 1595676560 -181204807
            -291799030 -31779593 2147415969</internalNodes>
          <leafValues>
            -7.5197416543960571e-01 3.3796790242195129e-01</leafValues></_>
        <_>
          <internalNodes>
            0 -1 49 1360526079 1429289138 2080358277 1507841565
            -822379894 975958706 -860570422 -1693467057</internalNodes>
          <leafValues>
            -3.9449334144592285e-01 6.2698876857757568e-01</leafValues></_>
        <_>
          <internalNodes>
            0 -1 82 -534003570 -397565557 541297200 -749768374
            -762386405 -357456872 -1147084657 2109731499</internalNodes>
          <leafValues>
            -7.5259047746658325e-01 3.4938514232635498e-01</leafValues></_></weakClassifiers></_>
    <!-- stage 11 -->
    <_>
      <maxWeakCount>8</maxWeakCount>
      <stageThreshold>-1.0981225967407227e+00</stageThreshold>
      <weakClassifiers>
        <_>
          <internalNodes>
            0 -1 40 -1082123176 721617424 100794631 1626325077
            -1610612503 151609865 -1861705205 -575624752</internalNodes>
          <leafValues>
            -6.8434667587280273e-01 5.7527643442153931e-01</leafValues></_>
        <_>
          <internalNodes>
            0 -1 90 -1076569206 -1139408420 286351649 -203868931
            -1735739330 -349300223 -125580238 2145372653</internalNodes>
          <leafValues>
            -7.2477525472640991e-01 3.6935728788375854e-01</leafValues></_>
        <_>
          <internalNodes>
            0 -1 59 818675720 -797752161 -1073119011 -686210797
            -2142527318 -1945583480 -1999796049 -872689461</internalNodes>
          <leafValues>
            -6.2491333484649658e-01 4.2024776339530945e-01</leafValues></_>
        <_>
          <internalNodes>
            0 -1 76 1483608072 1511457291 -2138044367 326847751
            -1147164535 -1014366014 -527005556 -1068354</internalNodes>
          <leafValues>
            -5.5454868078231812e-01 4.0879234671592712e-01</leafValues></_>
        <_>
          <internalNodes>
            0 -1 87 -1054408576 -746339130 1454387200 -784623345
            -788406002 -1857322998 -2070986557 2146162923</internalNodes>
          <leafValues>
            -6.7578530311584473e-01 3.5269317030906677e-01</leafValues></_>
        <_>
          <internalNodes>
            0 -1 64 151525264 1594491076 335876237 1465471261 -232528390
            -1194642968 521709403 -1148484209</internalNodes>
          <leafValues>
            -5.6553703546524048e-01 4.5763248205184937e-01</leafValues></_>
        <_>
          <internalNodes>
            0 -1 2 302017030 -361791460 -1056781886 -289090422
            -175779341 -74087872 -124391941 2147472347</internalNodes>
          <leafValues>
            -8.8890594244003296e-01 2.8114625811576843e-01</leafValues></_>
        <_>
          <internalNodes>
            0 -1 13 -57153866 -872886612 1022193316 1343237120
            -562510084 -538968625 1073204927 -11535678</internalNodes>
          <leafValues>
            -5.1042342185974121e-01 5.2234756946563721e-01</leafValues></_></weakClassifiers></_>
    <!-- stage 12 -->
    <_>
      <maxWeakCount>7</maxWeakCount>
      <stageThreshold>-1.3579708337783813e+00</stageThreshold>
      <weakClassifiers>
        <_>
          <internalNodes>
            0 -1 22 -351107448 -54754602 -1062189342 -323059322
            -1526665044 -6060391 -375151617 2147396093</internalNodes>
          <leafValues>
            -7.5263953208923340e-01 5.4962879419326782e-01</leafValues></_>
        <_>
          <internalNodes>
            0 -1 35 -1181200132 -6696800 184701147 -570748455
            -1919417910 -1475411960 453538235 999182803</internalNodes>
          <leafValues>
            -6.5975362062454224e-01 4.0227121114730835e-01</leafValues></_>
        <_>
          <internalNodes>
            0 -1 77 -648621560 525369750 -1827663566 -167988971
            -83784979 -880276598 -920008140 2147412985</internalNodes>
          <leafValues>
            -7.1477872133255005e-01 3.1884956359863281e-01</leafValues></_>
        <_>
          <internalNodes>
            0 -1 52 -610613878 -703397312 -2138353629 -5175887
            1892061771 -292383741 543294191 -96855843</internalNodes>
          <leafValues>
            -5.9824120998382568e-01 3.8403856754302979e-01</leafValues></_>
        <_>
          <internalNodes>
            0 -1 12 -132986368 -955203584 -788447228 -196901718
            -670487631 -1325367296 1074299022 1939850955</internalNodes>
          <leafValues>
            -6.1429089307785034e-01 4.0020272135734558e-01</leafValues></_>
        <_>
          <internalNodes>
            0 -1 85 -16580608 -1557692154 -1073676287 1367592968
            1375862784 -1610383232 -1039803903 2078012302</internalNodes>
          <leafValues>
            -6.9053918123245239e-01 3.4582865238189697e-01</leafValues></_>
        <_>
          <internalNodes>
            0 -1 30 46186576 -2003730298 -1038712750 1361031829
            -258834085 -1096056408 1082563566 2073662890</internalNodes>
          <leafValues>
            -7.0651447772979736e-01 3.3082503080368042e-01</leafValues></_></weakClassifiers></_>
    <!-- stage 13 -->
    <_>
      <maxWeakCount>9</maxWeakCount>
      <stageThreshold>-9.8562341928482056e-01</stageThreshold>
      <weakClassifiers>
        <_>
          <internalNodes>
            0 -1 8 10684416 -771768329 48943107 1476386807 2063499003
            -17303553 -1494577153 -67633153</internalNodes>
          <leafValues>
            -3.5572519898414612e-01 6.5752506256103516e-01</leafValues></_>
        <_>
          <internalNodes>
            0 -1 21 -716053843 -146827789 -782380407 -2716097 -527324488
            -225996760 -71576935 2147406331</internalNodes>
          <leafValues>
            -6.6851752996444702e-01 3.8064569234848022e-01</leafValues></_>
        <_>
          <internalNodes>
            0 -1 65 2030171536 353452048 -2130664755 1560669525
            -1291603800 -639043583 -1741911617 -1122250307</internalNodes>
          <leafValues>
            -5.6597548723220825e-01 4.8584780097007751e-01</leafValues></_>
        <_>
          <internalNodes>
            0 -1 28 -648478565 -745582459 33915163 1560772737
            -1593786132 831554220 -1961586031 -142573440</internalNodes>
          <leafValues>
            -5.4428076744079590e-01 4.3288120627403259e-01</leafValues></_>
        <_>
          <internalNodes>
            0 -1 23 -1878997782 203985064 1509972880 -570293812
            -1970419473 1252100224 -1742894160 2057149133</internalNodes>
          <leafValues>
            -8.1446355581283569e-01 2.6099941134452820e-01</leafValues></_>
        <_>
          <internalNodes>
            0 -1 74 -2000027518 -401149823 -1844342778 -572530610
            -528297464 -1173847418 -872243058 2127555579</internalNodes>
          <leafValues>
            -7.2495079040527344e-01 2.7432763576507568e-01</leafValues></_>
        <_>
          <internalNodes>
            0 -1 34 -215179969 -1197765872 -1073483709 1530863923
            -1841124981 -761135094 277643459 2143247355</internalNodes>
          <leafValues>
            -4.8382976651191711e-01 4.8777782917022705e-01</leafValues></_>
        <_>
          <internalNodes>
            0 -1 14 -891379510 1283886180 585239171 -691665600 475038920
            1630824000 645392776 -3448438</internalNodes>
          <leafValues>
            -4.5181936025619507e-01 5.3436726331710815e-01</leafValues></_>
        <_>
          <internalNodes>
            0 -1 36 -1030323054 -549208030 -360907273 1566604347
            -1610309494 -1339928564 1079140350 -1101052549</internalNodes>
          <leafValues>
            -4.0448316931724548e-01 5.9995114803314209e-01</leafValues></_></weakClassifiers></_>
    <!-- stage 14 -->
    <_>
      <maxWeakCount>8</maxWeakCount>
      <stageThreshold>-9.7116482257843018e-01</stageThreshold>
      <weakClassifiers>
        <_>
          <internalNodes>
            0 -1 83 1039267755 -352583763 -82140 -33685507 -131234
            -67305537 -16777294 2147418111</internalNodes>
          <leafValues>
            -4.4821733236312866e-01 6.4958357810974121e-01</leafValues></_>
        <_>
          <internalNodes>
            0 -1 58 -1610136448 -1748713222 322986594 -175599612
            -805191604 -654113790 -912725864 2055862698</internalNodes>
          <leafValues>
            -7.1470534801483154e-01 3.7748295068740845e-01</leafValues></_>
        <_>
          <internalNodes>
            0 -1 45 -40876838 -1223687984 1480762243 -78823163
            -1341503297 -1169686394 436357219 -24235228</internalNodes>
          <leafValues>
            -5.5083149671554565e-01 4.4958359003067017e-01</leafValues></_>
        <_>
          <internalNodes>
            0 -1 78 -1068613110 -1312415129 1217478732 -678981552
            -255674100 -261973998 -259987265 1989921515</internalNodes>
          <leafValues>
            -7.4089580774307251e-01 2.6816448569297791e-01</leafValues></_>
        <_>
          <internalNodes>
            0 -1 77 85761410 245144526 151230464 -1075850760 -107357746
            -1367236470 -1104627566 2147126140</internalNodes>
          <leafValues>
            -7.7029472589492798e-01 2.5308588147163391e-01</leafValues></_>
        <_>
          <internalNodes>
            0 -1 46 836628630 -11314380 2080374526 -551839243
            -1155482888 -1666291503 -1890652997 -3276637</internalNodes>
          <leafValues>
            -4.8823127150535583e-01 5.0082415342330933e-01</leafValues></_>
        <_>
          <internalNodes>
            0 -1 29 1931510184 -81935972 -149830441 -33716774 319031528
            -108396400 -1286700341 2141752927</internalNodes>
          <leafValues>
            -6.7710137367248535e-01 3.5860639810562134e-01</leafValues></_>
        <_>
          <internalNodes>
            0 -1 16 -737487746 -267304800 -1879048110 -202473286
            1073847178 -484896750 -703950072 -202502452</internalNodes>
          <leafValues>
            -6.4945125579833984e-01 3.6471903324127197e-01</leafValues></_></weakClassifiers></_></stages>
  <features>
    <_>
      <rect>
        0 0 1 1</rect></_>
    <_>
      <rect>
        0 0 1 2</rect></_>
    <_>
      <rect>
        0 0 2 1</rect></_>
    <_>
      <rect>
        0 0 2 7</rect></_>
    <_>
      <rect>
        0 0 2 8</rect></_>
    <_>
      <rect>
        0 0 3 1</rect></_>
    <_>
      <rect>
        0 0 4 8</rect></_>
    <_>
      <rect>
        0 0 7 6</rect></_>
    <_>
      <rect>
        0 0 8 3</rect></_>
    <_>
      <rect>
        0 0 8 5</rect></_>
    <_>
      <rect>
        0 1 1 1</rect></_>
    <_>
      <rect>
        0 1 5 5</rect></_>
    <_>
      <rect>
        0 2 1 2</rect></_>
    <_>
      <rect>
        0 7 2 3</rect></_>
    <_>
      <rect>
        0 11 2 1</rect></_>
    <_>
      <rect>
        0 11 3 4</rect></_>
    <_>
      <rect>
        0 12 4 4</rect></_>
    <_>
      <rect>
        0 15 4 3</rect></_>
    <_>
      <rect>
        0 18 1 2</rect></_>
    <_>
      <rect>
        0 18 3 2</rect></_>
    <_>
      <rect>
        0 20 1 1</rect></_>
    <_>
      <rect>
        0 21 1 1</rect></_>
    <_>
      <rect>
        0 21 2 1</rect></_>
    <_>
      <rect>
        0 21 7 1</rect></_>
    <_>
      <rect>
        1 0 1 1</rect></_>
    <_>
      <rect>
        1 21 1 1</rect></_>
    <_>
      <rect>
        2 0 6 1</rect></_>
    <_>
      <rect>
        2 6 6 5</rect></_>
    <_>
      <rect>
        2 9 5 4</rect></_>
    <_>
      <rect>
        2 21 2 1</rect></_>
    <_>
      <rect>
        3 0 6 1</rect></_>
    <_>
      <rect>
        3 6 4 2</rect></_>
    <_>
      <rect>
        3 6 5 3</rect></_>
    <_>
      <rect>
        3 21 7 1</rect></_>
    <_>
      <rect>
        4 0 5 6</rect></_>
    <_>
      <rect>
        4 4 4 3</rect></_>
    <_>
      <rect>
        4 13 3 1</rect></_>
    <_>
      <rect>
        4 21 2 1</rect></_>
    <_>
      <rect>
        4 21 3 1</rect></_>
    <_>
      <rect>
        5 0 6 5</rect></_>
    <_>
      <rect>
        5 3 4 6</rect></_>
    <_>
      <rect>
        5 21 4 1</rect></_>
    <_>
      <rect>
        5 21 5 1</rect></_>
    <_>
      <rect>
        6 0 6 1</rect></_>
    <_>
      <rect>
        6 4 4 4</rect></_>
    <_>
      <rect>
        6 6 4 2</rect></_>
    <_>
      <rect>
        6 12 4 2</rect></_>
    <_>
      <rect>
        7 5 3 3</rect></_>
    <_>
      <rect>
        7 5 4 2</rect></_>
    <_>
      <rect>
        7 10 5 2</rect></_>
    <_>
      <rect>
        7 11 3 2</rect></_>
    <_>
      <rect>
        7 11 4 2</rect></_>
    <_>
      <rect>
        8 4 3 4</rect></_>
    <_>
      <rect>
        8 6 3 3</rect></_>
    <_>
      <rect>
        8 8 3 2</rect></_>
    <_>
      <rect>
        8 11 3 2</rect></_>
    <_>
      <rect>
        8 12 3 1</rect></_>
    <_>
      <rect>
        8 12 3 2</rect></_>
    <_>
      <rect>
        9 0 5 1</rect></_>
    <_>
      <rect>
        9 0 5 3</rect></_>
    <_>
      <rect>
        9 0 5 5</rect></_>
    <_>
      <rect>
        9 7 2 2</rect></_>
    <_>
      <rect>
        9 12 2 1</rect></_>
    <_>
      <rect>
        9 12 2 2</rect></_>
    <_>
      <rect>
        10 11 2 2</rect></_>
    <_>
      <rect>
        10 11 3 2</rect></_>
    <_>
      <rect>
        10 13 2 1</rect></_>
    <_>
      <rect>
        11 11 1 2</rect></_>
    <_>
      <rect>
        11 21 3 1</rect></_>
    <_>
      <rect>
        12 0 4 4</rect></_>
    <_>
      <rect>
        12 7 4 3</rect></_>
    <_>
      <rect>
        12 12 2 1</rect></_>
    <_>
      <rect>
        12 21 4 1</rect></_>
    <_>
      <rect>
        15 0 3 1</rect></_>
    <_>
      <rect>
        15 0 3 2</rect></_>
    <_>
      <rect>
        15 0 3 7</rect></_>
    <_>
      <rect>
        15 5 3 2</rect></_>
    <_>
      <rect>
        15 21 3 1</rect></_>
    <_>
      <rect>
        17 0 2 1</rect></_>
    <_>
      <rect>
        18 0 2 1</rect></_>
    <_>
      <rect>
        18 18 2 2</rect></_>
    <_>
      <rect>
        18 21 2 1</rect></_>
    <_>
      <rect>
        20 0 1 1</rect></_>
    <_>
      <rect>
        20 21 1 1</rect></_>
    <_>
      <rect>
        21 0 1 1</rect></_>
    <_>
      <rect>
        21 0 1 6</rect></_>
    <_>
      <rect>
        21 1 1 1</rect></_>
    <_>
      <rect>
        21 1 1 2</rect></_>
    <_>
      <rect>
        21 3 1 7</rect></_>
    <_>
      <rect>
        21 18 1 2</rect></_>
    <_>
      <rect>
        21 20 1 1</rect></_>
    <_>
      <rect>
        21 21 1 1</rect></_></features></cascade>
</opencv_storage>
