<?xml version="1.0"?>
<opencv_storage>
<cascade>
  <stageType>BOOST</stageType>
  <featureType>LBP</featureType>
  <height>24</height>
  <width>24</width>
  <stageParams>
    <boostType>GAB</boostType>
    <minHitRate>9.9900001287460327e-01</minHitRate>
    <maxFalseAlarm>5.0000000000000000e-01</maxFalseAlarm>
    <weightTrimRate>9.4999999999999996e-01</weightTrimRate>
    <maxDepth>1</maxDepth>
    <maxWeakCount>100</maxWeakCount></stageParams>
  <featureParams>
    <maxCatCount>256</maxCatCount>
    <featSize>1</featSize></featureParams>
  <stageNum>20</stageNum>
  <stages>
    <!-- stage 0 -->
    <_>
      <maxWeakCount>5</maxWeakCount>
      <stageThreshold>-9.1081678867340088e-01</stageThreshold>
      <weakClassifiers>
        <_>
          <internalNodes>
            0 -1 137 1000345800 -16576480 1071456249 2139052977
            732432618 -1163183574 239531775 -50177</internalNodes>
          <leafValues>
            -6.4972525835037231e-01 7.9687500000000000e-01</leafValues></_>
        <_>
          <internalNodes>
            0 -1 31 296966143 823464405 1507021215 2005209365 281141499
            1161298120 816430079 1396781979</internalNodes>
          <leafValues>
            -7.1256184577941895e-01 7.0323568582534790e-01</leafValues></_>
        <_>
          <internalNodes>
            0 -1 64 2030063864 -11993008 1426064727 -149613167 587215096
            -75399038 201394651 -6049089</internalNodes>
          <leafValues>
            -6.1336892843246460e-01 6.0425472259521484e-01</leafValues></_>
        <_>
          <internalNodes>
            0 -1 43 830669053 286589332 -644770465 1594708249 1342232827
            949485696 -2094878289 2034930648</internalNodes>
          <leafValues>
            -5.8451730012893677e-01 5.7733559608459473e-01</leafValues></_>
        <_>
          <internalNodes>
            0 -1 114 -1338994440 1069223952 273764573 1071321282
            553822714 965411992 420549819 -1084278085</internalNodes>
          <leafValues>
            -6.7839556932449341e-01 4.8750367760658264e-01</leafValues></_></weakClassifiers></_>
    <!-- stage 1 -->
    <_>
      <maxWeakCount>7</maxWeakCount>
      <stageThreshold>-1.4079457521438599e+00</stageThreshold>
      <weakClassifiers>
        <_>
          <internalNodes>
            0 -1 161 25172104 -1853789800 25174459 -580939271 8952554
            -670524774 104872831 -2119585</internalNodes>
          <leafValues>
            -6.8068832159042358e-01 6.2969589233398438e-01</leafValues></_>
        <_>
          <internalNodes>
            0 -1 6 -235538433 1909715103 1305559007 -168436225
            -1854146817 284373872 -1519075329 838300671</internalNodes>
          <leafValues>
            -6.0698252916336060e-01 6.6544306278228760e-01</leafValues></_>
        <_>
          <internalNodes>
            0 -1 136 -788999940 -2932584 562841853 2100249037 -90511106
            -69516574 2047802283 -5268225</internalNodes>
          <leafValues>
            -5.2459895610809326e-01 5.7675564289093018e-01</leafValues></_>
        <_>
          <internalNodes>
            0 -1 47 60477915 1602752992 2075131867 491779805 445701371
            1367507429 182452223 2144333563</internalNodes>
          <leafValues>
            -5.1533758640289307e-01 5.6202524900436401e-01</leafValues></_>
        <_>
          <internalNodes>
            0 -1 173 -576055078 -1148452720 1342249311 1498877977
            -1163727877 -611712822 285779887 1526923547</internalNodes>
          <leafValues>
            -5.7949990034103394e-01 4.3926584720611572e-01</leafValues></_>
        <_>
          <internalNodes>
            0 -1 8 1927212799 -1164230434 83953701 2101975059 117623803
            842928520 -1165231963 461241226</internalNodes>
          <leafValues>
            -5.0683015584945679e-01 4.6613997220993042e-01</leafValues></_>
        <_>
          <internalNodes>
            0 -1 145 -804658216 -1325249984 1488609787 -182648652
            -1799684466 -2035820834 336430491 -1727494150</internalNodes>
          <leafValues>
            -4.0574711561203003e-01 6.2618184089660645e-01</leafValues></_></weakClassifiers></_>
    <!-- stage 2 -->
    <_>
      <maxWeakCount>9</maxWeakCount>
      <stageThreshold>-9.2772483825683594e-01</stageThreshold>
      <weakClassifiers>
        <_>
          <internalNodes>
            0 -1 89 139417599 433683185 1040179199 1433761271 181338075
            -1430520101 465551263 286888903</internalNodes>
          <leafValues>
            -4.7045624256134033e-01 6.6242247819900513e-01</leafValues></_>
        <_>
          <internalNodes>
            0 -1 121 -117416744 -545062376 1160280883 -83422799
            411979934 -1708996338 -888997217 -14726181</internalNodes>
          <leafValues>
            -4.9515479803085327e-01 5.0895988941192627e-01</leafValues></_>
        <_>
          <internalNodes>
            0 -1 6 -782960675 -251006755 1363450137 2110903897
            -1863847109 866582529 620881867 834745143</internalNodes>
          <leafValues>
            -6.3235282897949219e-01 3.8352900743484497e-01</leafValues></_>
        <_>
          <internalNodes>
            0 -1 105 -1786678904 2102907089 -1986522731 -536903371
            1745509114 -342916983 -1189074001 -812769082</internalNodes>
          <leafValues>
            -5.4091888666152954e-01 4.4097197055816650e-01</leafValues></_>
        <_>
          <internalNodes>
            0 -1 21 1596187377 -542041103 804596479 1471234037 287356897
            -14215177 790866939 -6946885</internalNodes>
          <leafValues>
            -4.1906920075416565e-01 5.1782208681106567e-01</leafValues></_>
        <_>
          <internalNodes>
            0 -1 108 -1156509454 -377487232 1158468755 1595766165
            -619920726 -1729625983 1484847835 989991075</internalNodes>
          <leafValues>
            -5.6840372085571289e-01 3.5975643992424011e-01</leafValues></_>
        <_>
          <internalNodes>
            0 -1 156 -670990190 -683998412 -1291929615 2143026553
            -1389198436 -49154635 1376820469 -82077313</internalNodes>
          <leafValues>
            -3.4360459446907043e-01 5.7299768924713135e-01</leafValues></_>
        <_>
          <internalNodes>
            0 -1 93 1439349206 31555620 1292836191 1029640205 421781690
            822118704 2038553135 457898907</internalNodes>
          <leafValues>
            -5.8662676811218262e-01 3.5063037276268005e-01</leafValues></_>
        <_>
          <internalNodes>
            0 -1 103 428873912 -819101560 353173851 1460345104 440565820
            -1948595837 319846429 -836069797</internalNodes>
          <leafValues>
            -6.6903930902481079e-01 3.2174816727638245e-01</leafValues></_></weakClassifiers></_>
    <!-- stage 3 -->
    <_>
      <maxWeakCount>11</maxWeakCount>
      <stageThreshold>-1.2970985174179077e+00</stageThreshold>
      <weakClassifiers>
        <_>
          <internalNodes>
            0 -1 33 1393767423 1565488981 2147450839 2144293323
            1498707967 -270571593 2033549311 1427190701</internalNodes>
          <leafValues>
            -4.1555380821228027e-01 6.1688518524169922e-01</leafValues></_>
        <_>
          <internalNodes>
            0 -1 222 1343224283 1071229 537237575 358029671 845835
            338907162 168790467 1577051023</internalNodes>
          <leafValues>
            -4.8037555813789368e-01 4.8697403073310852e-01</leafValues></_>
        <_>
          <internalNodes>
            0 -1 122 688476648 -888471232 424268767 -572571280
            -1734823430 -560033334 -1329050629 -16227083</internalNodes>
          <leafValues>
            -5.5268311500549316e-01 3.8666680455207825e-01</leafValues></_>
        <_>
          <internalNodes>
            0 -1 204 -784334646 -786362166 -1824272108 -37535605
            -1430611830 -106291188 -662076245 -1084800485</internalNodes>
          <leafValues>
            -4.2598575353622437e-01 4.2802494764328003e-01</leafValues></_>
        <_>
          <internalNodes>
            0 -1 5 -539494913 -409486887 1368788378 1608466581
            -1147941381 -1828581005 -393586053 822178295</internalNodes>
          <leafValues>
            -4.9956119060516357e-01 3.8496395945549011e-01</leafValues></_>
        <_>
          <internalNodes>
            0 -1 228 -644332336 -107395712 335577479 1435830305
            -1459517283 -1618967862 145464043 357515975</internalNodes>
          <leafValues>
            -5.7789045572280884e-01 3.1140378117561340e-01</leafValues></_>
        <_>
          <internalNodes>
            0 -1 197 -209129254 -642236272 -1984145967 1560888441
            -1020610342 -1367277374 1116771003 -74743617</internalNodes>
          <leafValues>
            -2.7303144335746765e-01 6.7802524566650391e-01</leafValues></_>
        <_>
          <internalNodes>
            0 -1 77 352718898 -259702654 889486364 1972834472 48763309
            -1198833007 58964206 2139033818</internalNodes>
          <leafValues>
            -6.5749299526214600e-01 2.7758201956748962e-01</leafValues></_>
        <_>
          <internalNodes>
            0 -1 148 2139555067 -955252599 1359026687 1531838464
            -633091397 -73625207 153329839 1001358307</internalNodes>
          <leafValues>
            -4.3664067983627319e-01 4.6138542890548706e-01</leafValues></_>
        <_>
          <internalNodes>
            0 -1 209 -1012809648 1342530640 -856361735 1970102015
            -1979138854 -1590199976 897095065 -683938917</internalNodes>
          <leafValues>
            -3.1263050436973572e-01 6.0391682386398315e-01</leafValues></_>
        <_>
          <internalNodes>
            0 -1 253 -746077550 1092321312 1966745846 2090991187
            -1072970078 3148944 737448 -82071333</internalNodes>
          <leafValues>
            -3.1784036755561829e-01 5.9460455179214478e-01</leafValues></_></weakClassifiers></_>
    <!-- stage 4 -->
    <_>
      <maxWeakCount>12</maxWeakCount>
      <stageThreshold>-1.1539372205734253e+00</stageThreshold>
      <weakClassifiers>
        <_>
          <internalNodes>
            0 -1 135 -1861216040 -574609272 177209608 1959342557
            -1785165382 -71431902 445655950 -3252241</internalNodes>
          <leafValues>
            -5.7409715652465820e-01 5.1737558841705322e-01</leafValues></_>
        <_>
          <internalNodes>
            0 -1 26 1401025503 1360347607 -981364577 2111915271
            294466479 814429057 176805087 1608480735</internalNodes>
          <leafValues>
            -5.3815871477127075e-01 4.4558900594711304e-01</leafValues></_>
        <_>
          <internalNodes>
            0 -1 164 -1960817432 -885309174 -586923567 2009156865
            -628448582 -1380769790 1848699902 -15068796</internalNodes>
          <leafValues>
            -5.4065322875976562e-01 3.3123689889907837e-01</leafValues></_>
        <_>
          <internalNodes>
            0 -1 221 -642787121 135303561 939635019 -1186878133
            470204719 272683234 1499438983 1574949099</internalNodes>
          <leafValues>
            -4.2872491478919983e-01 4.0577542781829834e-01</leafValues></_>
        <_>
          <internalNodes>
            0 -1 210 -721045074 -648494943 1644384410 835813583
            -352194066 673318914 -732845314 1060086475</internalNodes>
          <leafValues>
            -3.7202677130699158e-01 4.5029839873313904e-01</leafValues></_>
        <_>
          <internalNodes>
            0 -1 258 -379092790 852162 16990808 273416261 -754417617
            538443784 143032546 1393291403</internalNodes>
          <leafValues>
            -4.4030767679214478e-01 4.0006163716316223e-01</leafValues></_>
        <_>
          <internalNodes>
            0 -1 172 -1040019456 -251330297 290459861 1427719900
            -1999601512 -2113929198 273716717 304152603</internalNodes>
          <leafValues>
            -5.3247624635696411e-01 3.4507170319557190e-01</leafValues></_>
        <_>
          <internalNodes>
            0 -1 107 -11333624 294160514 1566211231 1598640214
            -1895630202 -276091750 174776479 -850620468</internalNodes>
          <leafValues>
            -4.7546309232711792e-01 3.4523868560791016e-01</leafValues></_>
        <_>
          <internalNodes>
            0 -1 128 -50280230 -1039644512 1977903005 526343473
            1135628523 -1329965456 -1023322945 1537203963</internalNodes>
          <leafValues>
            -3.9267283678054810e-01 4.5360386371612549e-01</leafValues></_>
        <_>
          <internalNodes>
            0 -1 1 -5379389 1091125664 1073914315 -1824423742 1208175106
            1644908608 1879215955 2137986563</internalNodes>
          <leafValues>
            -4.5204964280128479e-01 4.0435171127319336e-01</leafValues></_>
        <_>
          <internalNodes>
            0 -1 65 -498972536 1225277683 1157693970 268448154
            -1967521654 -1912077798 2015398143 -348491045</internalNodes>
          <leafValues>
            -4.4364503026008606e-01 4.3845564126968384e-01</leafValues></_>
        <_>
          <internalNodes>
            0 -1 212 -515792742 -775026174 -1707325780 -135508780
            -289755922 -876673028 1409284029 -148513315</internalNodes>
          <leafValues>
            -3.3818447589874268e-01 5.1908087730407715e-01</leafValues></_></weakClassifiers></_>
    <!-- stage 5 -->
    <_>
      <maxWeakCount>12</maxWeakCount>
      <stageThreshold>-1.1920019388198853e+00</stageThreshold>
      <weakClassifiers>
        <_>
          <internalNodes>
            0 -1 23 1594095089 2144706547 1063587827 1475461107
            1026585008 1068587952 2099457019 -9438273</internalNodes>
          <leafValues>
            -1.8606024980545044e-01 6.3354265689849854e-01</leafValues></_>
        <_>
          <internalNodes>
            0 -1 195 285137147 403722746 -1862179509 1427239178
            679657182 -1466269528 -1399587842 147840226</internalNodes>
          <leafValues>
            -5.1753139495849609e-01 3.7504857778549194e-01</leafValues></_>
        <_>
          <internalNodes>
            0 -1 139 -620111656 -318039144 -1795105813 -9747279
            -1496954230 -1085628310 1677916111 -275047877</internalNodes>
          <leafValues>
            -4.5160251855850220e-01 3.6976292729377747e-01</leafValues></_>
        <_>
          <internalNodes>
            0 -1 166 -209141540 1599868992 84611321 487915920
            -1987935576 344462000 572187055 999482323</internalNodes>
          <leafValues>
            -4.2707785964012146e-01 4.0051922202110291e-01</leafValues></_>
        <_>
          <internalNodes>
            0 -1 20 904937726 2098282932 -1591540401 1023508743
            628101296 -1179647855 185557951 1849648031</internalNodes>
          <leafValues>
            -5.8316516876220703e-01 2.8220808506011963e-01</leafValues></_>
        <_>
          <internalNodes>
            0 -1 185 -800719137 -1672388471 1359151435 474168515
            -783683446 -2012428160 -653722593 278868155</internalNodes>
          <leafValues>
            -5.8004885911941528e-01 2.6817184686660767e-01</leafValues></_>
        <_>
          <internalNodes>
            0 -1 140 -1672724260 -581216812 1472499891 1573175429
            985813959 -360011111 411236655 1060055180</internalNodes>
          <leafValues>
            -5.2360320091247559e-01 3.0311158299446106e-01</leafValues></_>
        <_>
          <internalNodes>
            0 -1 69 -147824134 -2029533056 -1933520417 -854667567
            -2145339374 -1165254181 -2118120785 520235503</internalNodes>
          <leafValues>
            -5.4137045145034790e-01 2.9712390899658203e-01</leafValues></_>
        <_>
          <internalNodes>
            0 -1 207 1426715864 1369544832 -680065633 1597179973
            -1742152566 -349959446 -2079134465 -610555701</internalNodes>
          <leafValues>
            -2.6852491497993469e-01 5.8927059173583984e-01</leafValues></_>
        <_>
          <internalNodes>
            0 -1 217 -593964852 1896453200 402703441 285313489
            -1442670248 -1828560896 34240767 181060059</internalNodes>
          <leafValues>
            -4.4287997484207153e-01 3.7080046534538269e-01</leafValues></_>
        <_>
          <internalNodes>
            0 -1 36 -800069142 -769001126 1558361512 1934557472
            -1333688830 1093817344 -1308633646 -529547557</internalNodes>
          <leafValues>
            -3.2248386740684509e-01 5.4190957546234131e-01</leafValues></_>
        <_>
          <internalNodes>
            0 -1 92 456786363 1350041632 324503253 1973355674 173078731
            681575114 1459912628 1069877166</internalNodes>
          <leafValues>
            -5.9041875600814819e-01 3.1806188821792603e-01</leafValues></_></weakClassifiers></_>
    <!-- stage 6 -->
    <_>
      <maxWeakCount>14</maxWeakCount>
      <stageThreshold>-1.1065421104431152e+00</stageThreshold>
      <weakClassifiers>
        <_>
          <internalNodes>
            0 -1 46 -638725925 32727120 1207694845 1439772787 1996387071
            591922416 1123936251 1377547990</internalNodes>
          <leafValues>
            -3.3994588255882263e-01 5.3995746374130249e-01</leafValues></_>
        <_>
          <internalNodes>
            0 -1 130 -75120961 858850451 1163481167 1469519526
            1661267375 942318986 201833711 322667742</internalNodes>
          <leafValues>
            -4.3187618255615234e-01 3.8816314935684204e-01</leafValues></_>
        <_>
          <internalNodes>
            0 -1 85 -1023355704 -787868830 -820985829 1933914184
            -661993314 -1425321984 512253487 -619742865</internalNodes>
          <leafValues>
            -5.2849084138870239e-01 3.1907868385314941e-01</leafValues></_>
        <_>
          <internalNodes>
            0 -1 133 -937785216 -182380527 1602106741 1595085682
            36995255 -846133967 1529584821 -80551958</internalNodes>
          <leafValues>
            -3.5344472527503967e-01 4.1989067196846008e-01</leafValues></_>
        <_>
          <internalNodes>
            0 -1 82 829972463 269824229 -24293823 1934573889 -1437744761
            -1472274299 -1967211813 200133327</internalNodes>
          <leafValues>
            -5.1652693748474121e-01 2.8365156054496765e-01</leafValues></_>
        <_>
          <internalNodes>
            0 -1 179 -1719086760 -1694137142 201644373 1437561233
            947027627 168307613 -988259873 -72710002</internalNodes>
          <leafValues>
            -4.2532441020011902e-01 3.5870292782783508e-01</leafValues></_>
        <_>
          <internalNodes>
            0 -1 175 -272919346 -973534274 428414449 1462997280
            -811364450 -1913659704 185199531 -1690627781</internalNodes>
          <leafValues>
            -3.5596105456352234e-01 4.4908219575881958e-01</leafValues></_>
        <_>
          <internalNodes>
            0 -1 215 -239757936 1426145808 1950421324 1393643968
            -1859608390 -2147483488 -1736276754 520814730</internalNodes>
          <leafValues>
            -4.5166000723838806e-01 3.3955797553062439e-01</leafValues></_>
        <_>
          <internalNodes>
            0 -1 19 -1752796929 842078301 137395 2009952389 908338175
            8407047 551078645 2031996659</internalNodes>
          <leafValues>
            -5.0139224529266357e-01 3.2431080937385559e-01</leafValues></_>
        <_>
          <internalNodes>
            0 -1 184 -134201126 1477984496 329741941 1561269293
            -1717004118 -1941921664 789641402 -547712858</internalNodes>
          <leafValues>
            -3.3899286389350891e-01 5.0139254331588745e-01</leafValues></_>
        <_>
          <internalNodes>
            0 -1 117 -1516037028 -552746812 17009523 1359499455
            -1576906626 -1318502365 160282999 -1962009809</internalNodes>
          <leafValues>
            -5.4092931747436523e-01 3.0225941538810730e-01</leafValues></_>
        <_>
          <internalNodes>
            0 -1 95 315163067 274010522 155308447 1066344991 1000525996
            838336672 -651976678 1002064424</internalNodes>
          <leafValues>
            -5.3563147783279419e-01 3.1187963485717773e-01</leafValues></_>
        <_>
          <internalNodes>
            0 -1 29 -496241681 1934851299 64102965 79816615 808728387
            326788918 331600081 -1018953990</internalNodes>
          <leafValues>
            -3.0012351274490356e-01 5.8483147621154785e-01</leafValues></_>
        <_>
          <internalNodes>
            0 -1 224 -659293011 691308 2094440411 -715161125 -857759794
            -1983439617 439241435 -178805409</internalNodes>
          <leafValues>
            -3.6743590235710144e-01 4.5951953530311584e-01</leafValues></_></weakClassifiers></_>
    <!-- stage 7 -->
    <_>
      <maxWeakCount>14</maxWeakCount>
      <stageThreshold>-1.0757607221603394e+00</stageThreshold>
      <weakClassifiers>
        <_>
          <internalNodes>
            0 -1 163 489162920 2143114576 -655363 -541239823 805076598
            -1879146627 -43450370 -7800356</internalNodes>
          <leafValues>
            -4.2610570788383484e-01 5.1684421300888062e-01</leafValues></_>
        <_>
          <internalNodes>
            0 -1 13 1374024447 332354427 1077969161 -712904435 278147545
            832249935 1160367839 2002088939</internalNodes>
          <leafValues>
            -5.0181168317794800e-01 3.4193161129951477e-01</leafValues></_>
        <_>
          <internalNodes>
            0 -1 134 -134161256 -538240520 268966687 1607684736
            -1077959698 -1081400616 -1592751458 -545260677</internalNodes>
          <leafValues>
            -4.1038131713867188e-01 4.0691104531288147e-01</leafValues></_>
        <_>
          <internalNodes>
            0 -1 96 -657292293 2078218811 1157627975 1565855829
            -2054182477 -1173675992 824488955 454951142</internalNodes>
          <leafValues>
            -5.1593387126922607e-01 2.7217969298362732e-01</leafValues></_>
        <_>
          <internalNodes>
            0 -1 9 -14448657 -169516069 -819483649 -16664577 -315542604
            -135047951 -1154753793 -687361281</internalNodes>
          <leafValues>
            -3.0395835638046265e-01 5.0058740377426147e-01</leafValues></_>
        <_>
          <internalNodes>
            0 -1 200 -660483888 -690793699 -982470185 -717828673
            -1631811448 -2080909168 1227919835 -551386622</internalNodes>
          <leafValues>
            -3.1822413206100464e-01 4.9217852950096130e-01</leafValues></_>
        <_>
          <internalNodes>
            0 -1 152 -1876930374 33619976 1351833971 487805266
            -2077699958 -1911422808 268685723 975874043</internalNodes>
          <leafValues>
            -4.3349626660346985e-01 3.4289708733558655e-01</leafValues></_>
        <_>
          <internalNodes>
            0 -1 230 575139567 18866967 1885618178 890873233 336052419
            -1417560048 -754724409 787664221</internalNodes>
          <leafValues>
            -4.7084826231002808e-01 3.2595029473304749e-01</leafValues></_>
        <_>
          <internalNodes>
            0 -1 204 -652703494 -987735487 -1807712204 -45936191
            -112666486 -804388790 -779435617 -1625881915</internalNodes>
          <leafValues>
            -3.9498913288116455e-01 4.2363131046295166e-01</leafValues></_>
        <_>
          <internalNodes>
            0 -1 78 286203644 -1744108127 -1811590288 1974796554
            -1475332422 -630701947 839488165 2145327803</internalNodes>
          <leafValues>
            -5.3850728273391724e-01 2.9630920290946960e-01</leafValues></_>
        <_>
          <internalNodes>
            0 -1 30 -797183349 1466357541 1123454785 1897975214 73154578
            357617446 1110912000 1985740778</internalNodes>
          <leafValues>
            -3.4670582413673401e-01 4.7417655587196350e-01</leafValues></_>
        <_>
          <internalNodes>
            0 -1 102 229200082 -1749200762 19094839 -451929711
            -1985060385 -931134246 25319251 -880076869</internalNodes>
          <leafValues>
            -4.2128881812095642e-01 3.8509118556976318e-01</leafValues></_>
        <_>
          <internalNodes>
            0 -1 189 1912610912 419840000 25190861 -1852488427
            1361224192 -149483422 1243879135 -1085336961</internalNodes>
          <leafValues>
            -3.9824283123016357e-01 4.0300846099853516e-01</leafValues></_>
        <_>
          <internalNodes>
            0 -1 219 -753929261 92279233 -532676536 83600338 581699
            -2143124475 1182658689 403669919</internalNodes>
          <leafValues>
            -5.0017178058624268e-01 3.3026576042175293e-01</leafValues></_></weakClassifiers></_>
    <!-- stage 8 -->
    <_>
      <maxWeakCount>15</maxWeakCount>
      <stageThreshold>-1.2505537271499634e+00</stageThreshold>
      <weakClassifiers>
        <_>
          <internalNodes>
            0 -1 7 -178002973 -282913256 -1078722825 -551313557
            792011536 1058084112 1059287859 924002083</internalNodes>
          <leafValues>
            -3.0483272671699524e-01 5.1985561847686768e-01</leafValues></_>
        <_>
          <internalNodes>
            0 -1 192 -1171599108 -10060596 -1956626021 732490169
            -1143983875 554381512 1471163291 -1348470627</internalNodes>
          <leafValues>
            -5.0618517398834229e-01 3.1679522991180420e-01</leafValues></_>
        <_>
          <internalNodes>
            0 -1 259 -990387462 41004 137445548 -466558748 -1969511905
            67331116 431936155 -603980837</internalNodes>
          <leafValues>
            -2.9479762911796570e-01 4.3891564011573792e-01</leafValues></_>
        <_>
          <internalNodes>
            0 -1 90 218169582 -711879504 21978395 -8427275 -1975482146
            -1680094784 145361039 443701030</internalNodes>
          <leafValues>
            -4.7646185755729675e-01 2.8180903196334839e-01</leafValues></_>
        <_>
          <internalNodes>
            0 -1 165 -613615878 -788438848 506193407 1560352207
            -771193616 445328024 335710207 -1949331573</internalNodes>
          <leafValues>
            -2.7386894822120667e-01 5.0661456584930420e-01</leafValues></_>
        <_>
          <internalNodes>
            0 -1 106 -1046842932 1259147351 -419380281 1192064215
            545315111 -549387242 302047150 2139961014</internalNodes>
          <leafValues>
            -4.5119139552116394e-01 3.1060445308685303e-01</leafValues></_>
        <_>
          <internalNodes>
            0 -1 242 1548741695 2772024 610983133 -724577121 -562049077
            1815830511 1031478259 -33556545</internalNodes>
          <leafValues>
            -3.3439081907272339e-01 4.4790926575660706e-01</leafValues></_>
        <_>
          <internalNodes>
            0 -1 83 1930105176 -1633332864 2050717979 1436484515
            -1407262712 -25194280 178015103 -1093000581</internalNodes>
          <leafValues>
            -4.7846388816833496e-01 3.0469042062759399e-01</leafValues></_>
        <_>
          <internalNodes>
            0 -1 34 -211565942 1833975322 16857408 -1979334528 50409984
            5890 909129746 1428674603</internalNodes>
          <leafValues>
            -4.2617624998092651e-01 3.3908301591873169e-01</leafValues></_>
        <_>
          <internalNodes>
            0 -1 208 -83176200 -641101582 426655773 500240593 -399322990
            -1146201904 196782842 -1692707105</internalNodes>
          <leafValues>
            -2.8855884075164795e-01 4.9801200628280640e-01</leafValues></_>
        <_>
          <internalNodes>
            0 -1 12 1430385623 2004570869 -170593549 -791429259
            829657265 1999844595 328837623 -104959181</internalNodes>
          <leafValues>
            -3.5458749532699585e-01 4.1002973914146423e-01</leafValues></_>
        <_>
          <internalNodes>
            0 -1 198 -544718608 -827326456 268785407 1003750037
            -1995908872 -1429568839 687903220 462094744</internalNodes>
          <leafValues>
            -4.6451205015182495e-01 3.1706157326698303e-01</leafValues></_>
        <_>
          <internalNodes>
            0 -1 254 -1025671066 1091326054 1074888704 -1875430855
            -1056743400 1130496 576918939 1664084943</internalNodes>
          <leafValues>
            -4.5463132858276367e-01 3.2567882537841797e-01</leafValues></_>
        <_>
          <internalNodes>
            0 -1 3 -2019779394 -115866721 -939063181 -10800998
            -925980500 -903347198 -1946508566 455082577</internalNodes>
          <leafValues>
            -5.0606989860534668e-01 3.2377296686172485e-01</leafValues></_>
        <_>
          <internalNodes>
            0 -1 155 445661790 -232780167 507170297 1903828983
            -1632659237 -1103167692 445908443 -1147246002</internalNodes>
          <leafValues>
            -3.5372963547706604e-01 4.2745167016983032e-01</leafValues></_></weakClassifiers></_>
    <!-- stage 9 -->
    <_>
      <maxWeakCount>15</maxWeakCount>
      <stageThreshold>-9.7562944889068604e-01</stageThreshold>
      <weakClassifiers>
        <_>
          <internalNodes>
            0 -1 24 1610553331 -35209 804712319 1609909509 1426329875
            2147422967 473789895 1573746567</internalNodes>
          <leafValues>
            -2.6158940792083740e-01 5.3759396076202393e-01</leafValues></_>
        <_>
          <internalNodes>
            0 -1 118 553655448 -1079385712 1193115931 1604255825
            -1456979048 -1146116950 421401354 -637649110</internalNodes>
          <leafValues>
            -5.8428972959518433e-01 2.6890832185745239e-01</leafValues></_>
        <_>
          <internalNodes>
            0 -1 157 -804748614 -587917260 448753525 -674948225
            -1422750792 -1346956555 255641589 -550529025</internalNodes>
          <leafValues>
            -2.8625515103340149e-01 4.9220082163810730e-01</leafValues></_>
        <_>
          <internalNodes>
            0 -1 188 -801908481 207112239 981632001 -1780252661
            -243091542 -1937260286 1620096747 -643962969</internalNodes>
          <leafValues>
            -3.5975399613380432e-01 3.7153285741806030e-01</leafValues></_>
        <_>
          <internalNodes>
            0 -1 168 -803680038 -635878384 1346400735 -1621934064
            -1435328310 -1096600564 1216534702 956957146</internalNodes>
          <leafValues>
            -4.0827727317810059e-01 3.4364858269691467e-01</leafValues></_>
        <_>
          <internalNodes>
            0 -1 55 -1039482742 -550884996 -932130239 1182961684
            -2142764594 1680131062 1135861739 -720957793</internalNodes>
          <leafValues>
            -3.5935279726982117e-01 3.7961527705192566e-01</leafValues></_>
        <_>
          <internalNodes>
            0 -1 29 -230501654 -743776094 -1307315692 374343202
            1345589318 1917339396 1078259730 -748685694</internalNodes>
          <leafValues>
            -3.2270273566246033e-01 4.1152843832969666e-01</leafValues></_>
        <_>
          <internalNodes>
            0 -1 183 -797388592 1434982632 339269907 -615247500
            -1173191426 -659144456 998631918 -618651920</internalNodes>
          <leafValues>
            -2.7746382355690002e-01 4.7520595788955688e-01</leafValues></_>
        <_>
          <internalNodes>
            0 -1 67 -1197829666 2046910656 1561170245 2001457536
            412076751 -498304370 330010536 1941513419</internalNodes>
          <leafValues>
            -4.6822905540466309e-01 3.0926805734634399e-01</leafValues></_>
        <_>
          <internalNodes>
            0 -1 235 -618553184 -203674719 -1756605891 -645132429
            -1207031575 -1619378327 -1944681249 -83862901</internalNodes>
          <leafValues>
            -3.3373051881790161e-01 4.5490184426307678e-01</leafValues></_>
        <_>
          <internalNodes>
            0 -1 51 -1691676257 -1953299565 -2147464725 1331748720
            34230688 641007696 201389201 2064320410</internalNodes>
          <leafValues>
            -5.3138840198516846e-01 2.9395070672035217e-01</leafValues></_>
        <_>
          <internalNodes>
            0 -1 68 -539049846 2058289840 -1742724663 1602158772
            -1843100270 -30451780 -59393553 -367982086</internalNodes>
          <leafValues>
            -3.1554830074310303e-01 4.5102974772453308e-01</leafValues></_>
        <_>
          <internalNodes>
            0 -1 259 -504635222 2106408 1824023789 138039431 -1032282090
            805504040 137495171 -875572225</internalNodes>
          <leafValues>
            -3.0959057807922363e-01 4.5018315315246582e-01</leafValues></_>
        <_>
          <internalNodes>
            0 -1 162 -1522901770 -645688254 -626032775 2145082734
            -906052426 -1932528410 -1540388677 -544239717</internalNodes>
          <leafValues>
            -3.4100103378295898e-01 4.1970700025558472e-01</leafValues></_>
        <_>
          <internalNodes>
            0 -1 28 1438864291 1413738514 950343471 1906798978 524423236
            2024276647 2032263439 1220132523</internalNodes>
          <leafValues>
            -4.4767385721206665e-01 3.3574748039245605e-01</leafValues></_></weakClassifiers></_>
    <!-- stage 10 -->
    <_>
      <maxWeakCount>15</maxWeakCount>
      <stageThreshold>-1.3570470809936523e+00</stageThreshold>
      <weakClassifiers>
        <_>
          <internalNodes>
            0 -1 243 181268007 14593258 1694498535 82300858 -1354235922
            -1427193864 1809366774 799143931</internalNodes>
          <leafValues>
            -2.3987033963203430e-01 5.3569173812866211e-01</leafValues></_>
        <_>
          <internalNodes>
            0 -1 123 -552940824 1461145928 1598676445 1935785985
            677051614 -1886828229 951639775 438993292</internalNodes>
          <leafValues>
            -4.3761479854583740e-01 3.2481276988983154e-01</leafValues></_>
        <_>
          <internalNodes>
            0 -1 196 -913784116 516620434 1962934554 520819009
            -1206349590 -926809934 -1023215150 487294679</internalNodes>
          <leafValues>
            -4.0597483515739441e-01 3.0927956104278564e-01</leafValues></_>
        <_>
          <internalNodes>
            0 -1 18 -205430288 1468729249 335544450 -2133848190
            836767936 871041155 25362857 -61900005</internalNodes>
          <leafValues>
            -5.1877278089523315e-01 2.5106972455978394e-01</leafValues></_>
        <_>
          <internalNodes>
            0 -1 178 -1691275128 -1559228272 355603753 2100760964
            178453674 -553123704 -1895654405 -125040189</internalNodes>
          <leafValues>
            -4.4956099987030029e-01 2.8263312578201294e-01</leafValues></_>
        <_>
          <internalNodes>
            0 -1 72 -1140846438 -1308622556 805446023 -2685401
            -1953713237 -1685975008 172837609 455607279</internalNodes>
          <leafValues>
            -5.3461176156997681e-01 2.3924392461776733e-01</leafValues></_>
        <_>
          <internalNodes>
            0 -1 126 -652979462 -326557500 404558835 1816608917
            -1609721702 -753332183 372425303 1816106895</internalNodes>
          <leafValues>
            -4.2161345481872559e-01 3.1855973601341248e-01</leafValues></_>
        <_>
          <internalNodes>
            0 -1 160 -834568176 -182644512 -2129997645 1896944541
            -2011457392 -952024574 354536641 520799384</internalNodes>
          <leafValues>
            -4.6460548043251038e-01 2.9499214887619019e-01</leafValues></_>
        <_>
          <internalNodes>
            0 -1 44 -67374526 -670877654 11019328 -1022164381 -244937984
            315647011 1094886594 -735059217</internalNodes>
          <leafValues>
            -2.8624126315116882e-01 4.9262493848800659e-01</leafValues></_>
        <_>
          <internalNodes>
            0 -1 115 -653572354 -1616231332 2074671893 1964620925
            539626640 -1385351354 1734537723 -71324161</internalNodes>
          <leafValues>
            -2.5808814167976379e-01 5.4141217470169067e-01</leafValues></_>
        <_>
          <internalNodes>
            0 -1 234 2055159832 1511008962 577440823 -135834701
            1245053160 -1388176266 806646986 -82577705</internalNodes>
          <leafValues>
            -2.7286735177040100e-01 4.7935113310813904e-01</leafValues></_>
        <_>
          <internalNodes>
            0 -1 186 -2066900545 -1865672260 2046631167 905777887
            971570623 -1468001059 1614728430 -1460170721</internalNodes>
          <leafValues>
            -3.5497322678565979e-01 3.9975103735923767e-01</leafValues></_>
        <_>
          <internalNodes>
            0 -1 246 1697393154 1044324360 -1863492892 420688501
            -1527905242 -176787968 373134011 -70557701</internalNodes>
          <leafValues>
            -3.1021273136138916e-01 4.6737837791442871e-01</leafValues></_>
        <_>
          <internalNodes>
            0 -1 6 -635264018 -204623451 1174932485 1850242730
            -477910116 287642000 1780589742 1357411519</internalNodes>
          <leafValues>
            -5.2015531063079834e-01 3.0408596992492676e-01</leafValues></_>
        <_>
          <internalNodes>
            0 -1 84 -1957672624 227480512 -1916042865 -319848315
            721979546 -30439122 1611140830 -687411369</internalNodes>
          <leafValues>
            -5.5245870351791382e-01 2.7682989835739136e-01</leafValues></_></weakClassifiers></_>
    <!-- stage 11 -->
    <_>
      <maxWeakCount>16</maxWeakCount>
      <stageThreshold>-9.7739958763122559e-01</stageThreshold>
      <weakClassifiers>
        <_>
          <internalNodes>
            0 -1 142 -1734386257 406448636 536870879 1431672029
            989854462 -1426326805 -1966147041 173775251</internalNodes>
          <leafValues>
            -2.0840065181255341e-01 5.2435165643692017e-01</leafValues></_>
        <_>
          <internalNodes>
            0 -1 119 -1559752308 463952368 466603615 1540874309
            -776451438 -638999715 -1096655953 -89987883</internalNodes>
          <leafValues>
            -4.8920089006423950e-01 2.6624226570129395e-01</leafValues></_>
        <_>
          <internalNodes>
            0 -1 227 1285281983 403229756 -754904677 1574680879
            -259282193 -1182932536 -1339823333 1974444595</internalNodes>
          <leafValues>
            -3.8173753023147583e-01 3.1776431202888489e-01</leafValues></_>
        <_>
          <internalNodes>
            0 -1 97 -601055150 -123260617 -2122786603 2066945724
            -2110029613 -1146408073 784315576 -12875525</internalNodes>
          <leafValues>
            -2.9193168878555298e-01 4.0818703174591064e-01</leafValues></_>
        <_>
          <internalNodes>
            0 -1 49 1404203698 -1182281189 -234588197 -1023342302
            536888560 867971563 2099327218 -12862517</internalNodes>
          <leafValues>
            -3.6512583494186401e-01 3.3705240488052368e-01</leafValues></_>
        <_>
          <internalNodes>
            0 -1 249 1555945648 1075273984 1074807635 1434829249
            1616937058 537150592 1082490885 1099416025</internalNodes>
          <leafValues>
            -4.5390248298645020e-01 2.9505878686904907e-01</leafValues></_>
        <_>
          <internalNodes>
            0 -1 182 -134163214 -632729584 973098073 965218333
            -1425487670 -276217312 2013309931 453640346</internalNodes>
          <leafValues>
            -3.7404310703277588e-01 3.3061328530311584e-01</leafValues></_>
        <_>
          <internalNodes>
            0 -1 2 1362803690 -769947434 1342183575 -1803865825
            1241045418 -1299971834 172696970 1408241912</internalNodes>
          <leafValues>
            -5.1559096574783325e-01 2.3732979595661163e-01</leafValues></_>
        <_>
          <internalNodes>
            0 -1 211 -652078895 -811765104 261839673 -985301257
            -1373533056 -708995252 975960751 -1355581294</internalNodes>
          <leafValues>
            -3.2113796472549438e-01 4.3307188153266907e-01</leafValues></_>
        <_>
          <internalNodes>
            0 -1 59 -2011385622 -1660878592 156042463 1235145991
            1448378598 -1952830888 187048095 1397708726</internalNodes>
          <leafValues>
            -4.4412919878959656e-01 3.0832606554031372e-01</leafValues></_>
        <_>
          <internalNodes>
            0 -1 113 1247824473 -1781389274 595436113 -785704195
            -1502344368 -1374650820 56464874 -16053285</internalNodes>
          <leafValues>
            -3.0764099955558777e-01 4.3904614448547363e-01</leafValues></_>
        <_>
          <internalNodes>
            0 -1 60 -1039507234 -203103128 1779390091 -196946556
            -476656590 -193580604 304776154 -250355378</internalNodes>
          <leafValues>
            -3.0354574322700500e-01 4.2929637432098389e-01</leafValues></_>
        <_>
          <internalNodes>
            0 -1 50 -1449828427 972689880 -1879011197 1971437568
            1894593279 832111253 -792686455 2075873690</internalNodes>
          <leafValues>
            -4.2815813422203064e-01 3.1144720315933228e-01</leafValues></_>
        <_>
          <internalNodes>
            0 -1 154 1242620042 -951885678 1111802634 1015827544
            168332196 1694747144 46679176 773794490</internalNodes>
          <leafValues>
            -5.6970494985580444e-01 2.3334555327892303e-01</leafValues></_>
        <_>
          <internalNodes>
            0 -1 58 -183983878 458924570 1157315299 200946911 374448271
            -137250970 80659419 -76602841</internalNodes>
          <leafValues>
            -3.2158446311950684e-01 4.2619627714157104e-01</leafValues></_>
        <_>
          <internalNodes>
            0 -1 190 -872256487 -954820591 997350201 2012829175
            -1825395781 -138953696 256999677 -135833470</internalNodes>
          <leafValues>
            -3.1871458888053894e-01 4.5921593904495239e-01</leafValues></_></weakClassifiers></_>
    <!-- stage 12 -->
    <_>
      <maxWeakCount>14</maxWeakCount>
      <stageThreshold>-7.4690979719161987e-01</stageThreshold>
      <weakClassifiers>
        <_>
          <internalNodes>
            0 -1 236 -520093552 -543221512 1606246393 1568738705
            -21864995 -2654213 -1375732497 1562185813</internalNodes>
          <leafValues>
            -3.0802601575851440e-01 4.8418632149696350e-01</leafValues></_>
        <_>
          <internalNodes>
            0 -1 245 685242367 9457211 754083717 165006495 -1090519809
            243084222 -272634999 -1969501025</internalNodes>
          <leafValues>
            -3.4715971350669861e-01 3.5629376769065857e-01</leafValues></_>
        <_>
          <internalNodes>
            0 -1 23 2097410899 876709863 1380123922 1568999378
            1981886961 -1970976055 790825867 -808452161</internalNodes>
          <leafValues>
            -3.4983098506927490e-01 3.3783772587776184e-01</leafValues></_>
        <_>
          <internalNodes>
            0 -1 99 -772603652 -1557048104 419474446 -238157686
            -1159490338 -1355556622 140828554 1069538650</internalNodes>
          <leafValues>
            -4.2826130986213684e-01 2.8596639633178711e-01</leafValues></_>
        <_>
          <internalNodes>
            0 -1 213 -1724726646 433131630 1501583720 1569017928
            -1834828926 -788045632 1757467870 1224839194</internalNodes>
          <leafValues>
            -4.3626484274864197e-01 2.7166044712066650e-01</leafValues></_>
        <_>
          <internalNodes>
            0 -1 226 -788665108 3179056 -1583013426 881144043 450312878
            -1474363219 735152815 151617291</internalNodes>
          <leafValues>
            -5.3133219480514526e-01 2.0305117964744568e-01</leafValues></_>
        <_>
          <internalNodes>
            0 -1 52 -1037246230 -1477838122 1644625648 145058681 2366090
            284202547 295754802 -300682310</internalNodes>
          <leafValues>
            -2.8464835882186890e-01 4.2820847034454346e-01</leafValues></_>
        <_>
          <internalNodes>
            0 -1 151 1832927920 1392918674 269538896 1360744522 87210666
            428482720 592102073 185275577</internalNodes>
          <leafValues>
            -4.7728443145751953e-01 2.6271253824234009e-01</leafValues></_>
        <_>
          <internalNodes>
            0 -1 103 120131998 -584068702 77204503 -477775667 -61729714
            -1434808153 513309307 -1888570801</internalNodes>
          <leafValues>
            -4.8373407125473022e-01 2.5107130408287048e-01</leafValues></_>
        <_>
          <internalNodes>
            0 -1 203 -547494757 -788041746 -786916207 -714799153
            -1460077426 -1443663874 -1983258855 -605835781</internalNodes>
          <leafValues>
            -1.7934393882751465e-01 6.5362113714218140e-01</leafValues></_>
        <_>
          <internalNodes>
            0 -1 76 -492966253 -147208192 1858972499 1426267533
            -999357685 -838382505 -1958230033 -343175169</internalNodes>
          <leafValues>
            -2.1531373262405396e-01 5.9352314472198486e-01</leafValues></_>
        <_>
          <internalNodes>
            0 -1 239 -515520857 542773318 1342750723 46494471 -402226685
            42156545 681697889 508797063</internalNodes>
          <leafValues>
            -4.3394774198532104e-01 2.9727840423583984e-01</leafValues></_>
        <_>
          <internalNodes>
            0 -1 73 -790642434 -240482620 1560195745 -782098294
            -1802464978 -963046287 -1633307509 -56894785</internalNodes>
          <leafValues>
            -2.3203708231449127e-01 5.7941716909408569e-01</leafValues></_>
        <_>
          <internalNodes>
            0 -1 147 1372189938 -821099392 -670493581 738950273
            161270002 -1340991470 2013268437 -1087596927</internalNodes>
          <leafValues>
            -3.7506818771362305e-01 3.6080518364906311e-01</leafValues></_></weakClassifiers></_>
    <!-- stage 13 -->
    <_>
      <maxWeakCount>16</maxWeakCount>
      <stageThreshold>-1.0429514646530151e+00</stageThreshold>
      <weakClassifiers>
        <_>
          <internalNodes>
            0 -1 174 824706120 -72788448 -2130623312 -556173359
            596562738 1361518648 458645859 490568823</internalNodes>
          <leafValues>
            -6.0483872890472412e-01 4.3545082211494446e-01</leafValues></_>
        <_>
          <internalNodes>
            0 -1 42 1965650939 -203812089 1560476152 -75824242
            1646540537 273170596 520247881 2141026219</internalNodes>
          <leafValues>
            -4.3949526548385620e-01 2.9548463225364685e-01</leafValues></_>
        <_>
          <internalNodes>
            0 -1 79 -130943921 821109344 956181757 250944247 -662718741
            842201336 825548671 -1145574657</internalNodes>
          <leafValues>
            -3.1358674168586731e-01 3.6702322959899902e-01</leafValues></_>
        <_>
          <internalNodes>
            0 -1 98 -556563950 -1757330944 425259276 -684478191
            -939318782 -351886809 34488566 -1621896773</internalNodes>
          <leafValues>
            -3.3611571788787842e-01 3.3846080303192139e-01</leafValues></_>
        <_>
          <internalNodes>
            0 -1 35 1394806786 1116026066 4194688 1534419232 34603072
            69206020 1107296448 1527047095</internalNodes>
          <leafValues>
            -4.7922211885452271e-01 2.3740172386169434e-01</leafValues></_>
        <_>
          <internalNodes>
            0 -1 167 -132983608 -551467556 1268403935 2001277989
            -2011971430 -1087266826 -820455234 -350561289</internalNodes>
          <leafValues>
            -2.8427305817604065e-01 4.8273906111717224e-01</leafValues></_>
        <_>
          <internalNodes>
            0 -1 88 -1660348024 126063400 -1710251480 1198740513
            -1726054336 -90975893 -803172422 -254004988</internalNodes>
          <leafValues>
            -5.2480053901672363e-01 2.3546671867370605e-01</leafValues></_>
        <_>
          <internalNodes>
            0 -1 206 1498416176 1384399452 -263044800 1929851032
            299895018 -996114407 545415675 195234703</internalNodes>
          <leafValues>
            -4.5754760503768921e-01 2.7447971701622009e-01</leafValues></_>
        <_>
          <internalNodes>
            0 -1 38 1950454002 -1560028710 1094500542 810744654
            1363177748 2015036481 329812728 -78556350</internalNodes>
          <leafValues>
            -4.5155763626098633e-01 2.8672233223915100e-01</leafValues></_>
        <_>
          <internalNodes>
            0 -1 54 -890731846 1547833020 10927858 1125757183
            -2010606822 102962243 -1265391694 -630456869</internalNodes>
          <leafValues>
            -2.6338335871696472e-01 4.6360731124877930e-01</leafValues></_>
        <_>
          <internalNodes>
            0 -1 61 -129244950 -641333054 368786467 -733671781
            -240483190 -234328272 -900607794 -876965746</internalNodes>
          <leafValues>
            -2.1813020110130310e-01 5.6247937679290771e-01</leafValues></_>
        <_>
          <internalNodes>
            0 -1 57 378863840 -1182682544 16910735 -1899085277 277915110
            782658976 -1947653185 422589381</internalNodes>
          <leafValues>
            -5.8578288555145264e-01 2.4019218981266022e-01</leafValues></_>
        <_>
          <internalNodes>
            0 -1 256 -46148622 -531640823 -999876361 1926755843
            -259120768 1141916189 -562567269 -212093477</internalNodes>
          <leafValues>
            -2.6321524381637573e-01 5.1950562000274658e-01</leafValues></_>
        <_>
          <internalNodes>
            0 -1 150 -1650457660 1292198077 2022192527 264505499
            730880312 1493698716 253395129 1001071167</internalNodes>
          <leafValues>
            -5.1073598861694336e-01 2.6232254505157471e-01</leafValues></_>
        <_>
          <internalNodes>
            0 -1 169 -711076648 -71743296 503805151 -584046535
            -2071424870 -750980944 306234827 -1149527618</internalNodes>
          <leafValues>
            -2.7640250325202942e-01 5.1187443733215332e-01</leafValues></_>
        <_>
          <internalNodes>
            0 -1 201 453836936 -185646395 -783792933 1354976732
            -1199441265 -467097598 297808687 1367351336</internalNodes>
          <leafValues>
            -6.1332285404205322e-01 2.1942780911922455e-01</leafValues></_></weakClassifiers></_>
    <!-- stage 14 -->
    <_>
      <maxWeakCount>16</maxWeakCount>
      <stageThreshold>-8.9620447158813477e-01</stageThreshold>
      <weakClassifiers>
        <_>
          <internalNodes>
            0 -1 11 1363637537 -167812064 -167805444 1191646976
            353436929 1471485284 386088783 1585396495</internalNodes>
          <leafValues>
            -3.1349205970764160e-01 5.0589621067047119e-01</leafValues></_>
        <_>
          <internalNodes>
            0 -1 220 -796806661 -598468195 -591421615 -572713707
            -1461930529 -1791156900 -1811145505 -813609</internalNodes>
          <leafValues>
            -2.0015184581279755e-01 5.2482444047927856e-01</leafValues></_>
        <_>
          <internalNodes>
            0 -1 81 -1859120944 -826595258 53680335 -376633331 263203733
            -343122869 100669455 -16513653</internalNodes>
          <leafValues>
            -5.9895694255828857e-01 1.9579038023948669e-01</leafValues></_>
        <_>
          <internalNodes>
            0 -1 191 46918599 22674837 -775815039 394525731 856728555
            816988769 -498470777 643166989</internalNodes>
          <leafValues>
            -4.7216674685478210e-01 2.3543281853199005e-01</leafValues></_>
        <_>
          <internalNodes>
            0 -1 181 -123682672 -2133688240 17370200 488243224
            -1388645734 -1711079222 319838415 465438619</internalNodes>
          <leafValues>
            -4.1816633939743042e-01 2.7145105600357056e-01</leafValues></_>
        <_>
          <internalNodes>
            0 -1 56 -657536806 -770690686 806288120 -33248764 -287272966
            -119117089 -1157394245 -500746725</internalNodes>
          <leafValues>
            -3.3530539274215698e-01 3.7978315353393555e-01</leafValues></_>
        <_>
          <internalNodes>
            0 -1 138 -1717567464 -838864320 -985232579 595710228
            -1735630262 -296949589 -1357219941 -360045427</internalNodes>
          <leafValues>
            -5.9260529279708862e-01 2.0835806429386139e-01</leafValues></_>
        <_>
          <internalNodes>
            0 -1 231 -243218278 -780989948 67113690 1342243659
            -746028926 17973378 -1817081686 453716111</internalNodes>
          <leafValues>
            -3.8023927807807922e-01 3.1742575764656067e-01</leafValues></_>
        <_>
          <internalNodes>
            0 -1 255 -211839273 1344365570 254445798 1380730911
            -840834912 11883783 302225243 -679484445</internalNodes>
          <leafValues>
            -2.2496783733367920e-01 5.3288936614990234e-01</leafValues></_>
        <_>
          <internalNodes>
            0 -1 37 -220018442 -1286199689 -1024304840 -53145980
            -1575988398 387349522 -1572040498 -215512497</internalNodes>
          <leafValues>
            -3.0309599637985229e-01 3.9132320880889893e-01</leafValues></_>
        <_>
          <internalNodes>
            0 -1 91 -925706102 -178519410 318035706 1693243572
            -439182077 1454527612 -864002658 -910977825</internalNodes>
          <leafValues>
            -2.5769433379173279e-01 4.6342173218727112e-01</leafValues></_>
        <_>
          <internalNodes>
            0 -1 132 -1279392260 -113832941 1089812373 -96254628
            -1156475985 -1441005960 -1979677263 2004730018</internalNodes>
          <leafValues>
            -3.8008141517639160e-01 3.2609626650810242e-01</leafValues></_>
        <_>
          <internalNodes>
            0 -1 10 -193923123 331370004 268438040 1971334534
            -1054554939 1225261601 620883727 23937821</internalNodes>
          <leafValues>
            -5.1899302005767822e-01 2.5524783134460449e-01</leafValues></_>
        <_>
          <internalNodes>
            0 -1 101 -794699632 -720584552 544354933 -718775986 11081779
            -1119597555 -2047149573 -585122305</internalNodes>
          <leafValues>
            -2.7761405706405640e-01 4.6921679377555847e-01</leafValues></_>
        <_>
          <internalNodes>
            0 -1 159 -1482056488 -1424286341 268715389 1996585032
            -1618745627 959278106 -1816599642 2012217150</internalNodes>
          <leafValues>
            -4.8969304561614990e-01 2.6445508003234863e-01</leafValues></_>
        <_>
          <internalNodes>
            0 -1 237 2110119160 1575947225 -603087395 1504560077
            -1820796224 -1463446172 -60948865 -812404849</internalNodes>
          <leafValues>
            -2.6284188032150269e-01 5.1660311222076416e-01</leafValues></_></weakClassifiers></_>
    <!-- stage 15 -->
    <_>
      <maxWeakCount>16</maxWeakCount>
      <stageThreshold>-8.3396959304809570e-01</stageThreshold>
      <weakClassifiers>
        <_>
          <internalNodes>
            0 -1 0 -806896144 -1557279456 -149176449 -1382052957
            1869819712 1581670209 2132194897 469971505</internalNodes>
          <leafValues>
            -3.0151844024658203e-01 4.8246118426322937e-01</leafValues></_>
        <_>
          <internalNodes>
            0 -1 39 1527629789 1806401988 -553557925 2139812035
            -1025390374 -1020747622 1050771551 1507754651</internalNodes>
          <leafValues>
            -3.5786539316177368e-01 2.9696682095527649e-01</leafValues></_>
        <_>
          <internalNodes>
            0 -1 120 -347291011 -898846215 -1020312771 -764515749
            -2020624397 -2134698048 1274421147 -561988557</internalNodes>
          <leafValues>
            -2.3611731827259064e-01 4.7629609704017639e-01</leafValues></_>
        <_>
          <internalNodes>
            0 -1 218 -40865640 -664743856 141850101 286331216
            -1920414998 -1136661332 -1677158258 -1098116664</internalNodes>
          <leafValues>
            -2.7598318457603455e-01 3.9871063828468323e-01</leafValues></_>
        <_>
          <internalNodes>
            0 -1 63 2131301864 -1123054120 1477479745 419958125
            556451946 735064655 976832379 -1686120721</internalNodes>
          <leafValues>
            -4.3774959444999695e-01 2.6047891378402710e-01</leafValues></_>
        <_>
          <internalNodes>
            0 -1 15 1965372799 -132443920 429228103 -184110719 976294100
            -394108928 1586436774 -9473267</internalNodes>
          <leafValues>
            -3.6215946078300476e-01 3.2447201013565063e-01</leafValues></_>
        <_>
          <internalNodes>
            0 -1 216 -1069510456 -1601990638 319915082 1360725201
            -402476354 -1330116608 763493118 1527487690</internalNodes>
          <leafValues>
            -4.1664594411849976e-01 2.8926140069961548e-01</leafValues></_>
        <_>
          <internalNodes>
            0 -1 252 -208156668 -1712189950 -1712268528 -113268147
            -1809715184 605437970 1459716140 -212863393</internalNodes>
          <leafValues>
            -2.5730434060096741e-01 4.6545502543449402e-01</leafValues></_>
        <_>
          <internalNodes>
            0 -1 177 -2012592030 -506712022 1092145235 1837254867
            -2146772921 -534046098 1677257227 -164947429</internalNodes>
          <leafValues>
            -4.5411896705627441e-01 2.6885545253753662e-01</leafValues></_>
        <_>
          <internalNodes>
            0 -1 13 284983279 558699275 117441609 17929420 1351004367
            34340867 1160902091 813119461</internalNodes>
          <leafValues>
            -5.9944450855255127e-01 1.9911849498748779e-01</leafValues></_>
        <_>
          <internalNodes>
            0 -1 203 -34235201 -784097837 -1023359801 -781478506
            -1124403812 1739816958 -2010907239 -538722373</internalNodes>
          <leafValues>
            -2.2095237672328949e-01 6.2578111886978149e-01</leafValues></_>
        <_>
          <internalNodes>
            0 -1 193 -932707400 1090797655 -1400820489 1494429405
            -1240414799 -2113888128 -1950827596 488347931</internalNodes>
          <leafValues>
            -4.1482636332511902e-01 3.2889032363891602e-01</leafValues></_>
        <_>
          <internalNodes>
            0 -1 214 -1288579960 -846772864 318813097 352911387
            -1777034596 -50292325 -1097575537 211058037</internalNodes>
          <leafValues>
            -5.0745487213134766e-01 2.5617307424545288e-01</leafValues></_>
        <_>
          <internalNodes>
            0 -1 257 -783576834 1082728519 1349457426 1594998851
            -1630222855 38079264 1154502623 -212893541</internalNodes>
          <leafValues>
            -2.6093378663063049e-01 4.9505558609962463e-01</leafValues></_>
        <_>
          <internalNodes>
            0 -1 187 1258932355 -879733391 -1212178949 -214220423
            -2079403617 -919568132 1470353657 -182301961</internalNodes>
          <leafValues>
            -2.8293871879577637e-01 4.6792605519294739e-01</leafValues></_>
        <_>
          <internalNodes>
            0 -1 125 -935849836 237962352 58822664 525010945 -1341127944
            -1702096759 137142447 533332715</internalNodes>
          <leafValues>
            -4.4422662258148193e-01 3.0127590894699097e-01</leafValues></_></weakClassifiers></_>
    <!-- stage 16 -->
    <_>
      <maxWeakCount>16</maxWeakCount>
      <stageThreshold>-8.8495570421218872e-01</stageThreshold>
      <weakClassifiers>
        <_>
          <internalNodes>
            0 -1 144 -1919940472 -1113509024 804941533 804257149
            -1347805322 -1540616 -1465354177 -334987272</internalNodes>
          <leafValues>
            -3.7726098299026489e-01 4.6662989258766174e-01</leafValues></_>
        <_>
          <internalNodes>
            0 -1 45 1867004379 1667011047 1107423692 -586874267
            1983914489 147587225 403239566 1514820388</internalNodes>
          <leafValues>
            -4.9725672602653503e-01 2.3690390586853027e-01</leafValues></_>
        <_>
          <internalNodes>
            0 -1 205 1536807423 2049312256 394158301 1555553513
            -1876782406 -1430006532 445096395 -14968689</internalNodes>
          <leafValues>
            -1.8725471198558807e-01 5.8087486028671265e-01</leafValues></_>
        <_>
          <internalNodes>
            0 -1 110 -665608723 -776841102 -285473059 -183570
            -1447559457 -1431295750 821399167 -67401009</internalNodes>
          <leafValues>
            -2.3434951901435852e-01 4.9500477313995361e-01</leafValues></_>
        <_>
          <internalNodes>
            0 -1 40 -563348737 -792639328 1377453056 -1050594309
            -486091246 -1001371796 -209612902 -744493665</internalNodes>
          <leafValues>
            -1.9160121679306030e-01 6.1037850379943848e-01</leafValues></_>
        <_>
          <internalNodes>
            0 -1 116 353372528 364037378 335758313 495201306 2107251691
            -503625724 438982983 -1275379957</internalNodes>
          <leafValues>
            -6.3415914773941040e-01 1.7477165162563324e-01</leafValues></_>
        <_>
          <internalNodes>
            0 -1 229 -937312525 144761881 1361199955 2032915027
            -1317560085 -1093328476 197911307 557495211</internalNodes>
          <leafValues>
            -3.9420166611671448e-01 3.1143167614936829e-01</leafValues></_>
        <_>
          <internalNodes>
            0 -1 111 1242547930 -215530981 -12690699 1999788860
            -2085142350 -106296986 827355636 -13475974</internalNodes>
          <leafValues>
            -3.2195889949798584e-01 3.6401319503784180e-01</leafValues></_>
        <_>
          <internalNodes>
            0 -1 4 -1850870451 -519051450 -1064558334 1418040705
            -926840489 1098997899 1944167334 833697335</internalNodes>
          <leafValues>
            -5.1174068450927734e-01 2.2595764696598053e-01</leafValues></_>
        <_>
          <internalNodes>
            0 -1 194 -1064240978 -977137410 -803603207 -1220603638
            -795184969 -1048509814 -811896766 -1651651629</internalNodes>
          <leafValues>
            -3.5109260678291321e-01 3.6512020230293274e-01</leafValues></_>
        <_>
          <internalNodes>
            0 -1 86 -1652209208 -969676311 -1894839477 1392973063
            604256270 -159004229 969018575 -446282972</internalNodes>
          <leafValues>
            -4.3848326802253723e-01 2.8670430183410645e-01</leafValues></_>
        <_>
          <internalNodes>
            0 -1 225 -267791598 -793206064 1102544327 -77074185
            1286246026 -1699210555 1203263680 -70118959</internalNodes>
          <leafValues>
            -2.6004207134246826e-01 4.7675594687461853e-01</leafValues></_>
        <_>
          <internalNodes>
            0 -1 240 -855851868 10944514 1078724743 80104143 178293196
            404427650 -1132259193 606085647</internalNodes>
          <leafValues>
            -5.5841588973999023e-01 2.5320866703987122e-01</leafValues></_>
        <_>
          <internalNodes>
            0 -1 129 -192878424 1492189186 1107448024 1493703174
            411567454 -662515680 302177002 1225283870</internalNodes>
          <leafValues>
            -4.4905117154121399e-01 2.7909713983535767e-01</leafValues></_>
        <_>
          <internalNodes>
            0 -1 109 2014298254 1346375745 -1618709250 2135260851
            -1794711396 -1125628520 437818623 -604555906</internalNodes>
          <leafValues>
            -3.0357438325881958e-01 4.2677167057991028e-01</leafValues></_>
        <_>
          <internalNodes>
            0 -1 146 -551855126 1075023953 587830707 1570714049
            -1232927229 806306049 2015380191 463635400</internalNodes>
          <leafValues>
            -4.1822189092636108e-01 3.3054271340370178e-01</leafValues></_></weakClassifiers></_>
    <!-- stage 17 -->
    <_>
      <maxWeakCount>16</maxWeakCount>
      <stageThreshold>-1.0792887210845947e+00</stageThreshold>
      <weakClassifiers>
        <_>
          <internalNodes>
            0 -1 176 85986440 1201255392 1192584560 1677565313
            -1414236506 -1451159442 2072523652 1002964356</internalNodes>
          <leafValues>
            -5.8490568399429321e-01 4.2798879742622375e-01</leafValues></_>
        <_>
          <internalNodes>
            0 -1 27 -503610409 506671031 -1157893505 719203059 100663808
            374419483 1125431232 2065166239</internalNodes>
          <leafValues>
            -3.2475322484970093e-01 3.5684561729431152e-01</leafValues></_>
        <_>
          <internalNodes>
            0 -1 127 -1735675557 297830608 1077082252 420653899
            -1711011551 453021700 446142603 941209825</internalNodes>
          <leafValues>
            -4.8475772142410278e-01 2.4273593723773956e-01</leafValues></_>
        <_>
          <internalNodes>
            0 -1 223 807406824 1744849032 1233977410 2066427529
            576327386 -1605696726 140903563 1026490670</internalNodes>
          <leafValues>
            -6.0410344600677490e-01 1.6324657201766968e-01</leafValues></_>
        <_>
          <internalNodes>
            0 -1 247 -787144042 344460290 -1973861547 3917631
            -1255718776 1946681347 2097324098 1488911295</internalNodes>
          <leafValues>
            -3.8578581809997559e-01 2.7685788273811340e-01</leafValues></_>
        <_>
          <internalNodes>
            0 -1 62 -792989202 -1027417485 -2124367423 -680979846
            -761555958 -1220915699 -625824126 -173293633</internalNodes>
          <leafValues>
            -2.1167960762977600e-01 5.2386748790740967e-01</leafValues></_>
        <_>
          <internalNodes>
            0 -1 171 734230728 1326937667 16807383 1518614510
            -1040493676 252332050 -2062653828 -1883557970</internalNodes>
          <leafValues>
            -4.3967330455780029e-01 2.4026674032211304e-01</leafValues></_>
        <_>
          <internalNodes>
            0 -1 200 -1048379184 -246345245 1163967961 -665423750
            -1189017448 -1556837248 142645721 1560957190</internalNodes>
          <leafValues>
            -4.3088293075561523e-01 2.7232614159584045e-01</leafValues></_>
        <_>
          <internalNodes>
            0 -1 181 -1767319408 1144557776 -1052621480 1056964952
            -1168461582 109121776 -1879000665 144315637</internalNodes>
          <leafValues>
            -4.8085987567901611e-01 2.4046392738819122e-01</leafValues></_>
        <_>
          <internalNodes>
            0 -1 22 1038317055 -1792107140 1337196542 -182415583
            566055128 -1079048814 789298863 -135631117</internalNodes>
          <leafValues>
            -3.2097080349922180e-01 3.7013918161392212e-01</leafValues></_>
        <_>
          <internalNodes>
            0 -1 143 -142503713 -2026935158 -37864287 1195227007
            -308441970 -271594017 340170131 -23677157</internalNodes>
          <leafValues>
            -2.6368063688278198e-01 4.6367895603179932e-01</leafValues></_>
        <_>
          <internalNodes>
            0 -1 32 696285412 1646686945 -334916722 2106147670
            1489633908 382763681 1075910326 1293640275</internalNodes>
          <leafValues>
            -5.9658944606781006e-01 2.1072506904602051e-01</leafValues></_>
        <_>
          <internalNodes>
            0 -1 244 1487138011 211587200 1627407637 341300498
            -519569337 -1098804715 1509110535 1035657618</internalNodes>
          <leafValues>
            -4.0330818295478821e-01 3.1007719039916992e-01</leafValues></_>
        <_>
          <internalNodes>
            0 -1 250 -548275902 -571155156 -48185280 -113179579
            -843042808 -837903040 -1400096680 -82066873</internalNodes>
          <leafValues>
            -2.7220615744590759e-01 5.2443021535873413e-01</leafValues></_>
        <_>
          <internalNodes>
            0 -1 71 -50608946 -1027057936 -83952590 1140853164
            -1581214540 -1000087722 -2049970186 -487610885</internalNodes>
          <leafValues>
            -2.3804277181625366e-01 5.0968962907791138e-01</leafValues></_>
        <_>
          <internalNodes>
            0 -1 100 1470727518 -1349680862 1716175938 290751948
            -2010152474 297776846 861102454 899483519</internalNodes>
          <leafValues>
            -4.4949463009834290e-01 2.8279575705528259e-01</leafValues></_></weakClassifiers></_>
    <!-- stage 18 -->
    <_>
      <maxWeakCount>16</maxWeakCount>
      <stageThreshold>-8.2264447212219238e-01</stageThreshold>
      <weakClassifiers>
        <_>
          <internalNodes>
            0 -1 238 -596521766 1144558750 1052720367 283954398
            2017443107 -1397833797 482254271 146672159</internalNodes>
          <leafValues>
            -2.8076922893524170e-01 5.0357145071029663e-01</leafValues></_>
        <_>
          <internalNodes>
            0 -1 48 2132621755 -682290265 806429146 -359120754
            1997144433 -2004350841 1006903842 2064652034</internalNodes>
          <leafValues>
            -3.9073875546455383e-01 3.1366500258445740e-01</leafValues></_>
        <_>
          <internalNodes>
            0 -1 80 638194910 -848635652 336658865 389075008 -1425387781
            -2010446773 857395189 1584355379</internalNodes>
          <leafValues>
            -4.8716622591018677e-01 2.3050281405448914e-01</leafValues></_>
        <_>
          <internalNodes>
            0 -1 153 1366762672 287521825 -122929411 2100840383
            -1088410208 -1920782844 279852975 -1151668045</internalNodes>
          <leafValues>
            -2.7292168140411377e-01 4.1226214170455933e-01</leafValues></_>
        <_>
          <internalNodes>
            0 -1 251 -163589530 1344418838 336830626 1448305179
            1916519962 6327574 640075439 -69730813</internalNodes>
          <leafValues>
            -2.5403955578804016e-01 4.4795322418212891e-01</leafValues></_>
        <_>
          <internalNodes>
            0 -1 14 -404239129 -483672597 -1989730653 -92321697
            -881413822 135079008 1414190786 -87325105</internalNodes>
          <leafValues>
            -1.9989590346813202e-01 5.9491014480590820e-01</leafValues></_>
        <_>
          <internalNodes>
            0 -1 66 -1625220656 1191399904 -1618080219 -975191808
            -53958638 873001871 -467661972 1193862923</internalNodes>
          <leafValues>
            -5.1617777347564697e-01 2.2003650665283203e-01</leafValues></_>
        <_>
          <internalNodes>
            0 -1 94 -614406434 -794295574 1760620976 1119375880
            -1365606278 -719551184 -2024618293 -257287013</internalNodes>
          <leafValues>
            -2.6597413420677185e-01 4.3604826927185059e-01</leafValues></_>
        <_>
          <internalNodes>
            0 -1 17 321210231 -1010282155 1485541400 -2095775744
            1094933040 42336388 1544645495 1501514409</internalNodes>
          <leafValues>
            -4.8663097620010376e-01 2.3504590988159180e-01</leafValues></_>
        <_>
          <internalNodes>
            0 -1 232 -1560250278 -770473392 1358979545 -988542507
            -1324707128 -1979023300 -1979608385 152195219</internalNodes>
          <leafValues>
            -4.4320669770240784e-01 2.7144515514373779e-01</leafValues></_>
        <_>
          <internalNodes>
            0 -1 112 -665749254 1475416753 1942305527 1555651322
            -1845769474 -543814 1708237474 -61562889</internalNodes>
          <leafValues>
            -3.3499157428741455e-01 3.6497202515602112e-01</leafValues></_>
        <_>
          <internalNodes>
            0 -1 170 -768552258 -375446436 601279447 1500057816
            866043084 -5238544 100719358 -131563272</internalNodes>
          <leafValues>
            -2.8420299291610718e-01 4.6120622754096985e-01</leafValues></_>
        <_>
          <internalNodes>
            0 -1 87 245024998 995332740 1040360451 1984962585 445760773
            956342417 987857112 699698480</internalNodes>
          <leafValues>
            -5.7839608192443848e-01 2.5008922815322876e-01</leafValues></_>
        <_>
          <internalNodes>
            0 -1 53 -371651682 -1386868518 1415193748 566694299
            -1576990326 -1484783198 -1457022848 -28464181</internalNodes>
          <leafValues>
            -3.5178801417350769e-01 3.6982956528663635e-01</leafValues></_>
        <_>
          <internalNodes>
            0 -1 124 1524498431 -360510750 -93797805 1459738435 7902699
            -563401 1824849879 -1086358305</internalNodes>
          <leafValues>
            -2.1744193136692047e-01 6.1000818014144897e-01</leafValues></_>
        <_>
          <internalNodes>
            0 -1 141 -1740909368 -2004348840 -2013254261 -239533565
            1040226063 -1842673766 1330294402 1931580167</internalNodes>
          <leafValues>
            -4.9207869172096252e-01 2.8656569123268127e-01</leafValues></_></weakClassifiers></_>
    <!-- stage 19 -->
    <_>
      <maxWeakCount>17</maxWeakCount>
      <stageThreshold>-1.0127393007278442e+00</stageThreshold>
      <weakClassifiers>
        <_>
          <internalNodes>
            0 -1 16 -819747375 -706613390 -13489153 930102770 589365776
            1970741238 321041339 1965276019</internalNodes>
          <leafValues>
            -2.0585702359676361e-01 5.0602036714553833e-01</leafValues></_>
        <_>
          <internalNodes>
            0 -1 41 1731670863 287470547 21042403 1620226610 23140096
            1749090312 1495345835 2102011311</internalNodes>
          <leafValues>
            -3.6815348267555237e-01 3.2730251550674438e-01</leafValues></_>
        <_>
          <internalNodes>
            0 -1 131 1220227577 -2028192178 527703543 -579904315
            -1158955209 2109673271 -1172196431 -369122313</internalNodes>
          <leafValues>
            -2.3302952945232391e-01 4.8592388629913330e-01</leafValues></_>
        <_>
          <internalNodes>
            0 -1 70 -918961848 -922498656 -1929050811 -1880121501
            -1378903950 -556192711 -377221365 -408645682</internalNodes>
          <leafValues>
            -3.7764966487884521e-01 2.9590621590614319e-01</leafValues></_>
        <_>
          <internalNodes>
            0 -1 149 187215944 -1952046848 -1071752610 1594823121
            -1744796998 -1420879232 587357951 186644639</internalNodes>
          <leafValues>
            -4.1163843870162964e-01 3.0294603109359741e-01</leafValues></_>
        <_>
          <internalNodes>
            0 -1 202 -1408757358 -870362424 -918465443 1456168131
            -1802717046 -1073167230 235492602 -1056694263</internalNodes>
          <leafValues>
            -3.7613075971603394e-01 3.4256273508071899e-01</leafValues></_>
        <_>
          <internalNodes>
            0 -1 75 -701922757 -1280436878 925660529 591729528
            -1573319525 -564449772 -1590953573 -1082130840</internalNodes>
          <leafValues>
            -2.7944001555442810e-01 4.6071764826774597e-01</leafValues></_>
        <_>
          <internalNodes>
            0 -1 55 -947470138 1300922846 -2146431794 -2005778409
            -1607352201 -517945277 -140458061 1427216803</internalNodes>
          <leafValues>
            -3.6970868706703186e-01 3.3864974975585938e-01</leafValues></_>
        <_>
          <internalNodes>
            0 -1 248 -762856297 151686304 -1897165574 -798521305
            1296509046 124694335 297333311 -573070601</internalNodes>
          <leafValues>
            -3.0900236964225769e-01 4.2109775543212891e-01</leafValues></_>
        <_>
          <internalNodes>
            0 -1 241 -1013071358 1627525704 2175325 289563216 50463233
            1128869891 1640038776 1596611371</internalNodes>
          <leafValues>
            -4.0957158803939819e-01 3.1314036250114441e-01</leafValues></_>
        <_>
          <internalNodes>
            0 -1 199 -33234736 -624115536 582898997 1590451701
            -1741051654 -541036851 67668186 -1314914120</internalNodes>
          <leafValues>
            -3.2472816109657288e-01 3.9541536569595337e-01</leafValues></_>
        <_>
          <internalNodes>
            0 -1 180 -1793994732 -964491132 -1832893744 -1633720143
            -1086270754 -838205335 162529623 2051902415</internalNodes>
          <leafValues>
            -4.0272104740142822e-01 3.2693380117416382e-01</leafValues></_>
        <_>
          <internalNodes>
            0 -1 25 -240003587 1538317553 886127611 536474615 1349997689
            866859194 964072829 -1145351779</internalNodes>
          <leafValues>
            -3.1407853960990906e-01 4.1208708286285400e-01</leafValues></_>
        <_>
          <internalNodes>
            0 -1 104 -612329528 1153766042 34940339 155422985 719718582
            -2124349312 102418729 1729896975</internalNodes>
          <leafValues>
            -5.5516505241394043e-01 2.4178729951381683e-01</leafValues></_>
        <_>
          <internalNodes>
            0 -1 158 674006 1494262261 146899219 1561858064 1947730002
            -1333132978 1226024972 1597225336</internalNodes>
          <leafValues>
            -4.7306925058364868e-01 2.6653438806533813e-01</leafValues></_>
        <_>
          <internalNodes>
            0 -1 74 -546383158 -558887375 1920209935 299372821
            1020045350 -699482534 -2134725422 -659903234</internalNodes>
          <leafValues>
            -2.6629698276519775e-01 4.9743816256523132e-01</leafValues></_>
        <_>
          <internalNodes>
            0 -1 233 428988891 136497936 -2050981463 1406918661
            -1878880085 705863699 620790274 -354496033</internalNodes>
          <leafValues>
            -3.7582489848136902e-01 3.7078297138214111e-01</leafValues></_></weakClassifiers></_></stages>
  <features>
    <_>
      <rect>
        0 0 3 7</rect></_>
    <_>
      <rect>
        0 0 4 8</rect></_>
    <_>
      <rect>
        0 0 5 5</rect></_>
    <_>
      <rect>
        0 0 7 4</rect></_>
    <_>
      <rect>
        0 0 7 8</rect></_>
    <_>
      <rect>
        0 0 8 6</rect></_>
    <_>
      <rect>
        0 0 8 8</rect></_>
    <_>
      <rect>
        0 1 4 6</rect></_>
    <_>
      <rect>
        0 1 8 5</rect></_>
    <_>
      <rect>
        0 2 5 6</rect></_>
    <_>
      <rect>
        0 2 8 7</rect></_>
    <_>
      <rect>
        0 3 4 7</rect></_>
    <_>
      <rect>
        0 3 7 6</rect></_>
    <_>
      <rect>
        0 3 8 7</rect></_>
    <_>
      <rect>
        0 4 1 1</rect></_>
    <_>
      <rect>
        0 4 5 4</rect></_>
    <_>
      <rect>
        0 4 5 5</rect></_>
    <_>
      <rect>
        0 5 4 6</rect></_>
    <_>
      <rect>
        0 5 7 5</rect></_>
    <_>
      <rect>
        0 5 8 3</rect></_>
    <_>
      <rect>
        0 6 5 3</rect></_>
    <_>
      <rect>
        0 6 5 4</rect></_>
    <_>
      <rect>
        0 6 6 3</rect></_>
    <_>
      <rect>
        0 6 6 4</rect></_>
    <_>
      <rect>
        0 6 6 6</rect></_>
    <_>
      <rect>
        0 6 8 4</rect></_>
    <_>
      <rect>
        0 6 8 6</rect></_>
    <_>
      <rect>
        0 7 2 3</rect></_>
    <_>
      <rect>
        0 7 5 5</rect></_>
    <_>
      <rect>
        0 8 1 2</rect></_>
    <_>
      <rect>
        0 8 1 3</rect></_>
    <_>
      <rect>
        0 8 8 5</rect></_>
    <_>
      <rect>
        0 9 7 4</rect></_>
    <_>
      <rect>
        0 9 7 5</rect></_>
    <_>
      <rect>
        0 10 1 2</rect></_>
    <_>
      <rect>
        0 10 1 3</rect></_>
    <_>
      <rect>
        0 11 1 1</rect></_>
    <_>
      <rect>
        0 11 2 1</rect></_>
    <_>
      <rect>
        0 11 3 3</rect></_>
    <_>
      <rect>
        0 11 8 4</rect></_>
    <_>
      <rect>
        0 12 1 1</rect></_>
    <_>
      <rect>
        0 12 2 4</rect></_>
    <_>
      <rect>
        0 12 6 4</rect></_>
    <_>
      <rect>
        0 12 8 4</rect></_>
    <_>
      <rect>
        0 13 1 1</rect></_>
    <_>
      <rect>
        0 13 7 3</rect></_>
    <_>
      <rect>
        0 13 8 2</rect></_>
    <_>
      <rect>
        0 13 8 3</rect></_>
    <_>
      <rect>
        0 15 3 3</rect></_>
    <_>
      <rect>
        0 15 6 3</rect></_>
    <_>
      <rect>
        0 15 8 3</rect></_>
    <_>
      <rect>
        1 4 6 4</rect></_>
    <_>
      <rect>
        1 7 1 3</rect></_>
    <_>
      <rect>
        1 7 2 3</rect></_>
    <_>
      <rect>
        1 8 1 1</rect></_>
    <_>
      <rect>
        1 9 2 1</rect></_>
    <_>
      <rect>
        1 10 2 1</rect></_>
    <_>
      <rect>
        1 10 5 3</rect></_>
    <_>
      <rect>
        1 11 3 1</rect></_>
    <_>
      <rect>
        1 11 5 2</rect></_>
    <_>
      <rect>
        1 12 2 1</rect></_>
    <_>
      <rect>
        1 13 1 1</rect></_>
    <_>
      <rect>
        1 14 1 1</rect></_>
    <_>
      <rect>
        2 7 6 3</rect></_>
    <_>
      <rect>
        2 8 5 3</rect></_>
    <_>
      <rect>
        2 9 2 1</rect></_>
    <_>
      <rect>
        2 9 6 3</rect></_>
    <_>
      <rect>
        2 9 7 4</rect></_>
    <_>
      <rect>
        2 10 3 1</rect></_>
    <_>
      <rect>
        2 10 5 2</rect></_>
    <_>
      <rect>
        2 10 6 2</rect></_>
    <_>
      <rect>
        2 11 1 1</rect></_>
    <_>
      <rect>
        2 12 5 3</rect></_>
    <_>
      <rect>
        2 13 1 1</rect></_>
    <_>
      <rect>
        2 14 1 1</rect></_>
    <_>
      <rect>
        3 4 3 2</rect></_>
    <_>
      <rect>
        3 5 4 1</rect></_>
    <_>
      <rect>
        3 5 4 3</rect></_>
    <_>
      <rect>
        3 5 5 3</rect></_>
    <_>
      <rect>
        3 5 7 5</rect></_>
    <_>
      <rect>
        3 6 5 3</rect></_>
    <_>
      <rect>
        3 8 4 3</rect></_>
    <_>
      <rect>
        3 8 7 5</rect></_>
    <_>
      <rect>
        3 9 5 2</rect></_>
    <_>
      <rect>
        3 9 5 3</rect></_>
    <_>
      <rect>
        3 9 6 2</rect></_>
    <_>
      <rect>
        3 9 6 3</rect></_>
    <_>
      <rect>
        3 9 7 5</rect></_>
    <_>
      <rect>
        3 10 6 2</rect></_>
    <_>
      <rect>
        3 10 7 4</rect></_>
    <_>
      <rect>
        3 11 4 2</rect></_>
    <_>
      <rect>
        3 12 1 1</rect></_>
    <_>
      <rect>
        3 12 5 4</rect></_>
    <_>
      <rect>
        3 13 7 3</rect></_>
    <_>
      <rect>
        3 14 1 1</rect></_>
    <_>
      <rect>
        3 15 7 3</rect></_>
    <_>
      <rect>
        4 1 6 5</rect></_>
    <_>
      <rect>
        4 5 4 2</rect></_>
    <_>
      <rect>
        4 5 5 2</rect></_>
    <_>
      <rect>
        4 5 6 4</rect></_>
    <_>
      <rect>
        4 7 5 3</rect></_>
    <_>
      <rect>
        4 8 3 1</rect></_>
    <_>
      <rect>
        4 8 4 2</rect></_>
    <_>
      <rect>
        4 9 4 2</rect></_>
    <_>
      <rect>
        4 9 5 2</rect></_>
    <_>
      <rect>
        4 9 5 3</rect></_>
    <_>
      <rect>
        4 9 5 4</rect></_>
    <_>
      <rect>
        4 11 4 1</rect></_>
    <_>
      <rect>
        4 11 4 2</rect></_>
    <_>
      <rect>
        4 12 2 1</rect></_>
    <_>
      <rect>
        5 2 6 6</rect></_>
    <_>
      <rect>
        5 4 4 2</rect></_>
    <_>
      <rect>
        5 4 5 6</rect></_>
    <_>
      <rect>
        5 5 3 1</rect></_>
    <_>
      <rect>
        5 6 5 4</rect></_>
    <_>
      <rect>
        5 7 3 1</rect></_>
    <_>
      <rect>
        5 7 3 3</rect></_>
    <_>
      <rect>
        5 8 4 2</rect></_>
    <_>
      <rect>
        5 9 3 2</rect></_>
    <_>
      <rect>
        5 9 4 3</rect></_>
    <_>
      <rect>
        5 9 5 1</rect></_>
    <_>
      <rect>
        5 9 5 2</rect></_>
    <_>
      <rect>
        5 10 4 2</rect></_>
    <_>
      <rect>
        5 10 5 3</rect></_>
    <_>
      <rect>
        5 11 5 1</rect></_>
    <_>
      <rect>
        5 12 2 1</rect></_>
    <_>
      <rect>
        5 12 4 1</rect></_>
    <_>
      <rect>
        5 12 6 3</rect></_>
    <_>
      <rect>
        5 13 3 1</rect></_>
    <_>
      <rect>
        5 16 2 1</rect></_>
    <_>
      <rect>
        6 1 6 5</rect></_>
    <_>
      <rect>
        6 3 4 4</rect></_>
    <_>
      <rect>
        6 4 4 4</rect></_>
    <_>
      <rect>
        6 5 4 2</rect></_>
    <_>
      <rect>
        6 7 5 3</rect></_>
    <_>
      <rect>
        6 8 3 3</rect></_>
    <_>
      <rect>
        6 8 5 3</rect></_>
    <_>
      <rect>
        6 9 4 2</rect></_>
    <_>
      <rect>
        6 9 4 3</rect></_>
    <_>
      <rect>
        6 9 5 2</rect></_>
    <_>
      <rect>
        6 9 5 4</rect></_>
    <_>
      <rect>
        6 9 6 2</rect></_>
    <_>
      <rect>
        6 9 6 4</rect></_>
    <_>
      <rect>
        6 10 3 1</rect></_>
    <_>
      <rect>
        6 10 3 2</rect></_>
    <_>
      <rect>
        6 11 2 1</rect></_>
    <_>
      <rect>
        6 11 4 2</rect></_>
    <_>
      <rect>
        6 12 4 1</rect></_>
    <_>
      <rect>
        6 12 4 3</rect></_>
    <_>
      <rect>
        6 13 3 1</rect></_>
    <_>
      <rect>
        6 13 4 3</rect></_>
    <_>
      <rect>
        6 14 2 1</rect></_>
    <_>
      <rect>
        6 14 3 1</rect></_>
    <_>
      <rect>
        7 1 4 2</rect></_>
    <_>
      <rect>
        7 1 4 7</rect></_>
    <_>
      <rect>
        7 2 2 2</rect></_>
    <_>
      <rect>
        7 5 3 2</rect></_>
    <_>
      <rect>
        7 6 3 2</rect></_>
    <_>
      <rect>
        7 7 2 1</rect></_>
    <_>
      <rect>
        7 7 4 3</rect></_>
    <_>
      <rect>
        7 8 3 1</rect></_>
    <_>
      <rect>
        7 9 3 2</rect></_>
    <_>
      <rect>
        7 10 3 1</rect></_>
    <_>
      <rect>
        7 10 3 2</rect></_>
    <_>
      <rect>
        7 10 4 2</rect></_>
    <_>
      <rect>
        7 13 3 1</rect></_>
    <_>
      <rect>
        7 15 2 1</rect></_>
    <_>
      <rect>
        7 16 2 1</rect></_>
    <_>
      <rect>
        7 17 2 1</rect></_>
    <_>
      <rect>
        7 17 3 1</rect></_>
    <_>
      <rect>
        7 19 2 1</rect></_>
    <_>
      <rect>
        8 2 3 6</rect></_>
    <_>
      <rect>
        8 8 3 1</rect></_>
    <_>
      <rect>
        8 8 4 2</rect></_>
    <_>
      <rect>
        8 9 3 2</rect></_>
    <_>
      <rect>
        8 10 3 1</rect></_>
    <_>
      <rect>
        8 10 3 2</rect></_>
    <_>
      <rect>
        8 10 4 1</rect></_>
    <_>
      <rect>
        8 11 2 1</rect></_>
    <_>
      <rect>
        8 11 3 2</rect></_>
    <_>
      <rect>
        8 12 3 1</rect></_>
    <_>
      <rect>
        8 15 2 1</rect></_>
    <_>
      <rect>
        8 16 2 1</rect></_>
    <_>
      <rect>
        8 18 2 1</rect></_>
    <_>
      <rect>
        8 18 3 1</rect></_>
    <_>
      <rect>
        9 0 5 7</rect></_>
    <_>
      <rect>
        9 4 5 5</rect></_>
    <_>
      <rect>
        9 5 3 2</rect></_>
    <_>
      <rect>
        9 5 5 5</rect></_>
    <_>
      <rect>
        9 6 2 1</rect></_>
    <_>
      <rect>
        9 6 3 2</rect></_>
    <_>
      <rect>
        9 6 5 6</rect></_>
    <_>
      <rect>
        9 8 3 3</rect></_>
    <_>
      <rect>
        9 9 2 1</rect></_>
    <_>
      <rect>
        9 10 2 1</rect></_>
    <_>
      <rect>
        9 10 5 3</rect></_>
    <_>
      <rect>
        9 14 2 1</rect></_>
    <_>
      <rect>
        9 15 2 1</rect></_>
    <_>
      <rect>
        9 16 2 1</rect></_>
    <_>
      <rect>
        9 18 2 1</rect></_>
    <_>
      <rect>
        10 8 2 1</rect></_>
    <_>
      <rect>
        10 8 2 2</rect></_>
    <_>
      <rect>
        10 9 3 1</rect></_>
    <_>
      <rect>
        10 10 1 1</rect></_>
    <_>
      <rect>
        10 10 2 1</rect></_>
    <_>
      <rect>
        10 12 2 1</rect></_>
    <_>
      <rect>
        10 13 1 1</rect></_>
    <_>
      <rect>
        10 13 2 1</rect></_>
    <_>
      <rect>
        10 15 2 1</rect></_>
    <_>
      <rect>
        11 8 2 1</rect></_>
    <_>
      <rect>
        11 9 1 2</rect></_>
    <_>
      <rect>
        11 9 2 1</rect></_>
    <_>
      <rect>
        11 10 1 1</rect></_>
    <_>
      <rect>
        11 11 1 1</rect></_>
    <_>
      <rect>
        11 11 3 2</rect></_>
    <_>
      <rect>
        11 12 1 1</rect></_>
    <_>
      <rect>
        11 14 1 1</rect></_>
    <_>
      <rect>
        11 14 2 1</rect></_>
    <_>
      <rect>
        11 17 2 1</rect></_>
    <_>
      <rect>
        12 0 4 8</rect></_>
    <_>
      <rect>
        12 2 3 6</rect></_>
    <_>
      <rect>
        12 3 4 5</rect></_>
    <_>
      <rect>
        12 5 4 5</rect></_>
    <_>
      <rect>
        12 6 3 3</rect></_>
    <_>
      <rect>
        12 6 4 4</rect></_>
    <_>
      <rect>
        12 8 3 1</rect></_>
    <_>
      <rect>
        12 8 4 2</rect></_>
    <_>
      <rect>
        12 8 4 3</rect></_>
    <_>
      <rect>
        12 9 3 2</rect></_>
    <_>
      <rect>
        12 9 4 3</rect></_>
    <_>
      <rect>
        12 9 4 5</rect></_>
    <_>
      <rect>
        12 12 1 1</rect></_>
    <_>
      <rect>
        12 12 2 1</rect></_>
    <_>
      <rect>
        12 15 4 2</rect></_>
    <_>
      <rect>
        13 6 2 1</rect></_>
    <_>
      <rect>
        13 9 2 1</rect></_>
    <_>
      <rect>
        13 9 2 2</rect></_>
    <_>
      <rect>
        13 14 2 1</rect></_>
    <_>
      <rect>
        15 0 3 6</rect></_>
    <_>
      <rect>
        15 0 3 8</rect></_>
    <_>
      <rect>
        15 2 3 2</rect></_>
    <_>
      <rect>
        15 5 2 1</rect></_>
    <_>
      <rect>
        15 5 3 4</rect></_>
    <_>
      <rect>
        15 6 3 6</rect></_>
    <_>
      <rect>
        15 7 3 4</rect></_>
    <_>
      <rect>
        15 14 3 3</rect></_>
    <_>
      <rect>
        17 4 1 1</rect></_>
    <_>
      <rect>
        18 4 2 2</rect></_>
    <_>
      <rect>
        18 7 2 3</rect></_>
    <_>
      <rect>
        18 14 2 1</rect></_>
    <_>
      <rect>
        19 12 1 1</rect></_>
    <_>
      <rect>
        20 7 1 1</rect></_>
    <_>
      <rect>
        20 8 1 1</rect></_>
    <_>
      <rect>
        20 8 1 2</rect></_>
    <_>
      <rect>
        21 7 1 1</rect></_>
    <_>
      <rect>
        21 7 1 2</rect></_>
    <_>
      <rect>
        21 9 1 1</rect></_>
    <_>
      <rect>
        21 9 1 2</rect></_>
    <_>
      <rect>
        21 10 1 2</rect></_>
    <_>
      <rect>
        21 11 1 2</rect></_></features></cascade>
</opencv_storage>
