<?xml version="1.0"?>
<opencv_storage>
<cascade>
  <stageType>BOOST</stageType>
  <featureType>LBP</featureType>
  <height>24</height>
  <width>24</width>
  <stageParams>
    <boostType>GAB</boostType>
    <minHitRate>9.9900001287460327e-01</minHitRate>
    <maxFalseAlarm>5.0000000000000000e-01</maxFalseAlarm>
    <weightTrimRate>9.4999999999999996e-01</weightTrimRate>
    <maxDepth>1</maxDepth>
    <maxWeakCount>100</maxWeakCount></stageParams>
  <featureParams>
    <maxCatCount>256</maxCatCount>
    <featSize>1</featSize></featureParams>
  <stageNum>30</stageNum>
  <stages>
    <!-- stage 0 -->
    <_>
      <maxWeakCount>10</maxWeakCount>
      <stageThreshold>-1.5024574995040894e+00</stageThreshold>
      <weakClassifiers>
        <_>
          <internalNodes>
            0 -1 74 234564543 834601919 1072602943 825751475 871305727
            1987389387 133112831 872363263</internalNodes>
          <leafValues>
            -2.5460636615753174e-01 7.0574444532394409e-01</leafValues></_>
        <_>
          <internalNodes>
            0 -1 46 -3146754 -1300175128 -2105353828 550152256 671285680
            26230784 1088464016 10502224</internalNodes>
          <leafValues>
            -7.2573208808898926e-01 3.4196406602859497e-01</leafValues></_>
        <_>
          <internalNodes>
            0 -1 50 -232542590 -2021491200 208424498 -1490802688
            497648704 1412696384 -640392656 -766257789</internalNodes>
          <leafValues>
            -4.2147988080978394e-01 4.5381447672843933e-01</leafValues></_>
        <_>
          <internalNodes>
            0 -1 184 -703937326 -242220880 134248859 497106944
            -1174228294 -1650204512 -1995375446 521802116</internalNodes>
          <leafValues>
            -4.7988337278366089e-01 3.8281658291816711e-01</leafValues></_>
        <_>
          <internalNodes>
            0 -1 296 -100664593 66889855 -1661337604 -907511564
            -973492844 -1359888912 1748368600 80169071</internalNodes>
          <leafValues>
            -3.7333703041076660e-01 5.1096308231353760e-01</leafValues></_>
        <_>
          <internalNodes>
            0 -1 29 -827922538 243316512 -1368331740 134324 -834810092
            610041148 -466675912 -946616461</internalNodes>
          <leafValues>
            -4.1656059026718140e-01 4.5499137043952942e-01</leafValues></_>
        <_>
          <internalNodes>
            0 -1 28 -110363518 1279568650 -1349524299 -768914208
            -982022460 1686453854 -1858635967 -604519273</internalNodes>
          <leafValues>
            -3.0929481983184814e-01 5.9921181201934814e-01</leafValues></_>
        <_>
          <internalNodes>
            0 -1 169 -886520166 -104788328 1864491828 1303682200
            74841521 -98279695 884827282 -1718938514</internalNodes>
          <leafValues>
            -3.2392290234565735e-01 5.6344830989837646e-01</leafValues></_>
        <_>
          <internalNodes>
            0 -1 256 -805256968 -690425712 118509969 2068348948
            -1191083854 -1198980992 369246608 408594576</internalNodes>
          <leafValues>
            -5.3385245800018311e-01 3.5605663061141968e-01</leafValues></_>
        <_>
          <internalNodes>
            0 -1 19 -649070990 -1033838592 1074118657 12632706
            1073922177 -1337884664 1627411521 318963714</internalNodes>
          <leafValues>
            -4.9294522404670715e-01 3.8246256113052368e-01</leafValues></_></weakClassifiers></_>
    <!-- stage 1 -->
    <_>
      <maxWeakCount>14</maxWeakCount>
      <stageThreshold>-6.5012383460998535e-01</stageThreshold>
      <weakClassifiers>
        <_>
          <internalNodes>
            0 -1 64 423623647 872089823 2140127166 962014971 804232955
            300824574 738156735 866857435</internalNodes>
          <leafValues>
            -1.8132296204566956e-01 7.0154798030853271e-01</leafValues></_>
        <_>
          <internalNodes>
            0 -1 6 -848433596 -111284483 1549597668 -212474633
            -253764108 -709441868 -2064271649 1342300627</internalNodes>
          <leafValues>
            -3.4715488553047180e-01 4.3389087915420532e-01</leafValues></_>
        <_>
          <internalNodes>
            0 -1 84 2030479352 823207066 606209375 322814659 604640190
            835780762 88031663 871330735</internalNodes>
          <leafValues>
            -4.0960848331451416e-01 3.8755738735198975e-01</leafValues></_>
        <_>
          <internalNodes>
            0 -1 260 -627566368 -795664320 1895948417 -745144311
            1058182842 -1199394752 -1853035780 990904377</internalNodes>
          <leafValues>
            -5.7135891914367676e-01 2.8988069295883179e-01</leafValues></_>
        <_>
          <internalNodes>
            0 -1 42 -337394038 -517435870 -2031235808 -543755230
            -1484734198 1147458772 1712435062 -681072709</internalNodes>
          <leafValues>
            -3.3620575070381165e-01 5.3044587373733521e-01</leafValues></_>
        <_>
          <internalNodes>
            0 -1 18 -1475616058 -1035697984 -1996435160 1304494922
            1107544315 -1710710776 931300036 -388541855</internalNodes>
          <leafValues>
            -4.2223444581031799e-01 3.7591215968132019e-01</leafValues></_>
        <_>
          <internalNodes>
            0 -1 415 -455413628 -465289064 -335380216 -1601924080
            378249482 -209583487 -1432313328 581918851</internalNodes>
          <leafValues>
            -4.5849356055259705e-01 3.5171303153038025e-01</leafValues></_>
        <_>
          <internalNodes>
            0 -1 172 -542442501 -1079711016 1459550433 -753333087
            -1887460454 -97150236 21922810 -1710615335</internalNodes>
          <leafValues>
            -3.1024467945098877e-01 5.2934479713439941e-01</leafValues></_>
        <_>
          <internalNodes>
            0 -1 58 -744298838 -721609631 934639520 820635380
            -2131234047 108330867 341169936 -707540397</internalNodes>
          <leafValues>
            -3.1119504570960999e-01 5.0562763214111328e-01</leafValues></_>
        <_>
          <internalNodes>
            0 -1 157 -55125416 -786813280 1585390777 471324177
            -2023759892 -16124299 545646283 240788703</internalNodes>
          <leafValues>
            -3.7333908677101135e-01 4.6017941832542419e-01</leafValues></_>
        <_>
          <internalNodes>
            0 -1 368 -1803159538 1085584 25165852 79724695 268931523
            -2009006065 -1412191360 1761591763</internalNodes>
          <leafValues>
            -4.5662099123001099e-01 3.6500439047813416e-01</leafValues></_>
        <_>
          <internalNodes>
            0 -1 262 19963208 -3588080 388301689 1480360029 537041562
            -1174305270 523374797 448710826</internalNodes>
          <leafValues>
            -4.4963234663009644e-01 4.0376970171928406e-01</leafValues></_>
        <_>
          <internalNodes>
            0 -1 162 2136905728 -377322602 339740972 899481755 59228333
            545292418 1342752912 1086693731</internalNodes>
          <leafValues>
            -4.9463531374931335e-01 3.6546584963798523e-01</leafValues></_>
        <_>
          <internalNodes>
            0 -1 34 -819542342 -1069481726 285540546 -629079344 5456034
            268468224 -770766686 1473495171</internalNodes>
          <leafValues>
            -4.2250740528106689e-01 4.1209006309509277e-01</leafValues></_></weakClassifiers></_>
    <!-- stage 2 -->
    <_>
      <maxWeakCount>12</maxWeakCount>
      <stageThreshold>-5.6814384460449219e-01</stageThreshold>
      <weakClassifiers>
        <_>
          <internalNodes>
            0 -1 138 -2109673286 304146938 729519547 823000386 83509496
            822079486 2002730971 469707007</internalNodes>
          <leafValues>
            -1.7055656015872955e-01 6.1030232906341553e-01</leafValues></_>
        <_>
          <internalNodes>
            0 -1 285 -40841064 -720023392 1092701337 -654225251
            -1375426376 -221589374 146985432 454693016</internalNodes>
          <leafValues>
            -4.0108144283294678e-01 3.9033937454223633e-01</leafValues></_>
        <_>
          <internalNodes>
            0 -1 41 -461377569 1908901141 1359004184 1535881985
            -1580820694 276824064 29602446 579547858</internalNodes>
          <leafValues>
            -4.1349765658378601e-01 3.8602292537689209e-01</leafValues></_>
        <_>
          <internalNodes>
            0 -1 30 -540021841 -939463350 -822317207 -594874952
            -1000554701 -954286733 -734691403 -212341437</internalNodes>
          <leafValues>
            -2.2555236518383026e-01 6.3270878791809082e-01</leafValues></_>
        <_>
          <internalNodes>
            0 -1 181 -652689192 -1074264692 -929939125 -678342576
            -1174368088 -628848622 -1996468053 454691712</internalNodes>
          <leafValues>
            -4.8299190402030945e-01 3.0622202157974243e-01</leafValues></_>
        <_>
          <internalNodes>
            0 -1 396 -1880103013 27447020 998121257 603163224
            -1078739010 251444957 939204032 -855646501</internalNodes>
          <leafValues>
            -3.0104589462280273e-01 4.8830822110176086e-01</leafValues></_>
        <_>
          <internalNodes>
            0 -1 67 -659119904 -42782745 1639104328 -429631804
            -2045721850 -1873578681 253962001 -479748442</internalNodes>
          <leafValues>
            -3.1956687569618225e-01 5.0088459253311157e-01</leafValues></_>
        <_>
          <internalNodes>
            0 -1 345 -729624366 1384452176 1434483029 453001541
            -2146774888 -1846500976 -1711236942 1040322588</internalNodes>
          <leafValues>
            -5.2703624963760376e-01 2.9160532355308533e-01</leafValues></_>
        <_>
          <internalNodes>
            0 -1 299 -52698220 1374045267 912190756 1093059631
            1258282456 -1133281294 105633596 -265031425</internalNodes>
          <leafValues>
            -3.4490376710891724e-01 4.8751577734947205e-01</leafValues></_>
        <_>
          <internalNodes>
            0 -1 210 -1945871660 -625012604 621676893 2135577085
            -1591696758 -1341937499 1744976887 974782788</internalNodes>
          <leafValues>
            -5.2002471685409546e-01 2.9815846681594849e-01</leafValues></_>
        <_>
          <internalNodes>
            0 -1 275 -263794472 428142736 285542793 2034336260
            -1710747222 -1199435776 1132810 1484998058</internalNodes>
          <leafValues>
            -3.8816839456558228e-01 4.1763800382614136e-01</leafValues></_>
        <_>
          <internalNodes>
            0 -1 227 -601042768 2012323856 1375821843 -648133584
            -2104446815 -804715734 -805133912 -1953314639</internalNodes>
          <leafValues>
            -4.2408642172813416e-01 3.8780975341796875e-01</leafValues></_></weakClassifiers></_>
    <!-- stage 3 -->
    <_>
      <maxWeakCount>16</maxWeakCount>
      <stageThreshold>-9.0856897830963135e-01</stageThreshold>
      <weakClassifiers>
        <_>
          <internalNodes>
            0 -1 74 905915338 967259007 1072652159 565884667 854552827
            846669801 393094079 868160691</internalNodes>
          <leafValues>
            -2.4366042017936707e-01 5.6246864795684814e-01</leafValues></_>
        <_>
          <internalNodes>
            0 -1 0 -319365542 740441956 2146631542 1612988192
            -1074266318 -1083146446 -1614938319 2048353875</internalNodes>
          <leafValues>
            -3.4980699419975281e-01 4.3998238444328308e-01</leafValues></_>
        <_>
          <internalNodes>
            0 -1 382 -324287872 1350606978 -1039433658 8408577 41951360
            -1610457084 21004592 214943999</internalNodes>
          <leafValues>
            -3.7620425224304199e-01 3.7287682294845581e-01</leafValues></_>
        <_>
          <internalNodes>
            0 -1 49 -1035735097 -990068522 1141163332 -1585422172
            1392619761 -1189608767 575008914 1625666263</internalNodes>
          <leafValues>
            -3.7893369793891907e-01 3.8225498795509338e-01</leafValues></_>
        <_>
          <internalNodes>
            0 -1 35 -89659158 95169600 -151175848 1701900000 1841772587
            2091513668 1204910834 -773331797</internalNodes>
          <leafValues>
            -3.0194807052612305e-01 5.1660788059234619e-01</leafValues></_>
        <_>
          <internalNodes>
            0 -1 77 -17642944 -139104631 -1025561612 1927481254
            -214735772 934510405 -1209002174 2006180375</internalNodes>
          <leafValues>
            -3.4626781940460205e-01 4.1587442159652710e-01</leafValues></_>
        <_>
          <internalNodes>
            0 -1 240 -1875518752 1367914624 -654223031 289488981
            -2103842118 151624146 -1054308117 1107269775</internalNodes>
          <leafValues>
            -3.5799965262413025e-01 3.8956239819526672e-01</leafValues></_>
        <_>
          <internalNodes>
            0 -1 341 -712574832 -188608476 144719899 404570116
            -1945907032 -1163916800 152146152 1248801637</internalNodes>
          <leafValues>
            -3.8249683380126953e-01 3.9066666364669800e-01</leafValues></_>
        <_>
          <internalNodes>
            0 -1 392 -1896092473 251595448 721317286 -1028227214
            -1258574315 -1342308614 -1350566299 1220017847</internalNodes>
          <leafValues>
            -3.4122622013092041e-01 4.3718141317367554e-01</leafValues></_>
        <_>
          <internalNodes>
            0 -1 27 -328473861 -597055960 247350368 1168400482
            1315906951 620645117 99439964 2144719231</internalNodes>
          <leafValues>
            -3.5846921801567078e-01 4.5396116375923157e-01</leafValues></_>
        <_>
          <internalNodes>
            0 -1 206 -728742724 -538820284 87369 420560980 -1299005296
            -2069364655 185112826 689443012</internalNodes>
          <leafValues>
            -5.4672610759735107e-01 2.8800055384635925e-01</leafValues></_>
        <_>
          <internalNodes>
            0 -1 91 1413301023 -1238069536 778976239 2110111414
            1458857287 1986996070 1461018591 -1074301165</internalNodes>
          <leafValues>
            -3.3443972468376160e-01 4.8032876849174500e-01</leafValues></_>
        <_>
          <internalNodes>
            0 -1 12 -1068897660 2046631573 1156513031 -739115541
            1137172479 -1939354052 771751311 2013655803</internalNodes>
          <leafValues>
            -3.5279384255409241e-01 4.4687759876251221e-01</leafValues></_>
        <_>
          <internalNodes>
            0 -1 51 -1186061 -310576278 636800915 918207648 -134234457
            -1795785768 -867306334 -407395705</internalNodes>
          <leafValues>
            -2.6121997833251953e-01 5.9501051902770996e-01</leafValues></_>
        <_>
          <internalNodes>
            0 -1 347 -13906735 69306018 938890714 1375323647 1705895912
            182447817 -2131495448 32374527</internalNodes>
          <leafValues>
            -3.3231478929519653e-01 4.5467713475227356e-01</leafValues></_>
        <_>
          <internalNodes>
            0 -1 113 -757207302 -1212699936 335180320 -487510923
            -1753228036 -1104764051 1324217379 -1642620838</internalNodes>
          <leafValues>
            -3.3822444081306458e-01 4.5910650491714478e-01</leafValues></_></weakClassifiers></_>
    <!-- stage 4 -->
    <_>
      <maxWeakCount>13</maxWeakCount>
      <stageThreshold>-7.6268446445465088e-01</stageThreshold>
      <weakClassifiers>
        <_>
          <internalNodes>
            0 -1 356 -83900794 746110702 -1094811676 203979246
            -1392526244 -1493337346 -819338044 10951919</internalNodes>
          <leafValues>
            -1.6995304822921753e-01 5.8910083770751953e-01</leafValues></_>
        <_>
          <internalNodes>
            0 -1 107 -2177 -310544 -134717479 2041213050 869393561
            -1143269379 2046277363 933393895</internalNodes>
          <leafValues>
            -3.1500881910324097e-01 4.1628450155258179e-01</leafValues></_>
        <_>
          <internalNodes>
            0 -1 90 -767078191 -1167412 1314291301 -57275137 1463113330
            -1109506175 1601400667 -73043241</internalNodes>
          <leafValues>
            -2.9655310511589050e-01 4.3623575568199158e-01</leafValues></_>
        <_>
          <internalNodes>
            0 -1 418 -626346368 -2139304788 -336628224 -487089038
            -1241655916 78417886 -1405483690 -1962949417</internalNodes>
          <leafValues>
            -3.1319156289100647e-01 4.1255259513854980e-01</leafValues></_>
        <_>
          <internalNodes>
            0 -1 284 -182715248 1477005322 1210272735 2019243501
            964864178 -660405078 285475543 437964945</internalNodes>
          <leafValues>
            -4.3220356106758118e-01 3.1190145015716553e-01</leafValues></_>
        <_>
          <internalNodes>
            0 -1 295 -581439149 -1728844698 -33559312 -864174729
            1281249108 -1493713419 1356987504 -2002526785</internalNodes>
          <leafValues>
            -2.5843450427055359e-01 5.5978161096572876e-01</leafValues></_>
        <_>
          <internalNodes>
            0 -1 208 -2144825904 -48740284 2030158047 463802457
            -1165326094 -1129707118 88765070 719082672</internalNodes>
          <leafValues>
            -4.7791323065757751e-01 3.3084189891815186e-01</leafValues></_>
        <_>
          <internalNodes>
            0 -1 47 -895489146 -827527484 -1214248288 -796737810
            734338058 78142921 -1619528297 -15223625</internalNodes>
          <leafValues>
            -3.1502944231033325e-01 4.7136923670768738e-01</leafValues></_>
        <_>
          <internalNodes>
            0 -1 311 -2078963520 413648192 294218780 155563076
            -1375628549 506413984 872644632 451533253</internalNodes>
          <leafValues>
            -4.9128890037536621e-01 2.9599744081497192e-01</leafValues></_>
        <_>
          <internalNodes>
            0 -1 387 -188743969 -839500297 -1100157314 783969716
            -34568955 -176227208 -1368373128 -2003183182</internalNodes>
          <leafValues>
            -3.2103678584098816e-01 4.5720118284225464e-01</leafValues></_>
        <_>
          <internalNodes>
            0 -1 343 -818685732 -587556998 -262659 -546447886
            -1614878984 1585446772 -21300037 -1355081559</internalNodes>
          <leafValues>
            -3.0212435126304626e-01 5.0215107202529907e-01</leafValues></_>
        <_>
          <internalNodes>
            0 -1 39 -180430061 -152895494 2147122418 -1914413900
            1563482032 -697033067 502296128 -1533942281</internalNodes>
          <leafValues>
            -3.5983964800834656e-01 3.9958107471466064e-01</leafValues></_>
        <_>
          <internalNodes>
            0 -1 111 1286619737 428417454 1761756221 1593929751
            407323997 730136755 8406729 595546159</internalNodes>
          <leafValues>
            -4.8493495583534241e-01 3.1717354059219360e-01</leafValues></_></weakClassifiers></_>
    <!-- stage 5 -->
    <_>
      <maxWeakCount>15</maxWeakCount>
      <stageThreshold>-1.1341966390609741e+00</stageThreshold>
      <weakClassifiers>
        <_>
          <internalNodes>
            0 -1 331 -1179083344 -536931111 1069493949 -362980
            -1103441988 -717959748 -1145061701 160432304</internalNodes>
          <leafValues>
            -2.1331688761711121e-01 5.1364290714263916e-01</leafValues></_>
        <_>
          <internalNodes>
            0 -1 53 -67372033 2076015359 2142699426 457911935 939234047
            -759211010 1944572863 334193303</internalNodes>
          <leafValues>
            -3.2462796568870544e-01 4.1380965709686279e-01</leafValues></_>
        <_>
          <internalNodes>
            0 -1 386 -660998142 -792575882 277348408 75990137 34799888
            743538818 100714724 -2065446293</internalNodes>
          <leafValues>
            -3.8230767846107483e-01 3.4433907270431519e-01</leafValues></_>
        <_>
          <internalNodes>
            0 -1 2 -791881254 -1845182336 268697860 -988806654
            -922173376 -1073151997 1073824227 1935101987</internalNodes>
          <leafValues>
            -3.9135724306106567e-01 3.3182892203330994e-01</leafValues></_>
        <_>
          <internalNodes>
            0 -1 289 -2087676976 -596618206 335565789 2062947412
            -1744001352 -1182445432 409637886 1527267800</internalNodes>
          <leafValues>
            -4.8168745636940002e-01 2.3293328285217285e-01</leafValues></_>
        <_>
          <internalNodes>
            0 -1 177 -2040157024 -156354348 268073975 1529338961
            -877083394 -2138458675 1734904826 -1727489645</internalNodes>
          <leafValues>
            -2.8586137294769287e-01 4.2122483253479004e-01</leafValues></_>
        <_>
          <internalNodes>
            0 -1 8 -1440570718 -1206222718 4378802 -1727020800
            1310955533 -1070505438 -1056740859 1094009013</internalNodes>
          <leafValues>
            -5.1630246639251709e-01 2.5624966621398926e-01</leafValues></_>
        <_>
          <internalNodes>
            0 -1 414 -163849072 -1877164244 -33718595 -62652688
            -1376014754 -1795924617 931825265 -592476433</internalNodes>
          <leafValues>
            -2.7132093906402588e-01 5.2394026517868042e-01</leafValues></_>
        <_>
          <internalNodes>
            0 -1 307 58910955 26116096 -1056892775 1078132832 688365792
            -2003819349 -1665138296 547868740</internalNodes>
          <leafValues>
            -5.0806206464767456e-01 2.7077749371528625e-01</leafValues></_>
        <_>
          <internalNodes>
            0 -1 180 -584333158 -1640461712 -136572969 1468210784
            1310590707 -192447656 -2075863089 -1291758435</internalNodes>
          <leafValues>
            -3.0218034982681274e-01 4.5706847310066223e-01</leafValues></_>
        <_>
          <internalNodes>
            0 -1 16 2013781662 -907878684 -268537867 1911393648 99978324
            1333697392 1430570871 -805841838</internalNodes>
          <leafValues>
            -2.7874204516410828e-01 4.9338418245315552e-01</leafValues></_>
        <_>
          <internalNodes>
            0 -1 371 957407766 101454064 792728860 592648525 -746019436
            12059416 -368974136 1004494955</internalNodes>
          <leafValues>
            -4.2316436767578125e-01 3.3167243003845215e-01</leafValues></_>
        <_>
          <internalNodes>
            0 -1 69 -766259077 -1340964524 251723853 1557893170
            -2079809470 -317882333 1379239511 1293091443</internalNodes>
          <leafValues>
            -4.0196743607521057e-01 3.4520861506462097e-01</leafValues></_>
        <_>
          <internalNodes>
            0 -1 40 -2103776582 -1874837374 34869836 2141489920
            -1995329387 807813258 163820213 -382540846</internalNodes>
          <leafValues>
            -4.2539465427398682e-01 3.4116840362548828e-01</leafValues></_>
        <_>
          <internalNodes>
            0 -1 337 -46120696 -787414255 1091225091 -81149680
            -1037483966 -2058204776 168362200 539664667</internalNodes>
          <leafValues>
            -4.6677434444427490e-01 3.0263859033584595e-01</leafValues></_></weakClassifiers></_>
    <!-- stage 6 -->
    <_>
      <maxWeakCount>16</maxWeakCount>
      <stageThreshold>-1.1175625324249268e+00</stageThreshold>
      <weakClassifiers>
        <_>
          <internalNodes>
            0 -1 226 -457667396 -1557036 -16917473 -585548592
            -1113027268 -1302564 -1121405126 587206840</internalNodes>
          <leafValues>
            -2.7419355511665344e-01 5.1205939054489136e-01</leafValues></_>
        <_>
          <internalNodes>
            0 -1 293 -212938932 -784055295 -2130550784 1812173081
            -2124286559 805519873 11141249 13582591</internalNodes>
          <leafValues>
            -3.8615918159484863e-01 3.4938028454780579e-01</leafValues></_>
        <_>
          <internalNodes>
            0 -1 315 -1735902832 2117550100 1359305215 1595099353
            -1308055406 -105099112 378586026 730857728</internalNodes>
          <leafValues>
            -4.8650076985359192e-01 2.9010862112045288e-01</leafValues></_>
        <_>
          <internalNodes>
            0 -1 56 -352588817 1802876721 791606822 -84521885 -8487149
            -136366794 -270821118 -73145337</internalNodes>
          <leafValues>
            -2.1206675469875336e-01 5.9563457965850830e-01</leafValues></_>
        <_>
          <internalNodes>
            0 -1 202 -199825263 1564633288 -1845439019 428557360
            -1341085450 -354926574 -1169545297 520755384</internalNodes>
          <leafValues>
            -3.6641168594360352e-01 3.5588267445564270e-01</leafValues></_>
        <_>
          <internalNodes>
            0 -1 11 -736067584 1729136727 67110726 2035369241
            -1333673803 655392 834722527 269875799</internalNodes>
          <leafValues>
            -5.1082414388656616e-01 2.7108132839202881e-01</leafValues></_>
        <_>
          <internalNodes>
            0 -1 422 32563902 4910436 -285232640 526756988 -1547315003
            91815796 -1627038452 -1146154577</internalNodes>
          <leafValues>
            -3.4248757362365723e-01 3.9355108141899109e-01</leafValues></_>
        <_>
          <internalNodes>
            0 -1 130 -75305226 -410425800 737683004 -649997280
            -1332965860 1723226622 -671349312 -879790800</internalNodes>
          <leafValues>
            -2.8667351603507996e-01 4.4858002662658691e-01</leafValues></_>
        <_>
          <internalNodes>
            0 -1 190 -795866948 -108773204 -1073692647 -761634575
            -1037400040 -931003880 -1291189301 460854664</internalNodes>
          <leafValues>
            -5.2772772312164307e-01 2.5290110707283020e-01</leafValues></_>
        <_>
          <internalNodes>
            0 -1 282 -696069958 1544815952 -972906147 -1778071625
            -2037499720 -638975864 -355233550 2056028594</internalNodes>
          <leafValues>
            -4.1089001297950745e-01 3.4987440705299377e-01</leafValues></_>
        <_>
          <internalNodes>
            0 -1 105 1480840100 269257744 -1861893052 1352943382
            -790306432 411764937 1218515088 8368</internalNodes>
          <leafValues>
            -7.4138540029525757e-01 1.9379870593547821e-01</leafValues></_>
        <_>
          <internalNodes>
            0 -1 50 1882164291 -192368918 -1629139232 -505156464
            1831376257 -1783321496 1935583250 -5798429</internalNodes>
          <leafValues>
            -2.8106984496116638e-01 5.1374334096908569e-01</leafValues></_>
        <_>
          <internalNodes>
            0 -1 178 -805140848 -107838344 -1993744299 1163805341
            -1879005051 -1156366320 503907208 -1960507384</internalNodes>
          <leafValues>
            -3.6979362368583679e-01 4.0556275844573975e-01</leafValues></_>
        <_>
          <internalNodes>
            0 -1 94 403588344 922763288 153682186 411533520 185149869
            680857817 134268043 1520404619</internalNodes>
          <leafValues>
            -3.8153028488159180e-01 3.8823840022087097e-01</leafValues></_>
        <_>
          <internalNodes>
            0 -1 229 -175585072 -984219624 268436063 1364727813
            -628974976 1385311408 -1943607104 788959417</internalNodes>
          <leafValues>
            -4.7199839353561401e-01 3.1161418557167053e-01</leafValues></_>
        <_>
          <internalNodes>
            0 -1 217 -1005420356 -758644352 -1048509696 470090845
            536963193 -1200602599 160277187 -1852898803</internalNodes>
          <leafValues>
            -4.1234409809112549e-01 3.5425457358360291e-01</leafValues></_></weakClassifiers></_>
    <!-- stage 7 -->
    <_>
      <maxWeakCount>15</maxWeakCount>
      <stageThreshold>-1.0785787105560303e+00</stageThreshold>
      <weakClassifiers>
        <_>
          <internalNodes>
            0 -1 72 308678264 -541122729 1040138175 1798399346 132597123
            1978086263 326382575 1932752791</internalNodes>
          <leafValues>
            -2.0809899270534515e-01 5.3953254222869873e-01</leafValues></_>
        <_>
          <internalNodes>
            0 -1 306 185106616 -103006132 -788213656 1937785280
            -1451183396 -1428250480 700504510 402653400</internalNodes>
          <leafValues>
            -5.3828167915344238e-01 2.4461284279823303e-01</leafValues></_>
        <_>
          <internalNodes>
            0 -1 85 -12878344 -194431472 2087284535 -162693414 456228640
            1899417444 387538228 -174654578</internalNodes>
          <leafValues>
            -3.1972435116767883e-01 3.9518946409225464e-01</leafValues></_>
        <_>
          <internalNodes>
            0 -1 364 -738069270 9538092 563237668 14387993 -1816014608
            -2002025261 1395182490 134852676</internalNodes>
          <leafValues>
            -4.8106920719146729e-01 2.5374081730842590e-01</leafValues></_>
        <_>
          <internalNodes>
            0 -1 209 68161624 1597128912 234885463 1348038677
            -1560131488 -125259628 16957841 437785009</internalNodes>
          <leafValues>
            -5.4638671875000000e-01 2.1958388388156891e-01</leafValues></_>
        <_>
          <internalNodes>
            0 -1 417 -201660792 1441322 649989216 1287634069 -1639993362
            87566135 1054137863 -354706706</internalNodes>
          <leafValues>
            -2.8142502903938293e-01 4.6735531091690063e-01</leafValues></_>
        <_>
          <internalNodes>
            0 -1 44 -1015549050 -1461966174 -319854896 -1270862214
            599478053 -839582337 -145918336 -5769305</internalNodes>
          <leafValues>
            -3.2306447625160217e-01 4.1754445433616638e-01</leafValues></_>
        <_>
          <internalNodes>
            0 -1 124 -685255220 -716648319 1073741825 -443504308
            -1005920183 1954807936 -1606197036 166682847</internalNodes>
          <leafValues>
            -4.2012086510658264e-01 3.4729364514350891e-01</leafValues></_>
        <_>
          <internalNodes>
            0 -1 253 -870281036 -539144870 767358193 -1190195871
            -138870851 -302285316 -1767064353 -1684323112</internalNodes>
          <leafValues>
            -3.0552113056182861e-01 4.6405237913131714e-01</leafValues></_>
        <_>
          <internalNodes>
            0 -1 87 -595916762 -514349764 1744191339 -185775609
            -127520734 35487541 617903402 -207665606</internalNodes>
          <leafValues>
            -3.3587846159934998e-01 4.3140915036201477e-01</leafValues></_>
        <_>
          <internalNodes>
            0 -1 187 -938847216 -638369776 -553559651 1248728348
            -1602041846 -1741127536 -1709833438 453511317</internalNodes>
          <leafValues>
            -5.4972106218338013e-01 2.7687749266624451e-01</leafValues></_>
        <_>
          <internalNodes>
            0 -1 125 -1046289776 -1011891124 -1476475653 1434030176
            653125761 -490541076 622049450 -138425191</internalNodes>
          <leafValues>
            -2.8499540686607361e-01 5.2991205453872681e-01</leafValues></_>
        <_>
          <internalNodes>
            0 -1 84 -1717131576 368626132 419465688 -206402526
            -1603583265 1536860323 1887441308 2040054383</internalNodes>
          <leafValues>
            -4.2770606279373169e-01 3.5401421785354614e-01</leafValues></_>
        <_>
          <internalNodes>
            0 -1 223 1369475224 -749666024 -1996399335 1476407621
            1593880996 -1592622072 714236100 -1994731296</internalNodes>
          <leafValues>
            -4.4218447804450989e-01 3.4540063142776489e-01</leafValues></_>
        <_>
          <internalNodes>
            0 -1 24 -1056773434 -936923780 -5907358 1476251306
            -856453473 -2099223178 1438097142 -273170233</internalNodes>
          <leafValues>
            -2.7969148755073547e-01 5.2653127908706665e-01</leafValues></_></weakClassifiers></_>
    <!-- stage 8 -->
    <_>
      <maxWeakCount>14</maxWeakCount>
      <stageThreshold>-7.0739167928695679e-01</stageThreshold>
      <weakClassifiers>
        <_>
          <internalNodes>
            0 -1 110 -113615206 -674092746 1929019168 -568713562
            1987719792 -1639940319 238241330 1933010579</internalNodes>
          <leafValues>
            -1.5074309706687927e-01 5.3217566013336182e-01</leafValues></_>
        <_>
          <internalNodes>
            0 -1 349 -55314212 -1060482943 -1069367291 1183023251
            -1051082623 -1056358175 1073840128 11209835</internalNodes>
          <leafValues>
            -3.5996893048286438e-01 3.3043229579925537e-01</leafValues></_>
        <_>
          <internalNodes>
            0 -1 391 -37758305 -2011903768 1040063992 -1058289528
            1686046657 -1308779041 754960012 -935338997</internalNodes>
          <leafValues>
            -2.4095878005027771e-01 4.6403217315673828e-01</leafValues></_>
        <_>
          <internalNodes>
            0 -1 333 -1827606312 -1281408048 -578774691 1429886977
            680192682 -1199437786 -1566800995 247763090</internalNodes>
          <leafValues>
            -3.5473880171775818e-01 3.3230763673782349e-01</leafValues></_>
        <_>
          <internalNodes>
            0 -1 231 -267365668 -593886076 -2147479209 -1178529399
            1378005122 -905256829 696314042 522846400</internalNodes>
          <leafValues>
            -4.8827862739562988e-01 2.4596154689788818e-01</leafValues></_>
        <_>
          <internalNodes>
            0 -1 334 328750672 -1698555690 889585693 1209685457
            -1689703748 411144260 1023986495 468399257</internalNodes>
          <leafValues>
            -4.7090002894401550e-01 2.5018179416656494e-01</leafValues></_>
        <_>
          <internalNodes>
            0 -1 298 -1322544269 -477523005 237103641 -584653264
            -42759510 -53317944 477264059 -1194590885</internalNodes>
          <leafValues>
            -2.3371790349483490e-01 5.7634907960891724e-01</leafValues></_>
        <_>
          <internalNodes>
            0 -1 22 -428555642 1929383947 1091883208 1493229576
            1628912360 -1456766841 2015367716 1549398083</internalNodes>
          <leafValues>
            -3.7453866004943848e-01 3.4363165497779846e-01</leafValues></_>
        <_>
          <internalNodes>
            0 -1 408 -515258752 -1006106553 -2113912814 -1796517663
            -1839038407 134258697 -2002660406 -1877253493</internalNodes>
          <leafValues>
            -3.2231143116950989e-01 4.0775167942047119e-01</leafValues></_>
        <_>
          <internalNodes>
            0 -1 202 -1869589488 -262680424 -2130667233 324403441
            -1425267526 -41380957 1359361675 227561553</internalNodes>
          <leafValues>
            -4.5966494083404541e-01 2.9464915394783020e-01</leafValues></_>
        <_>
          <internalNodes>
            0 -1 234 551414442 12958554 1334870282 147773795 680733314
            684925348 1351575736 485331936</internalNodes>
          <leafValues>
            -5.3469544649124146e-01 2.4561819434165955e-01</leafValues></_>
        <_>
          <internalNodes>
            0 -1 400 -610420516 1577483632 -830541048 -784638492
            777834262 -1301963430 1596032760 -305404581</internalNodes>
          <leafValues>
            -2.6971551775932312e-01 5.0323528051376343e-01</leafValues></_>
        <_>
          <internalNodes>
            0 -1 57 -554722817 -611352960 -1359384735 -1343298828
            -730737183 -151914755 -319498461 -473446985</internalNodes>
          <leafValues>
            -2.2902216017246246e-01 5.7335489988327026e-01</leafValues></_>
        <_>
          <internalNodes>
            0 -1 1 -2103271008 -871657435 -1055293349 1326551660
            134419670 -1861541498 -2013114139 486773025</internalNodes>
          <leafValues>
            -4.7527560591697693e-01 2.9833492636680603e-01</leafValues></_></weakClassifiers></_>
    <!-- stage 9 -->
    <_>
      <maxWeakCount>15</maxWeakCount>
      <stageThreshold>-8.1481832265853882e-01</stageThreshold>
      <weakClassifiers>
        <_>
          <internalNodes>
            0 -1 61 536690131 2079997239 2080309118 2074823986 389424678
            930496511 633288502 892807026</internalNodes>
          <leafValues>
            -1.8705035746097565e-01 5.1113259792327881e-01</leafValues></_>
        <_>
          <internalNodes>
            0 -1 372 -1602498861 4161333 1069325757 224107001
            -1130521640 11533883 -1246111974 -1094724869</internalNodes>
          <leafValues>
            -2.3756876587867737e-01 4.8501557111740112e-01</leafValues></_>
        <_>
          <internalNodes>
            0 -1 313 -1223669712 -652032744 -120500007 -1128591211
            -2011056072 -33314767 973246970 981467412</internalNodes>
          <leafValues>
            -4.8729237914085388e-01 2.6372709870338440e-01</leafValues></_>
        <_>
          <internalNodes>
            0 -1 420 -85668968 15907463 1991817700 -2120131176
            -1435593054 -927252785 -1274741632 -33574937</internalNodes>
          <leafValues>
            -2.5567182898521423e-01 4.7653988003730774e-01</leafValues></_>
        <_>
          <internalNodes>
            0 -1 31 -922172790 -826103552 -2122217696 -1464483584
            151005598 -1550647296 1092658689 394994323</internalNodes>
          <leafValues>
            -4.5683959126472473e-01 2.7586102485656738e-01</leafValues></_>
        <_>
          <internalNodes>
            0 -1 344 2075717840 1494503480 487080469 520184005
            -335306568 -207351680 839393930 144381408</internalNodes>
          <leafValues>
            -4.1781094670295715e-01 3.0003291368484497e-01</leafValues></_>
        <_>
          <internalNodes>
            0 -1 275 -45898086 -581952814 -612467207 1100605789
            -1333939974 -1239882799 521204190 -1161091733</internalNodes>
          <leafValues>
            -2.7029469609260559e-01 4.9910679459571838e-01</leafValues></_>
        <_>
          <internalNodes>
            0 -1 291 -2004074284 1552556084 -1342078892 -746174012
            -1283006336 -105217656 941803706 841486424</internalNodes>
          <leafValues>
            -5.4706841707229614e-01 2.5781440734863281e-01</leafValues></_>
        <_>
          <internalNodes>
            0 -1 139 -383715920 -781906752 -268566809 -608395790
            -1219515491 -1255289500 863634062 -1076127029</internalNodes>
          <leafValues>
            -2.7059146761894226e-01 5.6039649248123169e-01</leafValues></_>
        <_>
          <internalNodes>
            0 -1 366 822337808 8806676 285851712 43357367 -2054610664
            -1460992894 -1568263808 150671473</internalNodes>
          <leafValues>
            -5.2250134944915771e-01 2.8562176227569580e-01</leafValues></_>
        <_>
          <internalNodes>
            0 -1 373 -1244080136 -646176788 -1114403 -1646683915
            -393497428 -583180299 -1622104898 -1422977874</internalNodes>
          <leafValues>
            -2.8187155723571777e-01 5.0723767280578613e-01</leafValues></_>
        <_>
          <internalNodes>
            0 -1 218 1080009488 -964640183 37080 928221511 268847357
            -939523824 -268287876 812686007</internalNodes>
          <leafValues>
            -4.8103886842727661e-01 2.9385542869567871e-01</leafValues></_>
        <_>
          <internalNodes>
            0 -1 132 -463745807 -631290531 -76817177 1386409343
            -1611604860 -1615503692 188639483 -600813069</internalNodes>
          <leafValues>
            -2.7354702353477478e-01 5.0588196516036987e-01</leafValues></_>
        <_>
          <internalNodes>
            0 -1 196 -755833717 2071764264 -575797343 331134901
            -2094096392 -1998655649 -1116374293 -1107086151</internalNodes>
          <leafValues>
            -2.5946763157844543e-01 5.6721526384353638e-01</leafValues></_>
        <_>
          <internalNodes>
            0 -1 58 -621365726 1457888868 -386636109 -1164990734
            -1568901118 -25856136 -1487620252 -1082965209</internalNodes>
          <leafValues>
            -3.1102567911148071e-01 4.5658263564109802e-01</leafValues></_></weakClassifiers></_>
    <!-- stage 10 -->
    <_>
      <maxWeakCount>16</maxWeakCount>
      <stageThreshold>-7.7282357215881348e-01</stageThreshold>
      <weakClassifiers>
        <_>
          <internalNodes>
            0 -1 261 -400008040 -36102732 -4374537 -672129924 -155547146
            -172720263 -1388667713 464198872</internalNodes>
          <leafValues>
            -7.8970715403556824e-02 5.5781161785125732e-01</leafValues></_>
        <_>
          <internalNodes>
            0 -1 174 239444616 20226515 687988743 998736519 629400811
            453198290 186552510 448771293</internalNodes>
          <leafValues>
            -3.9089587330818176e-01 2.9799804091453552e-01</leafValues></_>
        <_>
          <internalNodes>
            0 -1 416 -663492588 -1073291720 2096081140 -891439934
            -1640117582 -1939540198 -1186993023 -356518421</internalNodes>
          <leafValues>
            -2.3503567278385162e-01 4.9186715483665466e-01</leafValues></_>
        <_>
          <internalNodes>
            0 -1 92 -99814667 -786024208 -1968280665 213643249 988223051
            2000974280 2104968111 -9472203</internalNodes>
          <leafValues>
            -2.9338079690933228e-01 4.1662591695785522e-01</leafValues></_>
        <_>
          <internalNodes>
            0 -1 32 -1738871776 1075184768 -2097018620 1233147972
            1111753697 1153638541 -221044223 -70266187</internalNodes>
          <leafValues>
            -4.1343778371810913e-01 2.9444813728332520e-01</leafValues></_>
        <_>
          <internalNodes>
            0 -1 146 -2096924786 420102935 17629468 1390047360 705889889
            -1828527544 933993736 981206276</internalNodes>
          <leafValues>
            -5.3973406553268433e-01 2.3687241971492767e-01</leafValues></_>
        <_>
          <internalNodes>
            0 -1 2 -1035272512 -528449276 16512 -1056964602 1615052936
            -2013233021 -2145304437 1361248563</internalNodes>
          <leafValues>
            -4.4879528880119324e-01 2.7484744787216187e-01</leafValues></_>
        <_>
          <internalNodes>
            0 -1 156 -2080055052 -2137849334 554750426 1929679445
            -1979711248 -18720600 1225868286 -1153236549</internalNodes>
          <leafValues>
            -3.3658531308174133e-01 4.1142380237579346e-01</leafValues></_>
        <_>
          <internalNodes>
            0 -1 96 -997929976 -99631446 -83988816 -1260958155
            -554240026 14527412 -1294574333 -558955136</internalNodes>
          <leafValues>
            -3.2419615983963013e-01 4.0660026669502258e-01</leafValues></_>
        <_>
          <internalNodes>
            0 -1 200 -867954504 -1164410728 -264154871 -1956019123
            -1691831864 -2075065684 -1601174049 990384189</internalNodes>
          <leafValues>
            -4.2631232738494873e-01 3.2092311978340149e-01</leafValues></_>
        <_>
          <internalNodes>
            0 -1 316 -1820285768 -71720944 419561843 -45477712
            -2084666848 -1635678048 -2142622998 730503225</internalNodes>
          <leafValues>
            -4.0893781185150146e-01 3.3746093511581421e-01</leafValues></_>
        <_>
          <internalNodes>
            0 -1 194 -970432856 1575758965 -1161685381 960107837
            -1101988366 -1781153943 -2028447845 -1205986147</internalNodes>
          <leafValues>
            -3.3876723051071167e-01 4.3143376708030701e-01</leafValues></_>
        <_>
          <internalNodes>
            0 -1 109 -779079104 1404199765 1228931338 -1156474762
            1800663782 -1970118255 18039400 2124710725</internalNodes>
          <leafValues>
            -4.3528100848197937e-01 3.3704841136932373e-01</leafValues></_>
        <_>
          <internalNodes>
            0 -1 329 1086364512 276939658 1325434003 1388102108
            -536762120 480755720 -670551547 143134836</internalNodes>
          <leafValues>
            -5.7573121786117554e-01 2.4314321577548981e-01</leafValues></_>
        <_>
          <internalNodes>
            0 -1 102 -231757648 -622073448 1487351040 -4076439
            -1871497564 -833495488 827494978 -4470549</internalNodes>
          <leafValues>
            -2.5350853800773621e-01 5.5628299713134766e-01</leafValues></_>
        <_>
          <internalNodes>
            0 -1 340 -777365888 -16191712 -17834277 1514757229
            -1212006984 -110623107 789265343 -1836329924</internalNodes>
          <leafValues>
            -3.2662233710289001e-01 4.4501903653144836e-01</leafValues></_></weakClassifiers></_>
    <!-- stage 11 -->
    <_>
      <maxWeakCount>15</maxWeakCount>
      <stageThreshold>-1.0441262722015381e+00</stageThreshold>
      <weakClassifiers>
        <_>
          <internalNodes>
            0 -1 142 -2088700688 -668752672 790124753 1910383229
            -1999403358 -199162604 610837814 -1752203228</internalNodes>
          <leafValues>
            4.7319780148492207e-17 6.0080105066299438e-01</leafValues></_>
        <_>
          <internalNodes>
            0 -1 288 -2035779372 -259391348 -2080096236 1452494345
            -2009554703 -392064634 722514618 454709480</internalNodes>
          <leafValues>
            -4.2836192250251770e-01 2.7203291654586792e-01</leafValues></_>
        <_>
          <internalNodes>
            0 -1 419 -956303805 246144572 -402788755 -1830038402
            -74641809 -1895907588 1859501223 -385876337</internalNodes>
          <leafValues>
            -1.8338955938816071e-01 6.5544569492340088e-01</leafValues></_>
        <_>
          <internalNodes>
            0 -1 272 -107812648 -596636464 888536867 -215523368
            -560931922 -558268932 -1093761542 -4222818</internalNodes>
          <leafValues>
            -2.1434520184993744e-01 5.7201123237609863e-01</leafValues></_>
        <_>
          <internalNodes>
            0 -1 247 -559162758 -776241928 871032629 1604281044
            -572481902 -54434218 458545391 -1659681525</internalNodes>
          <leafValues>
            -2.2943806648254395e-01 5.1389437913894653e-01</leafValues></_>
        <_>
          <internalNodes>
            0 -1 21 -762271072 -2012041016 1128267796 -876433934
            -1476033742 -1857355499 8474661 1430642854</internalNodes>
          <leafValues>
            -4.9002909660339355e-01 2.4989959597587585e-01</leafValues></_>
        <_>
          <internalNodes>
            0 -1 301 1974200595 1915288940 1044295152 2034496867
            -194799622 -94683327 -1724315464 409623703</internalNodes>
          <leafValues>
            -3.0858922004699707e-01 3.9788401126861572e-01</leafValues></_>
        <_>
          <internalNodes>
            0 -1 265 411059216 272392344 268833267 258951222 -1174265709
            1215633449 413481469 211955195</internalNodes>
          <leafValues>
            -6.1738061904907227e-01 2.0728294551372528e-01</leafValues></_>
        <_>
          <internalNodes>
            0 -1 97 -399277414 1820587173 -166614 -549995322 -268727110
            -1107410950 1475810201 -859846582</internalNodes>
          <leafValues>
            -2.5663992762565613e-01 5.0143378973007202e-01</leafValues></_>
        <_>
          <internalNodes>
            0 -1 76 -486351621 -254848816 51155530 1635895700
            -1728015246 1518485508 355824192 1034395877</internalNodes>
          <leafValues>
            -3.9483049511909485e-01 3.3415356278419495e-01</leafValues></_>
        <_>
          <internalNodes>
            0 -1 412 -251155821 1409378710 1793522698 -789717770
            -1124097002 611956604 -1915423252 -453269858</internalNodes>
          <leafValues>
            -2.2322301566600800e-01 5.7726526260375977e-01</leafValues></_>
        <_>
          <internalNodes>
            0 -1 182 -1951870440 -1935802302 268602716 1455604244
            151556756 -108363640 -1976911044 404750744</internalNodes>
          <leafValues>
            -6.0701262950897217e-01 2.4565595388412476e-01</leafValues></_>
        <_>
          <internalNodes>
            0 -1 278 -222768584 -676248896 1576756661 2040704405
            -1660705862 -540082188 -564728613 -1169619953</internalNodes>
          <leafValues>
            -3.1946855783462524e-01 4.4498261809349060e-01</leafValues></_>
        <_>
          <internalNodes>
            0 -1 290 -726648167 -1532061572 -1698803711 -773315337
            191885009 -526307389 191571635 776753368</internalNodes>
          <leafValues>
            -3.8416111469268799e-01 3.9778771996498108e-01</leafValues></_>
        <_>
          <internalNodes>
            0 -1 266 -1649746189 1885003486 -1610686801 -661658091
            -1484999512 -273154183 -1892633476 -1355685702</internalNodes>
          <leafValues>
            -2.6906469464302063e-01 5.3545010089874268e-01</leafValues></_></weakClassifiers></_>
    <!-- stage 12 -->
    <_>
      <maxWeakCount>17</maxWeakCount>
      <stageThreshold>-1.3371441364288330e+00</stageThreshold>
      <weakClassifiers>
        <_>
          <internalNodes>
            0 -1 82 -611949952 -129539408 1928582896 -1840223180
            34932486 2002867575 1475568998 1932871457</internalNodes>
          <leafValues>
            -2.9349735379219055e-01 4.5774346590042114e-01</leafValues></_>
        <_>
          <internalNodes>
            0 -1 378 -561603948 -237490402 -1887170835 -598916134
            -1364685176 -601049240 -1170277186 -1413763863</internalNodes>
          <leafValues>
            -2.0588466525077820e-01 5.3252840042114258e-01</leafValues></_>
        <_>
          <internalNodes>
            0 -1 359 -106240632 -742494536 2009071217 -570616800
            -1625256536 862125949 -1255884358 -1150298894</internalNodes>
          <leafValues>
            -1.9799664616584778e-01 5.3846997022628784e-01</leafValues></_>
        <_>
          <internalNodes>
            0 -1 184 -1333201456 -734489896 411389437 1351337105
            -98530800 -104127840 490776479 529176901</internalNodes>
          <leafValues>
            -4.0468171238899231e-01 2.8578302264213562e-01</leafValues></_>
        <_>
          <internalNodes>
            0 -1 128 -380443998 -89184360 938909506 -1648764939
            1873010626 -729516175 -441322546 -122960725</internalNodes>
          <leafValues>
            -2.1004800498485565e-01 5.7066345214843750e-01</leafValues></_>
        <_>
          <internalNodes>
            0 -1 59 1600629034 -1620515296 -268798854 1450392936
            394045546 -320053487 -1123688044 -531107050</internalNodes>
          <leafValues>
            -2.5343969464302063e-01 4.7831231355667114e-01</leafValues></_>
        <_>
          <internalNodes>
            0 -1 123 -888815614 -716070590 -1459549820 957747540
            -245329673 50901136 1552989115 9500868</internalNodes>
          <leafValues>
            -4.2764905095100403e-01 3.0161061882972717e-01</leafValues></_>
        <_>
          <internalNodes>
            0 -1 168 1384702706 -679247738 286284863 2060223427
            -2147273583 -1206755115 723751832 1577259219</internalNodes>
          <leafValues>
            -3.5098630189895630e-01 3.5052299499511719e-01</leafValues></_>
        <_>
          <internalNodes>
            0 -1 395 -393557003 -2005611461 -1075151643 49282412
            394246357 -1392508930 -138417124 -658516894</internalNodes>
          <leafValues>
            -2.7575254440307617e-01 4.4514289498329163e-01</leafValues></_>
        <_>
          <internalNodes>
            0 -1 219 -1508685624 -171950048 -1743727150 -682622908
            -2109697128 -1878519680 151012842 -1692915543</internalNodes>
          <leafValues>
            -3.7983599305152893e-01 3.3046594262123108e-01</leafValues></_>
        <_>
          <internalNodes>
            0 -1 354 1617151928 -502250407 -1810297208 -1877929893
            -1862035324 8454536 271697538 -2104262309</internalNodes>
          <leafValues>
            -3.6491212248802185e-01 3.5443493723869324e-01</leafValues></_>
        <_>
          <internalNodes>
            0 -1 224 -250887276 -234093516 805569237 1595326553
            445166120 -1681887070 436918610 440960275</internalNodes>
          <leafValues>
            -3.7986886501312256e-01 3.4438559412956238e-01</leafValues></_>
        <_>
          <internalNodes>
            0 -1 120 -1117970918 -108252782 16973843 1493379735
            1355217051 -964148471 558510271 790241444</internalNodes>
          <leafValues>
            -4.7539523243904114e-01 2.6589760184288025e-01</leafValues></_>
        <_>
          <internalNodes>
            0 -1 101 -883633438 -284873056 -285234160 -177756360
            -268528758 1447933810 -1912677566 -67121078</internalNodes>
          <leafValues>
            -2.5600209832191467e-01 5.4993617534637451e-01</leafValues></_>
        <_>
          <internalNodes>
            0 -1 183 1485833716 -1377140728 1879054393 -540622450
            -1148021632 -1857519480 -1827139431 197792024</internalNodes>
          <leafValues>
            -5.2672517299652100e-01 2.7420398592948914e-01</leafValues></_>
        <_>
          <internalNodes>
            0 -1 14 -998186282 275284241 1074843648 478446982
            -1463695160 1409417218 -1979668287 -2056130444</internalNodes>
          <leafValues>
            -5.5077099800109863e-01 2.4757741391658783e-01</leafValues></_>
        <_>
          <internalNodes>
            0 -1 418 -55987280 6741740 -1409288564 -960520403 629116661
            1160757214 1052296851 -827853649</internalNodes>
          <leafValues>
            -3.1756284832954407e-01 4.7159016132354736e-01</leafValues></_></weakClassifiers></_>
    <!-- stage 13 -->
    <_>
      <maxWeakCount>16</maxWeakCount>
      <stageThreshold>-9.7339773178100586e-01</stageThreshold>
      <weakClassifiers>
        <_>
          <internalNodes>
            0 -1 287 -1642053488 1608143056 987655165 316282908
            1059076784 -1075697125 1069057394 168432889</internalNodes>
          <leafValues>
            -2.2788204252719879e-01 4.9675023555755615e-01</leafValues></_>
        <_>
          <internalNodes>
            0 -1 409 -76299550 -1329064911 -89358532 811691120
            -699771896 -714590431 -470047038 -97279154</internalNodes>
          <leafValues>
            -2.3852622509002686e-01 4.7412014007568359e-01</leafValues></_>
        <_>
          <internalNodes>
            0 -1 177 -1625250288 -221923326 503054077 -551178780
            -1171194638 -1617038137 -1384474997 -1626860111</internalNodes>
          <leafValues>
            -2.7430713176727295e-01 4.2754870653152466e-01</leafValues></_>
        <_>
          <internalNodes>
            0 -1 254 -457386312 -51295144 506626491 364793529
            -1258187590 -1112783492 -569867589 -1090298694</internalNodes>
          <leafValues>
            -2.6596438884735107e-01 4.5081040263175964e-01</leafValues></_>
        <_>
          <internalNodes>
            0 -1 73 1611929259 815087776 -779840852 304010250 268779711
            16990880 1900093915 2056017539</internalNodes>
          <leafValues>
            -4.6162745356559753e-01 2.5645783543586731e-01</leafValues></_>
        <_>
          <internalNodes>
            0 -1 100 -1024819016 -248713922 788268326 -236418834
            -822939224 393074149 836677811 -74202985</internalNodes>
          <leafValues>
            -2.3259475827217102e-01 5.3206115961074829e-01</leafValues></_>
        <_>
          <internalNodes>
            0 -1 257 1512956592 -1654567696 -537112485 855204600
            -1078334032 -1709605174 1446090267 -1689539359</internalNodes>
          <leafValues>
            -3.0846124887466431e-01 4.3959075212478638e-01</leafValues></_>
        <_>
          <internalNodes>
            0 -1 402 -763897694 987811436 251426865 1688549715
            -1271886354 -843300972 -298770808 -13925238</internalNodes>
          <leafValues>
            -2.4389263987541199e-01 5.1309585571289062e-01</leafValues></_>
        <_>
          <internalNodes>
            0 -1 214 -545206024 -107479013 400972465 1501219492
            -1984547663 -1709731097 -1653776418 -1843789336</internalNodes>
          <leafValues>
            -2.7723291516304016e-01 4.4772654771804810e-01</leafValues></_>
        <_>
          <internalNodes>
            0 -1 278 -779427088 -1794865680 1095500055 2034237648
            81896154 -358580056 18989247 151244025</internalNodes>
          <leafValues>
            -4.2533323168754578e-01 3.1327599287033081e-01</leafValues></_>
        <_>
          <internalNodes>
            0 -1 294 -1830246224 2045992277 -402743300 -1646059979
            -1221029193 -210600128 -2093828609 -1352726033</internalNodes>
          <leafValues>
            -2.2856275737285614e-01 5.7094788551330566e-01</leafValues></_>
        <_>
          <internalNodes>
            0 -1 422 842842656 67972223 2080362172 392994032 -1579312386
            -1535967306 -1688829970 -1647332929</internalNodes>
          <leafValues>
            -3.4617763757705688e-01 3.9967951178550720e-01</leafValues></_>
        <_>
          <internalNodes>
            0 -1 157 -302597464 -695093708 239005117 1158698694
            -1304404289 -1777843403 -85494541 -284563561</internalNodes>
          <leafValues>
            -2.6311984658241272e-01 5.3127574920654297e-01</leafValues></_>
        <_>
          <internalNodes>
            0 -1 245 -1466869288 749748678 68502930 416563524 463548801
            238256285 293685440 1550688804</internalNodes>
          <leafValues>
            -5.4171067476272583e-01 2.6462855935096741e-01</leafValues></_>
        <_>
          <internalNodes>
            0 -1 205 -1022754584 -1309588983 1396969548 1531348177
            -167722862 2018050564 321295290 445257864</internalNodes>
          <leafValues>
            -5.5604732036590576e-01 2.4284476041793823e-01</leafValues></_>
        <_>
          <internalNodes>
            0 -1 68 1592735514 345065715 134267484 544475776 2014015568
            -861913085 1082274580 1129595475</internalNodes>
          <leafValues>
            -5.8747422695159912e-01 2.4795369803905487e-01</leafValues></_></weakClassifiers></_>
    <!-- stage 14 -->
    <_>
      <maxWeakCount>15</maxWeakCount>
      <stageThreshold>-6.4932703971862793e-01</stageThreshold>
      <weakClassifiers>
        <_>
          <internalNodes>
            0 -1 279 748723424 -778892 -1167090178 498215532 489983160
            1067324917 272239568 430966796</internalNodes>
          <leafValues>
            -3.3955225348472595e-01 4.5769882202148438e-01</leafValues></_>
        <_>
          <internalNodes>
            0 -1 54 -739260441 -311195870 -541823312 -339150176
            -1875457003 -304208053 2045113856 -242093069</internalNodes>
          <leafValues>
            -2.2519269585609436e-01 4.6177420020103455e-01</leafValues></_>
        <_>
          <internalNodes>
            0 -1 411 -118510198 1478285852 1823095072 405463804
            -719540222 798429564 1587998090 -243542405</internalNodes>
          <leafValues>
            -2.4284727871417999e-01 4.5140552520751953e-01</leafValues></_>
        <_>
          <internalNodes>
            0 -1 421 -1350843748 1088749291 2122128057 -419439178
            -1350501681 1138225139 183680730 -622856229</internalNodes>
          <leafValues>
            -2.8693202137947083e-01 4.4233882427215576e-01</leafValues></_>
        <_>
          <internalNodes>
            0 -1 330 1891168600 -221298224 290128777 -1651027520
            269109653 -2104909688 -1328895981 453118188</internalNodes>
          <leafValues>
            -4.6336558461189270e-01 2.6547247171401978e-01</leafValues></_>
        <_>
          <internalNodes>
            0 -1 25 -2043812958 -1542780924 -1071480640 -1599965146
            67745934 1220116945 128012581 -380764800</internalNodes>
          <leafValues>
            -3.5862883925437927e-01 3.4497258067131042e-01</leafValues></_>
        <_>
          <internalNodes>
            0 -1 221 -301825880 -78575184 840272441 -343797352
            -2004182912 -2000568160 1761795876 -1153777512</internalNodes>
          <leafValues>
            -3.4850406646728516e-01 3.6854124069213867e-01</leafValues></_>
        <_>
          <internalNodes>
            0 -1 71 294398306 -218103295 -1006616370 1532233756 80321165
            1661205395 1107615752 1903579938</internalNodes>
          <leafValues>
            -4.6078366041183472e-01 2.9862976074218750e-01</leafValues></_>
        <_>
          <internalNodes>
            0 -1 249 1957424096 -745435514 -1147128591 1362857201
            -119738452 -1250356738 -35595683 -1421899535</internalNodes>
          <leafValues>
            -2.9980805516242981e-01 4.7717806696891785e-01</leafValues></_>
        <_>
          <internalNodes>
            0 -1 4 -1610475518 -1845427627 1359196437 395936237
            1083813566 1115783204 -939009303 1682117006</internalNodes>
          <leafValues>
            -3.8425618410110474e-01 3.5814815759658813e-01</leafValues></_>
        <_>
          <internalNodes>
            0 -1 161 -802651488 -1280920339 -1343439386 -55329045
            532318418 -1510203458 -1922378057 -376830824</internalNodes>
          <leafValues>
            -3.3793947100639343e-01 4.0761455893516541e-01</leafValues></_>
        <_>
          <internalNodes>
            0 -1 403 -756359040 -578918674 603467624 -1877308952
            -736178008 -285872276 -221315958 -12190813</internalNodes>
          <leafValues>
            -2.9112249612808228e-01 4.8787561058998108e-01</leafValues></_>
        <_>
          <internalNodes>
            0 -1 42 -895253117 -796930499 -822296720 1408402928
            629260592 -1536731436 112707031 -213176521</internalNodes>
          <leafValues>
            -2.7791059017181396e-01 4.9184203147888184e-01</leafValues></_>
        <_>
          <internalNodes>
            0 -1 292 -231480329 -997397278 -218818784 298142462
            -411402452 11090628 939392456 433812028</internalNodes>
          <leafValues>
            -3.2239717245101929e-01 4.2797741293907166e-01</leafValues></_>
        <_>
          <internalNodes>
            0 -1 382 -228007224 318799877 -1065353152 -2013183392
            1073758210 -2147270648 -767524736 218088687</internalNodes>
          <leafValues>
            -4.3562847375869751e-01 3.1740772724151611e-01</leafValues></_></weakClassifiers></_>
    <!-- stage 15 -->
    <_>
      <maxWeakCount>19</maxWeakCount>
      <stageThreshold>-1.0605484247207642e+00</stageThreshold>
      <weakClassifiers>
        <_>
          <internalNodes>
            0 -1 314 -1430777832 -556181572 -1212170819 484397180
            -1082598402 -237572 -1617383748 1058675948</internalNodes>
          <leafValues>
            -2.2359396517276764e-01 4.8963612318038940e-01</leafValues></_>
        <_>
          <internalNodes>
            0 -1 216 -122101352 -332688095 259743225 -616708356
            -1263884324 1340977136 788591778 -1145568008</internalNodes>
          <leafValues>
            -2.6005288958549500e-01 4.0316849946975708e-01</leafValues></_>
        <_>
          <internalNodes>
            0 -1 374 -223821432 -12496647 -8479431 -639017483 -334973518
            -749556934 1633107550 -1148474741</internalNodes>
          <leafValues>
            -1.9161966443061829e-01 5.7738256454467773e-01</leafValues></_>
        <_>
          <internalNodes>
            0 -1 134 38472154 555528419 -1794784621 299782356 4298901
            1061573000 38118122 733872367</internalNodes>
          <leafValues>
            -4.9610903859138489e-01 2.2063882648944855e-01</leafValues></_>
        <_>
          <internalNodes>
            0 -1 88 -231357710 -706764856 2130165756 1339937487
            759181892 -233473415 1062835280 -545282885</internalNodes>
          <leafValues>
            -2.3474602401256561e-01 5.2434694766998291e-01</leafValues></_>
        <_>
          <internalNodes>
            0 -1 300 -1604808560 -741239168 -1056734851 -574144312
            665486002 -1197416182 -1761022065 -1735784372</internalNodes>
          <leafValues>
            -3.5373702645301819e-01 3.2846838235855103e-01</leafValues></_>
        <_>
          <internalNodes>
            0 -1 353 -1670388089 -658538504 -50823171 -369248810
            -907027236 -302514509 -2001412909 -1996503825</internalNodes>
          <leafValues>
            -2.1809600293636322e-01 5.6797838211059570e-01</leafValues></_>
        <_>
          <internalNodes>
            0 -1 5 -2011168766 -1761390450 1367900245 689547867
            1094853011 270008465 596747193 1566964151</internalNodes>
          <leafValues>
            -4.2946678400039673e-01 3.1185635924339294e-01</leafValues></_>
        <_>
          <internalNodes>
            0 -1 151 824727613 -1340516087 675552465 1258623519
            730030795 -1448015808 1864471449 791109774</internalNodes>
          <leafValues>
            -3.4641084074974060e-01 3.7342733144760132e-01</leafValues></_>
        <_>
          <internalNodes>
            0 -1 213 -549935472 -676004167 -604128027 -67150631
            -1090680133 -172072979 129088418 -235203447</internalNodes>
          <leafValues>
            -2.6880252361297607e-01 5.1011162996292114e-01</leafValues></_>
        <_>
          <internalNodes>
            0 -1 384 -936380288 -1120612762 -890859920 1969303463
            914106384 -421199919 -1567128324 -1666327041</internalNodes>
          <leafValues>
            -3.1291326880455017e-01 4.1461750864982605e-01</leafValues></_>
        <_>
          <internalNodes>
            0 -1 348 -214367048 -725414037 2128088445 1387681200
            1260488328 -525535883 -1612931370 -1636265556</internalNodes>
          <leafValues>
            -3.2938820123672485e-01 3.9945578575134277e-01</leafValues></_>
        <_>
          <internalNodes>
            0 -1 236 -1248298804 -1454862 645640567 856918004 1797624578
            -537154310 117540767 -1685082791</internalNodes>
          <leafValues>
            -3.2588303089141846e-01 4.2663735151290894e-01</leafValues></_>
        <_>
          <internalNodes>
            0 -1 204 -1090482116 -181338024 -788299747 810430544
            -1298136162 -542080885 1476976701 1514691752</internalNodes>
          <leafValues>
            -4.8945614695549011e-01 2.9638028144836426e-01</leafValues></_>
        <_>
          <internalNodes>
            0 -1 89 -411508071 1720372255 -901976342 2011102428
            1163931158 -457676940 -1239007922 -1286357535</internalNodes>
          <leafValues>
            -3.2504418492317200e-01 4.2549258470535278e-01</leafValues></_>
        <_>
          <internalNodes>
            0 -1 45 1853869851 -319754446 -1376321552 -303760900
            1684395748 946911095 -1212819990 -1026301801</internalNodes>
          <leafValues>
            -2.7021518349647522e-01 5.1061666011810303e-01</leafValues></_>
        <_>
          <internalNodes>
            0 -1 352 -2146418672 1354842832 -787693547 450654346
            -1476343160 -350224216 -1856974716 -72736533</internalNodes>
          <leafValues>
            -3.8590353727340698e-01 3.6817646026611328e-01</leafValues></_>
        <_>
          <internalNodes>
            0 -1 104 -752161878 -114498836 2130631202 1907067612
            -193814590 -956549564 -2059426443 -56896366</internalNodes>
          <leafValues>
            -2.6278808712959290e-01 5.3183418512344360e-01</leafValues></_>
        <_>
          <internalNodes>
            0 -1 372 806407905 9593756 1288704086 114364717 -1861579967
            277330083 -1551351162 452856185</internalNodes>
          <leafValues>
            -5.1453655958175659e-01 2.8254887461662292e-01</leafValues></_></weakClassifiers></_>
    <!-- stage 16 -->
    <_>
      <maxWeakCount>17</maxWeakCount>
      <stageThreshold>-7.7747291326522827e-01</stageThreshold>
      <weakClassifiers>
        <_>
          <internalNodes>
            0 -1 242 455098616 414144696 196825963 458294512 1035366480
            945682019 186920534 467344851</internalNodes>
          <leafValues>
            -1.6705882549285889e-01 5.0829267501831055e-01</leafValues></_>
        <_>
          <internalNodes>
            0 -1 17 -787494518 33691715 -1073624558 1107345538
            -805306296 42975232 -1065279488 1043818035</internalNodes>
          <leafValues>
            -3.3747634291648865e-01 3.3418586850166321e-01</leafValues></_>
        <_>
          <internalNodes>
            0 -1 274 -927828784 -63009416 2116059089 1966708397
            -1841381190 -1162703579 -1364615269 -1171618655</internalNodes>
          <leafValues>
            -2.6040539145469666e-01 4.5077735185623169e-01</leafValues></_>
        <_>
          <internalNodes>
            0 -1 395 -997857936 -2004823359 -587068615 1650053148
            -1291595488 -1784966467 44234944 442490582</internalNodes>
          <leafValues>
            -3.7363365292549133e-01 3.1208670139312744e-01</leafValues></_>
        <_>
          <internalNodes>
            0 -1 286 -1750596456 1346633968 286331103 1536071060
            -2092703502 -1240956735 520313083 464658904</internalNodes>
          <leafValues>
            -4.2982465028762817e-01 2.7703553438186646e-01</leafValues></_>
        <_>
          <internalNodes>
            0 -1 211 -1307950896 -637992880 -2147257459 1225719952
            -1433452072 -23646144 219083917 436212753</internalNodes>
          <leafValues>
            -4.8293063044548035e-01 2.4918943643569946e-01</leafValues></_>
        <_>
          <internalNodes>
            0 -1 3 194161282 1502119936 469975066 1941413888 404752553
            -2130704103 1766327355 91578928</internalNodes>
          <leafValues>
            -5.0501859188079834e-01 2.3029865324497223e-01</leafValues></_>
        <_>
          <internalNodes>
            0 -1 302 355980115 -1596955083 1585314309 1487924513
            99956964 -496468835 -160975292 -1065877821</internalNodes>
          <leafValues>
            -2.9947081208229065e-01 4.2705106735229492e-01</leafValues></_>
        <_>
          <internalNodes>
            0 -1 375 -54493144 -48754968 1937501319 -295216124
            -1390108930 -554828012 -1429092391 -7624309</internalNodes>
          <leafValues>
            -2.2253397107124329e-01 5.6838977336883545e-01</leafValues></_>
        <_>
          <internalNodes>
            0 -1 86 -607926352 362397717 269241462 1283791272 1665221634
            1046118961 42041453 1832087603</internalNodes>
          <leafValues>
            -4.6748888492584229e-01 2.6231729984283447e-01</leafValues></_>
        <_>
          <internalNodes>
            0 -1 140 -2143031072 -474907931 738098809 1505406458
            -2074878297 -1125376614 844954537 -1848879673</internalNodes>
          <leafValues>
            -2.9247450828552246e-01 4.1772863268852234e-01</leafValues></_>
        <_>
          <internalNodes>
            0 -1 379 -592061296 1495547770 2059002165 -2050394085
            670279378 -77721776 -1676748662 -1369448225</internalNodes>
          <leafValues>
            -2.6458469033241272e-01 4.9449694156646729e-01</leafValues></_>
        <_>
          <internalNodes>
            0 -1 358 -1898363720 -1312377104 1022981788 -1968617183
            -1116306220 -708847748 -1918982504 -2015863118</internalNodes>
          <leafValues>
            -3.2302027940750122e-01 4.0010032057762146e-01</leafValues></_>
        <_>
          <internalNodes>
            0 -1 228 -101854502 2129571952 -302415757 62917769 750695078
            -1180467496 -1634855297 520685132</internalNodes>
          <leafValues>
            -3.5747823119163513e-01 3.7354749441146851e-01</leafValues></_>
        <_>
          <internalNodes>
            0 -1 152 -647248226 1325066020 1858066707 1562735200
            896856734 -1963662468 -1486068301 -1080086808</internalNodes>
          <leafValues>
            -2.6303204894065857e-01 5.1498538255691528e-01</leafValues></_>
        <_>
          <internalNodes>
            0 -1 13 1246688834 -1677655771 420123016 -1323138420
            71475826 -1874690048 -892558838 1428619691</internalNodes>
          <leafValues>
            -3.8160416483879089e-01 3.6683604121208191e-01</leafValues></_>
        <_>
          <internalNodes>
            0 -1 112 -106829025 1643638578 687411293 426360184 92259062
            2127164671 559746142 -1896687920</internalNodes>
          <leafValues>
            -2.7851930260658264e-01 5.1705080270767212e-01</leafValues></_></weakClassifiers></_>
    <!-- stage 17 -->
    <_>
      <maxWeakCount>17</maxWeakCount>
      <stageThreshold>-9.5375400781631470e-01</stageThreshold>
      <weakClassifiers>
        <_>
          <internalNodes>
            0 -1 388 -2140295644 754560695 -289472788 184201146
            804129148 754188285 1224633488 7668816</internalNodes>
          <leafValues>
            -3.3593750000000000e-01 4.4891121983528137e-01</leafValues></_>
        <_>
          <internalNodes>
            0 -1 79 -502563354 -78689497 16781934 814352007 168256547
            2014462209 2028036676 1936978770</internalNodes>
          <leafValues>
            -3.6867636442184448e-01 2.9725444316864014e-01</leafValues></_>
        <_>
          <internalNodes>
            0 -1 48 1222901414 -351557016 754597746 -1956190560
            1158874634 -1233865362 1609954961 -438316937</internalNodes>
          <leafValues>
            -2.3863263428211212e-01 4.6455112099647522e-01</leafValues></_>
        <_>
          <internalNodes>
            0 -1 303 -1051740700 7373329 1107739786 -1572351738
            839942289 -1463090653 -1066893176 -119450188</internalNodes>
          <leafValues>
            -3.6604610085487366e-01 3.0140078067779541e-01</leafValues></_>
        <_>
          <internalNodes>
            0 -1 80 -591686189 1601695584 -471334921 -688841492
            659894358 661714804 -684665670 -813697925</internalNodes>
          <leafValues>
            -2.3644515872001648e-01 5.7501614093780518e-01</leafValues></_>
        <_>
          <internalNodes>
            0 -1 258 -1684088104 -753138532 2047004957 -1675820912
            -985118222 -166557688 385913287 404231313</internalNodes>
          <leafValues>
            -4.5269048213958740e-01 2.7036198973655701e-01</leafValues></_>
        <_>
          <internalNodes>
            0 -1 297 2014049370 -749560586 1402281269 95485103
            -319518680 -588778386 -2076715832 -756097441</internalNodes>
          <leafValues>
            -2.9364165663719177e-01 4.4308477640151978e-01</leafValues></_>
        <_>
          <internalNodes>
            0 -1 241 -804779952 1665142992 1141981647 65280586 975233294
            -334421875 -1104631678 958537953</internalNodes>
          <leafValues>
            -4.7786146402359009e-01 2.6495844125747681e-01</leafValues></_>
        <_>
          <internalNodes>
            0 -1 248 -550446918 -69198396 1820127099 -797470987
            -1134965319 -1044382212 1014685623 -1145716692</internalNodes>
          <leafValues>
            -3.0227613449096680e-01 4.5817828178405762e-01</leafValues></_>
        <_>
          <internalNodes>
            0 -1 393 34650504 -2142195508 407081415 1221231040 679817344
            -1841095278 137744648 2613689</internalNodes>
          <leafValues>
            -5.2408844232559204e-01 2.6296603679656982e-01</leafValues></_>
        <_>
          <internalNodes>
            0 -1 323 -633888583 493426502 2143157971 421102834 296545496
            -23074310 1279048976 2045091218</internalNodes>
          <leafValues>
            -3.2438385486602783e-01 4.2817565798759460e-01</leafValues></_>
        <_>
          <internalNodes>
            0 -1 264 -1825011746 -756136933 -1389760519 1285262581
            -1661206562 -1212252613 958277019 -7009872</internalNodes>
          <leafValues>
            -2.8420716524124146e-01 4.5165789127349854e-01</leafValues></_>
        <_>
          <internalNodes>
            0 -1 322 -760481232 269063383 143138828 136210201 -939441498
            -1029435386 712563760 411761296</internalNodes>
          <leafValues>
            -4.2784568667411804e-01 3.3577713370323181e-01</leafValues></_>
        <_>
          <internalNodes>
            0 -1 237 -1072246764 3196292 -611625573 5800524 1210446310
            178817200 1913934575 416974997</internalNodes>
          <leafValues>
            -5.6460005044937134e-01 2.2587426006793976e-01</leafValues></_>
        <_>
          <internalNodes>
            0 -1 55 2141970367 -1025101870 2130082416 2093907732
            -147483819 -21638487 -1271054835 -281688777</internalNodes>
          <leafValues>
            -2.9723727703094482e-01 4.4921842217445374e-01</leafValues></_>
        <_>
          <internalNodes>
            0 -1 235 -2068310308 345260236 -519892991 822813953
            1267906564 -653631477 -1433288292 466094552</internalNodes>
          <leafValues>
            -5.5771815776824951e-01 2.4414429068565369e-01</leafValues></_>
        <_>
          <internalNodes>
            0 -1 168 -39458695 -1828766987 214490973 774538905
            -1507852798 -1954674974 -1070023738 -853072545</internalNodes>
          <leafValues>
            -2.9106971621513367e-01 4.6895125508308411e-01</leafValues></_></weakClassifiers></_>
    <!-- stage 18 -->
    <_>
      <maxWeakCount>19</maxWeakCount>
      <stageThreshold>-4.6838116645812988e-01</stageThreshold>
      <weakClassifiers>
        <_>
          <internalNodes>
            0 -1 312 -1666688000 2097045460 1069445119 -147104516
            -1111965954 -1079461891 388513493 103291912</internalNodes>
          <leafValues>
            -2.8545120358467102e-01 4.4760289788246155e-01</leafValues></_>
        <_>
          <internalNodes>
            0 -1 0 -324535166 -1373585562 2146959220 -1591312608
            -1074356293 -9224270 1606139706 1918072339</internalNodes>
          <leafValues>
            -2.7555504441261292e-01 3.6747118830680847e-01</leafValues></_>
        <_>
          <internalNodes>
            0 -1 149 939545850 423632955 587486511 -1103940862
            -871194489 151766062 674873692 839471952</internalNodes>
          <leafValues>
            -4.3892338871955872e-01 2.2632923722267151e-01</leafValues></_>
        <_>
          <internalNodes>
            0 -1 350 352964 -922627822 -2147483631 1241583939
            -1073217408 -2112572896 1757940304 1282205821</internalNodes>
          <leafValues>
            -4.9963158369064331e-01 2.0239877700805664e-01</leafValues></_>
        <_>
          <internalNodes>
            0 -1 246 -242421605 -7187327 -1761680595 -1321605715
            -853035618 -1553023584 1458732761 -83763269</internalNodes>
          <leafValues>
            -1.9529950618743896e-01 5.6724500656127930e-01</leafValues></_>
        <_>
          <internalNodes>
            0 -1 95 -2097742925 964659958 779467095 -1212596477
            -183257353 -1758087591 -931398725 -545418333</internalNodes>
          <leafValues>
            -2.1279938519001007e-01 5.7467615604400635e-01</leafValues></_>
        <_>
          <internalNodes>
            0 -1 88 1881325977 -706965686 -1114276895 -752061459
            754979167 1983347569 -736621413 -203430277</internalNodes>
          <leafValues>
            -2.1408008038997650e-01 5.1763129234313965e-01</leafValues></_>
        <_>
          <internalNodes>
            0 -1 159 -1064255367 -465534836 386847223 868762362
            910193456 -106913606 226669279 461398017</internalNodes>
          <leafValues>
            -3.8436055183410645e-01 3.1363075971603394e-01</leafValues></_>
        <_>
          <internalNodes>
            0 -1 252 -479415045 -147236464 -851820549 2115051268
            2086008486 -1891967704 478715853 -1153491717</internalNodes>
          <leafValues>
            -2.2702436149120331e-01 5.2024471759796143e-01</leafValues></_>
        <_>
          <internalNodes>
            0 -1 75 -269697859 -1636827154 1073573487 -67186866
            -1403745786 -1100515499 -682445458 2078795331</internalNodes>
          <leafValues>
            -2.5633311271667480e-01 4.6158847212791443e-01</leafValues></_>
        <_>
          <internalNodes>
            0 -1 360 1326540166 1343797527 268470633 10097158
            -1332042592 -1207922655 -704331759 550884473</internalNodes>
          <leafValues>
            -4.5589783787727356e-01 2.7632623910903931e-01</leafValues></_>
        <_>
          <internalNodes>
            0 -1 220 71843952 252022808 277156547 1582121928 -1988099200
            -1320550367 100911389 221310400</internalNodes>
          <leafValues>
            -5.1225340366363525e-01 2.4289706349372864e-01</leafValues></_>
        <_>
          <internalNodes>
            0 -1 117 2127422194 1570052792 -1535115488 -631256855
            732087382 -529089420 886368247 -525904234</internalNodes>
          <leafValues>
            -3.1074151396751404e-01 4.0114879608154297e-01</leafValues></_>
        <_>
          <internalNodes>
            0 -1 114 -995434456 1342401536 -1473279436 -2033625884
            1014882724 1722166780 -1293961312 -53221844</internalNodes>
          <leafValues>
            -3.4765619039535522e-01 3.8493293523788452e-01</leafValues></_>
        <_>
          <internalNodes>
            0 -1 319 262925980 -1632133485 -126188021 1499080333
            -1896364783 -647633132 -1393109733 -1148576295</internalNodes>
          <leafValues>
            -2.8876030445098877e-01 4.4255995750427246e-01</leafValues></_>
        <_>
          <internalNodes>
            0 -1 116 -325082906 -2130419306 16925240 783360382 34080912
            1754350336 696756426 -1733918382</internalNodes>
          <leafValues>
            -4.0531575679779053e-01 3.3095055818557739e-01</leafValues></_>
        <_>
          <internalNodes>
            0 -1 407 -829103364 1441857498 -285458904 -2099403657
            -277310076 1710977020 -1781056116 -1021180122</internalNodes>
          <leafValues>
            -3.3503675460815430e-01 3.9334216713905334e-01</leafValues></_>
        <_>
          <internalNodes>
            0 -1 380 -584852899 -1061385479 -1367441731 1023921849
            -451162946 -1426723600 -1993243344 -380397345</internalNodes>
          <leafValues>
            -2.5809511542320251e-01 5.1674383878707886e-01</leafValues></_>
        <_>
          <internalNodes>
            0 -1 131 -219613120 -84332868 -1091732511 -1245768289
            -1130301228 2139061817 388088961 -1618608654</internalNodes>
          <leafValues>
            -2.4976964294910431e-01 5.0135600566864014e-01</leafValues></_></weakClassifiers></_>
    <!-- stage 19 -->
    <_>
      <maxWeakCount>14</maxWeakCount>
      <stageThreshold>-9.0807676315307617e-01</stageThreshold>
      <weakClassifiers>
        <_>
          <internalNodes>
            0 -1 70 1698572802 985284818 1584054250 1787453168
            1583626019 -1183231375 645256039 1709200498</internalNodes>
          <leafValues>
            -2.1595598757266998e-01 4.8642429709434509e-01</leafValues></_>
        <_>
          <internalNodes>
            0 -1 369 -1933014411 17711958 188768536 56646018 -1194827272
            1000212669 432214080 987626460</internalNodes>
          <leafValues>
            -3.8258799910545349e-01 2.8320786356925964e-01</leafValues></_>
        <_>
          <internalNodes>
            0 -1 357 -677933872 -863498523 -1128710664 -671462318
            -1531134038 -1111883811 -1246711381 -1081203734</internalNodes>
          <leafValues>
            -2.3484879732131958e-01 4.6882331371307373e-01</leafValues></_>
        <_>
          <internalNodes>
            0 -1 207 -1019567624 2082095384 -1777659447 1345830964
            -1048266568 -485982198 538637232 1596608912</internalNodes>
          <leafValues>
            -3.7474945187568665e-01 2.8921377658843994e-01</leafValues></_>
        <_>
          <internalNodes>
            0 -1 10 134406372 -561921758 -117407732 184791370 -917794094
            -939327359 952008842 1441858101</internalNodes>
          <leafValues>
            -4.7619855403900146e-01 2.2615969181060791e-01</leafValues></_>
        <_>
          <internalNodes>
            0 -1 203 -1052764944 -1063862079 -1015001225 602333
            152227578 -1942585048 176699226 488682628</internalNodes>
          <leafValues>
            -4.9384081363677979e-01 2.1506325900554657e-01</leafValues></_>
        <_>
          <internalNodes>
            0 -1 390 -665948016 -665788208 -2139074240 -899905906
            -134048488 679621414 1476401672 1210417475</internalNodes>
          <leafValues>
            -4.1892400383949280e-01 2.8829643130302429e-01</leafValues></_>
        <_>
          <internalNodes>
            0 -1 90 -96181899 -1734606656 -201111418 579420794
            1913666093 1988758308 949567119 -269523457</internalNodes>
          <leafValues>
            -3.4088104963302612e-01 3.4533795714378357e-01</leafValues></_>
        <_>
          <internalNodes>
            0 -1 136 -1664341376 -678690542 628695519 79728650
            -1409271643 -132429630 402655395 1776992423</internalNodes>
          <leafValues>
            -3.9923432469367981e-01 3.1339234113693237e-01</leafValues></_>
        <_>
          <internalNodes>
            0 -1 49 -1845434270 2056197168 25363266 1737916992 834793905
            -667415536 1908346946 -126617859</internalNodes>
          <leafValues>
            -3.6051684617996216e-01 3.5341110825538635e-01</leafValues></_>
        <_>
          <internalNodes>
            0 -1 225 -850527821 -1863737847 795770517 450142167
            -1139827578 -2093818672 1730131267 -20979801</internalNodes>
          <leafValues>
            -2.6186189055442810e-01 4.9539723992347717e-01</leafValues></_>
        <_>
          <internalNodes>
            0 -1 335 834332866 1763664 554055120 349325381 1766297993
            10060129 1393060355 1908903610</internalNodes>
          <leafValues>
            -4.1109386086463928e-01 3.2825517654418945e-01</leafValues></_>
        <_>
          <internalNodes>
            0 -1 338 -815083328 -1770605939 -931566960 361983650
            529499050 -1602519458 -338207478 -1900292097</internalNodes>
          <leafValues>
            -3.2485133409500122e-01 4.1321197152137756e-01</leafValues></_>
        <_>
          <internalNodes>
            0 -1 108 17834184 1384121362 67749402 9146886 830871553
            -1164490482 1086476802 862994546</internalNodes>
          <leafValues>
            -6.0150831937789917e-01 2.4240872263908386e-01</leafValues></_></weakClassifiers></_>
    <!-- stage 20 -->
    <_>
      <maxWeakCount>18</maxWeakCount>
      <stageThreshold>-9.1125243902206421e-01</stageThreshold>
      <weakClassifiers>
        <_>
          <internalNodes>
            0 -1 365 -1607427912 -102216072 2096950780 -541324175
            -1133495364 -17023105 1052552946 137892888</internalNodes>
          <leafValues>
            -2.6765188574790955e-01 4.6398952603340149e-01</leafValues></_>
        <_>
          <internalNodes>
            0 -1 170 -544224097 -109715746 2069559733 -640735937
            -1100621383 -1110750009 1304821247 -660734777</internalNodes>
          <leafValues>
            -1.2473957240581512e-01 6.5736174583435059e-01</leafValues></_>
        <_>
          <internalNodes>
            0 -1 304 -227871280 -574873508 -296969 498788957 1009258632
            -1880621316 -619061590 -1429600861</internalNodes>
          <leafValues>
            -2.3144720494747162e-01 4.3205356597900391e-01</leafValues></_>
        <_>
          <internalNodes>
            0 -1 78 -678673382 151007615 537920528 1490815508 454502676
            1073748018 1705920285 1716643446</internalNodes>
          <leafValues>
            -4.6239468455314636e-01 2.2732178866863251e-01</leafValues></_>
        <_>
          <internalNodes>
            0 -1 389 -428087353 -584488195 -1157701660 1646636876
            -1344012510 -1520632896 -509155032 951575835</internalNodes>
          <leafValues>
            -3.0438944697380066e-01 3.7850543856620789e-01</leafValues></_>
        <_>
          <internalNodes>
            0 -1 153 -912030093 -260438034 1325383065 566277664
            -1895588519 829054956 28657131 464276977</internalNodes>
          <leafValues>
            -2.8620138764381409e-01 3.8586813211441040e-01</leafValues></_>
        <_>
          <internalNodes>
            0 -1 9 372354646 -266146302 1060219871 1945608286 2138517995
            -1772807054 14904475 -46008718</internalNodes>
          <leafValues>
            -3.2341879606246948e-01 3.6760351061820984e-01</leafValues></_>
        <_>
          <internalNodes>
            0 -1 370 -1304254804 75595984 361237076 18459371 -1601359788
            539730314 -1423343852 713515155</internalNodes>
          <leafValues>
            -4.6949782967567444e-01 2.5530079007148743e-01</leafValues></_>
        <_>
          <internalNodes>
            0 -1 34 -715684990 -41050591 1173314278 -74035478 402114480
            -960309440 661698323 -738462570</internalNodes>
          <leafValues>
            -2.5356808304786682e-01 4.9023017287254333e-01</leafValues></_>
        <_>
          <internalNodes>
            0 -1 186 2041609156 -1149376452 -1074811847 -1843819399
            -943784974 -873965794 395915703 -1740436327</internalNodes>
          <leafValues>
            -3.2478860020637512e-01 3.8686871528625488e-01</leafValues></_>
        <_>
          <internalNodes>
            0 -1 250 1611514160 830645481 8716865 303181836 -1201238081
            2039351315 -1878512997 955400528</internalNodes>
          <leafValues>
            -4.1765260696411133e-01 3.0415663123130798e-01</leafValues></_>
        <_>
          <internalNodes>
            0 -1 123 1546986034 287146058 -2147434428 487965832
            1276638191 1225320641 -446674193 1216494639</internalNodes>
          <leafValues>
            -4.0629214048385620e-01 3.2726049423217773e-01</leafValues></_>
        <_>
          <internalNodes>
            0 -1 102 -596252190 -1057772350 1504603490 -1114782670
            -51267935 -864494376 970446299 -542162758</internalNodes>
          <leafValues>
            -2.4628148972988129e-01 5.3653097152709961e-01</leafValues></_>
        <_>
          <internalNodes>
            0 -1 383 2043519490 157204612 1111670808 164193045
            -1742602232 -937163762 1637509132 68531167</internalNodes>
          <leafValues>
            -3.7331742048263550e-01 3.6265748739242554e-01</leafValues></_>
        <_>
          <internalNodes>
            0 -1 381 -858021728 2021477811 -88277530 1907080958
            -698757424 884756426 1104783098 -215519284</internalNodes>
          <leafValues>
            -2.9646831750869751e-01 4.4441050291061401e-01</leafValues></_>
        <_>
          <internalNodes>
            0 -1 192 939544056 12654748 2065384530 1560449092 973212544
            -1429401390 495756942 1443117056</internalNodes>
          <leafValues>
            -5.8010268211364746e-01 2.4643521010875702e-01</leafValues></_>
        <_>
          <internalNodes>
            0 -1 154 -499581385 1790590564 66435518 1025753555
            1583810936 -155878146 -663090087 -1172282375</internalNodes>
          <leafValues>
            -3.1311184167861938e-01 4.4050419330596924e-01</leafValues></_>
        <_>
          <internalNodes>
            0 -1 143 -939466568 -600792896 293916744 -1466919343
            -1207897725 -1996259274 841421724 1406918105</internalNodes>
          <leafValues>
            -3.6921784281730652e-01 3.5385078191757202e-01</leafValues></_></weakClassifiers></_>
    <!-- stage 21 -->
    <_>
      <maxWeakCount>18</maxWeakCount>
      <stageThreshold>-7.5734937191009521e-01</stageThreshold>
      <weakClassifiers>
        <_>
          <internalNodes>
            0 -1 255 1109450768 -1863905092 -830956577 249121792
            -1559750224 -1091781414 755002768 403707136</internalNodes>
          <leafValues>
            -3.3216169476509094e-01 4.6718147397041321e-01</leafValues></_>
        <_>
          <internalNodes>
            0 -1 102 -199777048 -878534528 1220471874 620612710
            -193948278 1850932291 189938145 -1078996797</internalNodes>
          <leafValues>
            -2.2363799810409546e-01 4.3584668636322021e-01</leafValues></_>
        <_>
          <internalNodes>
            0 -1 67 -381722348 -1207361405 2130176 1677939634
            -1039083517 1357922307 -922708480 2070393507</internalNodes>
          <leafValues>
            -3.4311574697494507e-01 3.2156527042388916e-01</leafValues></_>
        <_>
          <internalNodes>
            0 -1 362 -601829296 -1740895871 16859529 -553369200
            -1476338786 -358055846 -350187384 185342004</internalNodes>
          <leafValues>
            -5.1540666818618774e-01 2.2490996122360229e-01</leafValues></_>
        <_>
          <internalNodes>
            0 -1 93 1444908386 1469065297 -1975362228 -737865551
            590884907 2016149601 830722218 1603256457</internalNodes>
          <leafValues>
            -3.9354515075683594e-01 2.7474430203437805e-01</leafValues></_>
        <_>
          <internalNodes>
            0 -1 238 -2112043991 165167510 290027917 1515540813
            -1163202543 -465067608 436785596 419983749</internalNodes>
          <leafValues>
            -4.0607476234436035e-01 2.9922300577163696e-01</leafValues></_>
        <_>
          <internalNodes>
            0 -1 263 1256226384 1472234128 -2129062509 496813189
            536924330 -1188486579 -1911487857 415195397</internalNodes>
          <leafValues>
            -4.1321945190429688e-01 3.1509223580360413e-01</leafValues></_>
        <_>
          <internalNodes>
            0 -1 193 -1254360101 -2061125666 897545980 -967614611
            925626783 -1966088254 310620402 -900953091</internalNodes>
          <leafValues>
            -2.7555090188980103e-01 4.9837133288383484e-01</leafValues></_>
        <_>
          <internalNodes>
            0 -1 119 -563020603 -176403766 1782218043 -400362788
            913570212 -1368179140 664122483 -1084078958</internalNodes>
          <leafValues>
            -2.8291562199592590e-01 4.2433294653892517e-01</leafValues></_>
        <_>
          <internalNodes>
            0 -1 98 2083646226 -656679008 1870149601 -1711276400
            -590396156 -1998303771 -678733864 -38718978</internalNodes>
          <leafValues>
            -2.9807382822036743e-01 4.3656498193740845e-01</leafValues></_>
        <_>
          <internalNodes>
            0 -1 66 1291887060 2014679118 -2134599040 45746193
            -1727985116 -497844143 1620428450 541438003</internalNodes>
          <leafValues>
            -5.3205972909927368e-01 2.5537833571434021e-01</leafValues></_>
        <_>
          <internalNodes>
            0 -1 385 -814875209 1478254037 251133372 937258111
            -331030719 -1906481731 -959543362 -125831429</internalNodes>
          <leafValues>
            -2.0114819705486298e-01 6.3300424814224243e-01</leafValues></_>
        <_>
          <internalNodes>
            0 -1 310 -988704175 -964443678 1074364517 1229559869
            -1342146922 -1030053712 1091990069 143016472</internalNodes>
          <leafValues>
            -3.9091435074806213e-01 3.4168663620948792e-01</leafValues></_>
        <_>
          <internalNodes>
            0 -1 23 1342625614 1291858692 -788283112 -650100182 4801477
            193675275 -2138273527 848262562</internalNodes>
          <leafValues>
            -4.6816045045852661e-01 2.8510648012161255e-01</leafValues></_>
        <_>
          <internalNodes>
            0 -1 278 -756386565 -554606589 263974327 693112117
            -1350376774 -1920806922 918681301 -1089829667</internalNodes>
          <leafValues>
            -2.8403049707412720e-01 4.8305371403694153e-01</leafValues></_>
        <_>
          <internalNodes>
            0 -1 408 -222063254 -401044291 -1430623151 -523377371
            -149535452 548781051 -1652947544 -357242937</internalNodes>
          <leafValues>
            -2.8721642494201660e-01 4.5616415143013000e-01</leafValues></_>
        <_>
          <internalNodes>
            0 -1 280 -1446851968 700055692 1770108149 621167540
            419575984 1211105938 -1891577462 1587038385</internalNodes>
          <leafValues>
            -4.7584921121597290e-01 2.8567638993263245e-01</leafValues></_>
        <_>
          <internalNodes>
            0 -1 121 -1729137490 140371730 155456515 276902414 294152407
            839516324 17531012 1319955213</internalNodes>
          <leafValues>
            -4.5521855354309082e-01 3.0395731329917908e-01</leafValues></_></weakClassifiers></_>
    <!-- stage 22 -->
    <_>
      <maxWeakCount>17</maxWeakCount>
      <stageThreshold>-8.1413072347640991e-01</stageThreshold>
      <weakClassifiers>
        <_>
          <internalNodes>
            0 -1 309 116592224 4729947 801079038 1652293254 50531071
            1056681903 721151028 1903900</internalNodes>
          <leafValues>
            -3.3066132664680481e-01 4.4356518983840942e-01</leafValues></_>
        <_>
          <internalNodes>
            0 -1 176 -343381764 -655093516 922800477 1686838316
            -1448951854 -104037311 1896020483 983228560</internalNodes>
          <leafValues>
            -3.3679935336112976e-01 3.0854609608650208e-01</leafValues></_>
        <_>
          <internalNodes>
            0 -1 81 -618176777 -478010739 -469757950 1514324498
            1695549281 -240572030 679817319 -5933057</internalNodes>
          <leafValues>
            -2.7972707152366638e-01 3.8626122474670410e-01</leafValues></_>
        <_>
          <internalNodes>
            0 -1 201 -1973246989 -732182318 -46239087 290183377
            -1772749078 -1634313022 202372802 -611679199</internalNodes>
          <leafValues>
            -2.3984357714653015e-01 4.4474700093269348e-01</leafValues></_>
        <_>
          <internalNodes>
            0 -1 106 -158352254 2094202529 125335092 2105937856
            1966441572 -993200540 -120157714 -70530425</internalNodes>
          <leafValues>
            -2.3782937228679657e-01 4.9820232391357422e-01</leafValues></_>
        <_>
          <internalNodes>
            0 -1 244 482147475 1616692717 966983283 851578073
            -1499473598 -1461948590 -579004319 -1613128132</internalNodes>
          <leafValues>
            -3.0223509669303894e-01 3.7819680571556091e-01</leafValues></_>
        <_>
          <internalNodes>
            0 -1 283 -1845460688 998818124 1380524491 2143814300
            -1844923494 -268332408 -1145042296 847777820</internalNodes>
          <leafValues>
            -5.8275139331817627e-01 1.9252558052539825e-01</leafValues></_>
        <_>
          <internalNodes>
            0 -1 268 -455382851 -801179912 335276901 713731892
            -160004720 -1692426476 484895121 -96527331</internalNodes>
          <leafValues>
            -2.6483455300331116e-01 4.5195701718330383e-01</leafValues></_>
        <_>
          <internalNodes>
            0 -1 103 1890694048 1979101730 1312150818 -446305977
            -1803948145 -713797779 618464358 -22195647</internalNodes>
          <leafValues>
